#############################################################################
## Copyright (c) 1996, Carnegie Mellon University, Cambridge University,
## Ronald Rosenfeld and Philip Clarkson
## Version 3, Copyright (c) 2006, Carnegie Mellon University 
## Contributors includes Wen Xu, Ananlada Chotimongkol, 
## David Huggins-Daines, Arthur Chan and Alan Black 
#############################################################################
=============================================================================
===============  This file was produced by the CMU-Cambridge  ===============
===============     Statistical Language Modeling Toolkit     ===============
=============================================================================
This is a 3-gram language model, based on a vocabulary of 3484 words,
  which begins "а", "аббатство", "аванс"...
This is a CLOSED-vocabulary model
  (OOVs eliminated from training data and are forbidden in test data)
Good-Turing discounting was applied.
1-gram frequency of frequency : 1576 
2-gram frequency of frequency : 4345 1100 100 189 641 346 65 
3-gram frequency of frequency : 5327 1414 41 211 834 437 34 
1-gram discounting ratios : 0.00 
2-gram discounting ratios : 0.47 0.07 
3-gram discounting ratios : 0.52 0.02 
This file is in the ARPA-standard format introduced by Doug Paul.

p(wd3|wd1,wd2)= if(trigram exists)           p_3(wd1,wd2,wd3)
                else if(bigram w1,w2 exists) bo_wt_2(w1,w2)*p(wd3|wd2)
                else                         p(wd3|w2)

p(wd2|wd1)= if(bigram exists) p_2(wd1,wd2)
            else              bo_wt_1(wd1)*p_1(wd2)

All probs and back-off weights (bo_wt) are given in log10 form.

Data formats:

Beginning of data mark: \data\
ngram 1=nr            # number of 1-grams
ngram 2=nr            # number of 2-grams
ngram 3=nr            # number of 3-grams

\1-grams:
p_1     wd_1 bo_wt_1
\2-grams:
p_2     wd_1 wd_2 bo_wt_2
\3-grams:
p_3     wd_1 wd_2 wd_3 

end of data mark: \end\

\data\
ngram 1=3484
ngram 2=8105
ngram 3=9644

\1-grams:
-2.8115 а	-0.4990
-4.1254 аббатство	-0.8435
-3.2803 аванс	-1.5676
-99.9990 австралии	-0.2415
-99.9990 австралийская	-0.2755
-3.2223 ад	-1.6100
-99.9990 азербайджанский	-0.2755
-99.9990 азии	-0.2622
-99.9990 активно	-0.2755
-3.1909 алексей	-1.6529
-99.9990 американец	-0.2755
-3.2681 американской	-1.5795
-99.9990 америки	-0.2755
-4.5233 англии	-0.2398
-99.9990 анекдоты	-0.2747
-99.9990 анну	-0.2622
-99.9990 аногу	-0.2753
-99.9990 антоша	-0.2755
-3.2929 апельсинового	-1.5553
-2.6312 аппарат	-2.2013
-3.3058 аппараты	-1.5439
-99.9990 аристократических	-0.2755
-99.9990 армянский	-0.2755
-99.9990 архитектору	-0.2415
-3.2681 арчибальд	-1.5793
-3.1616 астрономов	-1.6809
-4.5233 атаку	0.0014
-3.1616 атлантическом	-1.6809
-99.9990 ауэрбах	-0.2755
-3.1616 африки	-1.6668
-3.1711 ах	-1.6718
-99.9990 ахали	-0.2415
-4.5233 б	-0.2749
-3.2223 багровые	-1.8880
-99.9990 бакенбарды	-0.2749
-3.3058 баки	-1.5439
-99.9990 бала	-0.2755
-3.2929 балки	-1.5558
-99.9990 баранками	-0.2415
-99.9990 барином	-0.2755
-99.9990 барского	-0.2755
-4.5233 бархатные	-0.2622
-3.3058 барышни	-1.5423
-4.5233 бегал	-0.0309
-99.9990 бежала	-0.2754
-3.2011 бежали	-1.6405
-99.9990 бежать	-0.2415
-2.7005 без	-1.2542
-3.1616 безвоздушном	-1.6806
-4.5233 бездна	-0.0326
-3.1616 бездны	-1.6770
-3.2223 безнадёжное	-1.6230
-99.9990 безобразили	-0.2748
-99.9990 безоглядность	-0.2755
-99.9990 безошибочно	-0.2415
-3.2803 безумном	-1.5679
-99.9990 белой	-0.2752
-4.5233 белом	-0.0326
-99.9990 белых	-0.2755
-3.3192 берега	-1.5303
-4.5233 берегу	-0.2411
-99.9990 березы	-0.2415
-3.1616 берлин	-1.6472
-99.9990 берлине	-0.2755
-4.1254 беру	-0.8371
-4.5233 бесконечно	-0.2754
-99.9990 беспокоящим	-0.2752
-99.9990 беспорядочное	-0.2755
-99.9990 беспредметно	-0.2755
-99.9990 бессмысленное	-0.2755
-99.9990 бизонов	-0.2755
-99.9990 била	-0.2611
-4.5233 били	-0.0320
-3.2681 биться	-1.5654
-99.9990 благовидные	-0.2754
-99.9990 благодать	-0.2755
-3.1809 бледный	-1.6622
-99.9990 блеск	-0.2736
-99.9990 блеска	-0.2740
-3.3330 блеснуло	-1.5183
-99.9990 блестели	-0.2737
-3.3192 ближайшей	-1.5313
-4.3472 ближе	-0.0985
-99.9990 близ	-0.2752
-4.5233 блин	-0.2621
-4.5233 блюда	-0.2724
-4.5233 бог	-0.2750
-99.9990 богатым	-0.2755
-99.9990 богатыри	-0.2415
-99.9990 богом	-0.2755
-4.5233 богу	-0.2620
-3.1711 боже	-1.6716
-99.9990 божия	-0.2415
-99.9990 бойкий	-0.2754
-4.5233 бойко	-0.0326
-99.9990 бокалами	-0.2736
-2.8848 более	-1.2921
-99.9990 болезней	-0.2611
-99.9990 болезням	-0.2755
-99.9990 больных	-0.2748
-3.5456 больше	-0.5033
-4.5233 большее	-0.0309
-99.9990 большей	-0.2755
-99.9990 большею	-0.2755
-4.5233 большинство	-0.2754
-4.1254 большой	-0.2617
-99.9990 большою	-0.2755
-3.1523 большую	-1.9654
-4.2223 бора	-0.9400
-99.9990 бородавки	-0.2415
-99.9990 бородою	-0.2415
-99.9990 бостончик	-0.2749
-3.2681 босую	-1.5795
-99.9990 ботинки	-0.2713
-99.9990 бочку	-0.2755
-3.8701 брат	-0.6975
-3.8701 брата	-1.0074
-4.2223 брату	-0.7442
-3.1254 братья	-1.4256
-4.5233 бричка	-0.2415
-4.5233 бричке	-0.2750
-99.9990 бровями	-0.2622
-99.9990 бронзовым	-0.2755
-4.2223 бросил	-0.7777
-4.5233 бросилась	-0.0321
-4.5233 бросить	-0.0308
-99.9990 брусничного	-0.2753
-99.9990 бубен	-0.2415
-3.2011 бубнили	-1.6432
-99.9990 будем	-0.2750
-2.9918 будет	-1.2182
-4.5233 будете	-0.0310
-4.5233 будешь	-0.0325
-99.9990 будочников	-0.2748
-3.9213 будто	-0.5762
-4.2223 буду	-0.0325
-4.0462 будут	-0.8691
-4.1254 будущее	-0.8434
-99.9990 буклями	-0.2744
-99.9990 булавкою	-0.2713
-99.9990 булыжник	-0.2415
-99.9990 бумагу	-0.2755
-99.9990 бумажке	-0.2755
-99.9990 бумажки	-0.2738
-99.9990 бурной	-0.2622
-3.3192 бурому	-1.5313
-3.2116 бурь	-1.6190
-3.1909 буфер	-1.6192
-3.1001 бы	-0.4236
-3.9793 бывает	-1.1640
-3.9213 бывал	-0.6854
-4.1254 бывало	-0.8111
-3.9213 бывают	-0.5760
-2.4352 был	-1.0339
-2.4551 была	-1.3775
-2.9493 были	-0.7125
-2.4011 было	-0.8770
-4.1254 быстро	-0.8318
-2.7488 быть	-0.9007
-99.9990 бычье	-0.2755
-2.9323 бьётся	-1.9077
-1.4857 в	-1.3324
-3.1711 важнее	-1.6718
-3.1711 важнейшие	-1.6718
-4.2223 важно	-0.7442
-4.5233 важное	0.0014
-3.0685 вам	-1.0628
-3.2446 варёную	-1.6018
-3.2681 вас	-1.0368
-99.9990 ваше	-0.2755
-4.5233 вашего	-0.0325
-4.5233 ваши	-0.0325
-3.2446 вашу	-1.8773
-4.0462 вверх	-1.1182
-99.9990 вверху	-0.2736
-3.1616 вглядывался	-1.6668
-99.9990 вглядываясь	-0.2611
-99.9990 вдали	-0.2415
-3.8244 вдруг	-0.4094
-3.2929 ведёрке	-1.5561
-99.9990 ведро	-0.2415
-99.9990 ведром	-0.2622
-2.9551 ведь	-1.1535
-4.5233 вежливым	-0.2415
-4.0462 везде	-0.1433
-99.9990 везших	-0.2750
-4.2223 век	-0.7780
-3.2446 веки	-1.5681
-4.3472 веку	-0.0655
-4.3472 вел	-0.0653
-4.1254 вела	-0.8449
-99.9990 велел	-0.2755
-99.9990 вельможами	-0.2755
-99.9990 веревками	-0.2622
-3.0609 верёвочки	-1.7814
-4.5233 верил	-0.0315
-99.9990 верили	-0.2755
-4.1254 верить	-1.0178
-4.5233 верно	-0.2751
-4.2223 вернулась	-0.0326
-4.0462 вернуть	-1.1200
-4.2223 вернуться	0.0040
-4.5233 вероятно	-0.2726
-99.9990 верст	-0.2736
-99.9990 вертелся	-0.2750
-99.9990 вертлявым	-0.2743
-99.9990 верхний	-0.2739
-99.9990 верхнюю	-0.2415
-3.2011 весёлая	-1.6431
-3.2011 весёлыми	-1.6432
-99.9990 весом	-0.2754
-4.5233 вести	-0.0325
-3.2223 вестибюль	-1.6100
-3.1342 весь	-1.4967
-3.7830 весьма	-0.1858
-3.1616 ветер	-1.4020
-99.9990 ветра	-0.2622
-4.5233 вечеринке	-0.2415
-99.9990 вечеринку	-0.2415
-3.1523 вечеру	-1.6893
-3.2223 вечной	-1.6230
-99.9990 вечною	-0.2755
-99.9990 вечный	-0.2755
-4.5233 вещей	-0.0278
-4.5233 вещи	-0.0326
-4.2223 вещь	-0.7442
-3.1523 вёрст	-1.6894
-99.9990 взад	-0.2622
-3.9793 взгляд	-0.8587
-3.2929 взгляды	-1.5561
-4.1254 взглянув	-0.8371
-4.0462 взглянул	-0.8951
-3.9213 взглянуть	-0.9785
-4.5233 вздор	-0.2749
-99.9990 вздохнул	-0.2622
-3.3620 взлохмаченная	-1.4909
-3.2223 взошёл	-1.6152
-4.5233 взявши	-0.2567
-99.9990 взял	-0.2752
-3.8701 взяла	-0.4284
-4.5233 взять	-0.0284
-3.9213 вид	-0.9514
-99.9990 вида	-0.2754
-99.9990 видали	-0.2739
-3.5691 видел	-1.0829
-99.9990 видели	-0.2726
-2.8848 видеть	-1.9245
-3.2562 видимо	-0.9936
-2.9551 видна	-2.1530
-4.1254 видно	-0.0329
-3.2223 видны	-1.6125
-3.9793 виду	-1.1446
-99.9990 видывал	-0.2755
-99.9990 видывано	-0.2752
-4.5233 вижу	-0.0324
-99.9990 визит	-0.2750
-99.9990 визитам	-0.2415
-99.9990 визитных	-0.2755
-99.9990 визитов	-0.2712
-99.9990 визиты	-0.2755
-99.9990 виляют	-0.2754
-99.9990 висела	-0.2738
-4.5233 висели	-0.0322
-99.9990 висит	-0.2755
-3.1909 виски	-1.6522
-99.9990 вист	-0.2755
-99.9990 виста	-0.2415
-4.5233 висящих	-0.0326
-99.9990 витал	-0.2611
-99.9990 вице	-0.2755
-99.9990 вицегубернатором	-0.2622
-99.9990 вишь	-0.2750
-3.2011 вкратце	-1.6432
-99.9990 вкусом	-0.2755
-99.9990 властителями	-0.2712
-99.9990 влетают	-0.2755
-99.9990 влетели	-0.2755
-3.2562 влетит	-1.5766
-99.9990 вложена	-0.2611
-4.0462 вместе	-0.4711
-3.9793 вместо	-0.8759
-99.9990 внесен	-0.2739
-99.9990 внесено	-0.2755
-99.9990 внесены	-0.2750
-99.9990 внесли	-0.2755
-99.9990 внизу	-0.2750
-99.9990 внимание	-0.2755
-99.9990 внимания	-0.2415
-3.9793 внимательно	-0.8428
-99.9990 внимательность	-0.2731
-4.5233 вновь	-0.0326
-99.9990 внутренности	-0.2745
-3.2333 внутренность	-1.6098
-2.9551 внутри	-1.8850
-3.3192 внутрь	-1.5310
-2.8376 во	-1.2336
-4.5233 вовсе	-0.2704
-99.9990 воде	-0.2415
-4.5233 водится	-0.2707
-99.9990 воду	-0.2415
-3.2803 водя	-1.5665
-4.1254 военной	-0.8451
-4.1254 возвращались	-0.8451
-3.1431 воздух	-1.7059
-99.9990 воздухом	-0.2755
-99.9990 воздушно	-0.2622
-99.9990 воздушные	-0.2755
-99.9990 возились	-0.2754
-99.9990 возиться	-0.2755
-4.1254 возле	-1.0533
-99.9990 возможно	-0.2712
-3.2011 возможном	-1.6432
-99.9990 возможность	-0.2415
-99.9990 возмущенно	-0.2415
-4.1254 войне	-0.8111
-99.9990 войны	-0.2415
-4.5233 войти	-0.0310
-99.9990 вокруг	-0.2415
-99.9990 вол	-0.2755
-3.2803 волнистых	-1.8316
-99.9990 володи	-0.2755
-3.2803 волос	-1.7964
-4.5233 волосами	-0.2271
-99.9990 волоска	-0.2622
-4.5233 волосы	-0.2737
-99.9990 вольном	-0.2755
-4.3472 вон	-0.0850
-4.5233 воображении	-0.2415
-4.1254 вообразить	-0.8403
-3.6202 вообще	-1.5185
-3.3192 вопрос	-1.5313
-4.5233 вопроса	0.0014
-99.9990 вопросов	-0.2754
-99.9990 вопросы	-0.2415
-3.0182 ворона	-2.0541
-3.2116 ворот	-1.8983
-4.3472 ворота	-0.0990
-4.1254 воротник	-0.8435
-4.5233 восемнадцатого	-0.0326
-4.5233 восемнадцать	0.0014
-3.8244 восемь	-1.1127
-3.1523 восемьдесят	-1.6562
-99.9990 восклицания	-0.2755
-4.0462 воскресенье	-0.9030
-3.1616 востоку	-1.6794
-3.2011 восьми	-1.6392
-99.9990 восьмого	-0.2755
-2.9493 вот	-1.0273
-99.9990 вошедши	-0.2611
-3.2116 вошли	-1.6088
-3.9213 впервые	-0.6858
-4.5233 вперед	-0.2735
-99.9990 впереди	-0.2622
-3.2446 вперёд	-1.6018
-99.9990 вполне	-0.2754
-3.9793 впоследствии	-1.1776
-4.1254 вправду	-0.8451
-3.7104 впрочем	-0.1386
-99.9990 вразбитную	-0.2745
-99.9990 врачебной	-0.2755
-4.3472 времена	-0.0986
-4.3472 времени	-0.2578
-3.1523 время	-1.2270
-4.5233 врознь	0.0014
-99.9990 вряд	-0.2750
-2.6630 все	-0.8981
-99.9990 всевобуча	-0.2611
-3.7452 всегда	-0.1767
-3.1168 всего	-1.0285
-4.5233 всей	-0.2755
-3.2333 вселенной	-1.5788
-4.2223 всем	-0.2753
-99.9990 всеми	-0.2755
-99.9990 всему	-0.2753
-99.9990 всеобщее	-0.2755
-99.9990 всеобщие	-0.2415
-4.1254 всерьез	-0.8111
-3.5939 всех	-0.3551
-4.5233 всё	-0.2736
-3.3058 всём	-1.5439
-99.9990 вскользь	-0.2726
-4.5233 вскоре	-0.0323
-3.9793 вслед	-0.9018
-99.9990 вслух	-0.2712
-4.1254 вспоминал	-1.0521
-4.1254 вспомнил	-0.8451
-4.1254 вспомнить	-0.8408
-3.3058 вспыхнул	-1.5439
-99.9990 вставали	-0.2742
-4.1254 встал	-0.8451
-4.3472 встретил	-0.0994
-99.9990 встретился	-0.2755
-99.9990 встречал	-0.2755
-99.9990 встречен	-0.2755
-4.1254 встречи	-0.8438
-99.9990 встряхивал	-0.2755
-99.9990 встряхнул	-0.2755
-99.9990 всунули	-0.2755
-3.9213 всю	-0.5760
-3.8701 всякий	-0.4889
-4.1254 всякого	-0.8451
-3.9213 всяком	-1.1785
-4.1254 вторая	-0.8451
-3.3058 второго	-1.5439
-3.2681 второй	-1.5795
-3.1809 втянули	-1.6610
-99.9990 входа	-0.2415
-3.2803 входил	-1.5680
-4.1254 входит	-0.8307
-99.9990 въезд	-0.2737
-99.9990 въезжаешь	-0.2739
-99.9990 въехал	-0.2675
-99.9990 въехала	-0.2755
-3.4094 вы	-0.4834
-3.2116 выбегали	-1.6332
-99.9990 выбежал	-0.2755
-99.9990 выбритые	-0.2755
-99.9990 выводиться	-0.2755
-3.2223 выглядывала	-1.8802
-99.9990 выглядывающими	-0.2739
-3.2446 выдать	-1.6018
-99.9990 выждав	-0.2754
-99.9990 выживаемости	-0.2755
-99.9990 вызвали	-0.2755
-99.9990 выкладками	-0.2415
-3.2116 выключил	-1.6332
-99.9990 выкрашен	-0.2755
-99.9990 выкрашенные	-0.2755
-99.9990 выкушал	-0.2755
-99.9990 вылезавшие	-0.2415
-99.9990 вылезшие	-0.2725
-99.9990 выпрямливался	-0.2755
-99.9990 выражена	-0.2754
-4.0462 выражения	-1.0859
-99.9990 вырази	-0.2755
-99.9990 выразил	-0.2675
-3.8701 выразить	-1.0783
-99.9990 вырастает	-0.2611
-99.9990 вырывались	-0.2755
-99.9990 выслушивал	-0.2752
-99.9990 высмаркивался	-0.2755
-4.5233 высокие	-0.0193
-3.2223 высокую	-1.6230
-3.2011 высоты	-1.6302
-3.3192 высохшие	-1.5313
-99.9990 высочество	-0.2739
-3.3192 вытащил	-1.5313
-99.9990 вытер	-0.2754
-99.9990 вытирал	-0.2752
-99.9990 вытребовать	-0.2737
-3.2681 вытягивая	-1.5793
-4.1254 выхода	-1.0165
-99.9990 выходки	-0.2622
-99.9990 выходя	-0.2713
-99.9990 вычерпывали	-0.2755
-4.2223 выше	-0.1352
-3.8701 вышел	-1.0420
-99.9990 вышивал	-0.2754
-99.9990 вышины	-0.2754
-4.5233 вышла	-0.0323
-99.9990 вышли	-0.2611
-99.9990 выщекатурен	-0.2622
-99.9990 выщипнул	-0.2755
-99.9990 выяснить	-0.2749
-3.1809 вязли	-1.6610
-3.2562 газеты	-1.8210
-99.9990 галерее	-0.2755
-3.2929 гвоздиками	-1.5561
-2.6285 где	-1.4703
-99.9990 генетики	-0.2755
-3.1616 геометрически	-1.6809
-99.9990 германии	-0.2415
-99.9990 героические	-0.2749
-99.9990 гимнастерках	-0.2755
-99.9990 гитлеровской	-0.2755
-99.9990 главный	-0.2755
-4.1254 главным	-0.8450
-3.2929 гладких	-1.5561
-99.9990 гладко	-0.2755
-99.9990 гладкое	-0.2755
-3.1711 глаз	-1.4258
-3.1616 глаза	-1.0805
-4.1254 глазах	-0.8111
-99.9990 глазки	-0.2755
-2.9267 глазков	-1.8796
-99.9990 глазом	-0.2745
-4.5233 глубине	-0.0308
-4.5233 глубины	-0.2412
-3.2929 глубокие	-1.5558
-4.5233 глубоко	-0.2755
-3.1909 глядел	-1.6354
-3.2116 глядели	-1.6254
-99.9990 глядь	-0.2712
-4.5233 глядя	-0.0182
-99.9990 глядят	-0.2755
-4.0462 глянул	-0.8951
-3.3058 гневно	-1.5308
-3.2333 говор	-1.6120
-4.1254 говори	-0.8443
-3.7452 говорил	-0.7503
-3.8244 говорила	-1.1124
-3.9213 говорили	-0.8940
-3.5939 говорит	-1.2737
-3.5021 говорить	-0.6950
-3.9793 говорю	-0.6006
-4.1254 говоря	-1.0525
-4.0462 говорят	-1.1205
-4.3472 года	-0.0636
-99.9990 году	-0.2415
-3.9793 годы	-0.8337
-99.9990 голая	-0.2755
-99.9990 голландец	-0.2742
-3.2223 голова	-1.8819
-3.2929 голове	-1.5393
-3.1431 головой	-1.6733
-99.9990 головою	-0.2415
-4.2223 голову	-0.1032
-99.9990 головы	-0.2622
-3.3472 голос	-1.1049
-3.9793 гораздо	-0.6333
-3.3192 горела	-1.5313
-3.3192 горелому	-1.5313
-99.9990 горизонте	-0.2752
-3.7830 город	-0.7186
-3.2223 города	-1.0455
-99.9990 городам	-0.2755
-99.9990 городах	-0.2745
-3.2223 городе	-1.1497
-99.9990 городским	-0.2755
-99.9990 городских	-0.2755
-99.9990 городской	-0.2755
-99.9990 городскому	-0.2755
-3.2929 горошком	-1.8063
-99.9990 горькие	-0.2755
-99.9990 горячек	-0.2755
-4.1254 господа	-0.8451
-99.9990 господами	-0.2755
-3.6782 господин	-0.5420
-99.9990 господина	-0.2755
-99.9990 госте	-0.2707
-99.9990 гостиница	-0.2740
-99.9990 гостинице	-0.2415
-3.9793 гостиницы	-0.6518
-4.1254 гостиную	-0.8451
-4.5233 гость	-0.2271
-99.9990 государю	-0.2755
-99.9990 готов	-0.2739
-99.9990 готовый	-0.2731
-4.5233 грек	-0.2755
-99.9990 грива	-0.2737
-99.9990 громкая	-0.2755
-3.8701 громко	-0.5838
-99.9990 громом	-0.2753
-99.9990 грубость	-0.2415
-3.1711 грудь	-1.3600
-4.5233 грудями	-0.2409
-99.9990 группа	-0.2754
-99.9990 группами	-0.2755
-3.1523 группы	-1.9201
-4.1254 грустно	-1.0196
-99.9990 грязноватых	-0.2742
-3.3058 грязной	-1.5439
-99.9990 грязью	-0.2755
-4.1254 губ	-0.8442
-3.2562 губами	-1.8069
-4.5233 губернатор	-0.2749
-99.9990 губернатора	-0.2754
-99.9990 губернатором	-0.2754
-4.5233 губернаторский	-0.2754
-99.9990 губернаторской	-0.2755
-4.3472 губернатору	-0.2410
-99.9990 губернаторше	-0.2415
-99.9990 губернии	-0.2755
-99.9990 губернию	-0.2755
-99.9990 губернским	-0.2755
-99.9990 губернских	-0.2755
-99.9990 губернского	-0.2752
-4.5233 губу	-0.2712
-2.6541 гусев	-2.1672
-3.1711 гусеву	-1.6718
-99.9990 густафсон	-0.2415
-99.9990 густая	-0.2755
-4.0462 густо	-1.0861
-99.9990 густой	-0.2755
-4.5233 густыми	-0.2755
-3.2562 гуще	-1.5908
-2.9793 да	-1.8161
-2.9159 давно	-2.1444
-99.9990 дает	-0.2755
-2.9983 даже	-0.7507
-4.1254 дал	-0.8449
-4.1254 далеко	-0.0323
-99.9990 дальнем	-0.2755
-99.9990 дальний	-0.2755
-3.9793 дальше	-0.6324
-4.3472 дам	-0.2612
-4.0462 дама	-0.8691
-99.9990 дамам	-0.2745
-99.9990 дамских	-0.2755
-4.3472 дамы	-0.0650
-99.9990 дан	-0.2755
-4.5233 дают	-0.0302
-3.6782 два	-0.1399
-99.9990 двадцать	-0.2755
-4.0462 дважды	-0.8691
-3.2223 две	-1.5864
-3.2333 двенадцати	-1.6116
-4.5233 дверей	-0.0326
-99.9990 двери	-0.2415
-3.2929 дверца	-1.5419
-4.1254 дверцу	-0.8450
-3.1809 дверь	-1.6225
-99.9990 дверью	-0.2611
-3.2803 двести	-1.5680
-3.2116 двигатель	-1.5995
-2.9323 движения	-1.8950
-99.9990 движениями	-0.2755
-99.9990 движется	-0.2755
-3.2929 движущего	-1.5561
-99.9990 двинулся	-0.2611
-99.9990 двое	-0.2742
-99.9990 двойку	-0.2415
-3.1909 двойная	-1.6529
-4.5233 двор	-0.2414
-99.9990 дворце	-0.2755
-99.9990 двумя	-0.2755
-3.7452 двух	-1.3876
-4.0462 девочка	-0.8691
-4.1254 девчонка	-0.8111
-4.3472 девятьсот	-0.0995
-3.9793 действительно	-0.8769
-4.5233 действительности	0.0014
-4.1254 действовать	-0.8111
-4.5233 действует	0.0014
-99.9990 дел	-0.2748
-3.1523 дела	-1.2692
-4.5233 делает	-0.2737
-4.3472 делается	-0.0655
-4.2223 делал	-0.0970
-99.9990 делало	-0.2754
-3.7452 делать	-0.4513
-4.5233 делают	-0.0312
-3.9793 делая	-0.9542
-4.2223 деле	0.0066
-99.9990 деликатно	-0.2755
-99.9990 делит	-0.2737
-3.6202 дело	-0.9273
-99.9990 деловая	-0.2755
-99.9990 дельному	-0.2415
-99.9990 демикотонном	-0.2755
-3.7830 денег	-1.0799
-4.3472 день	-0.2755
-3.2446 деньгами	-1.5888
-4.0462 деньгах	-0.8691
-3.1711 деньги	-1.6427
-4.5233 дерева	-0.2712
-99.9990 деревенька	-0.2751
-4.5233 деревне	-0.0326
-3.1342 деревню	-1.9401
-3.3058 деревьев	-1.7703
-3.2681 деревьям	-1.5795
-99.9990 деревянной	-0.2755
-3.3620 держал	-1.4912
-4.0462 держала	-0.9031
-99.9990 держался	-0.2712
-99.9990 держит	-0.2754
-99.9990 дерьмо	-0.2755
-4.0462 дескать	-0.9030
-99.9990 десять	-0.2755
-99.9990 детей	-0.2415
-4.2223 дети	-0.1302
-99.9990 деятельность	-0.2755
-99.9990 джузеппе	-0.2755
-99.9990 диван	-0.2755
-99.9990 диковатость	-0.2415
-99.9990 длинна	-0.2611
-99.9990 длинном	-0.2755
-99.9990 длиннорукий	-0.2415
-3.1431 длинные	-1.9654
-99.9990 длинный	-0.2622
-99.9990 длинными	-0.2755
-2.8032 для	-1.1046
-99.9990 дне	-0.2755
-4.5233 дня	-0.2658
-99.9990 дням	-0.2755
-2.5595 до	-1.5500
-4.5233 добраться	0.0014
-4.5233 добржанский	-0.2415
-99.9990 добро	-0.2754
-99.9990 доброй	-0.2725
-4.5233 добряк	-0.2622
-4.3472 довольно	-0.2753
-4.1254 доедет	-0.0359
-99.9990 доклады	-0.2755
-4.0462 доктор	-0.9031
-99.9990 докучными	-0.2755
-4.5233 долг	-0.2415
-3.0920 долго	-1.5534
-3.7830 должен	-0.0471
-3.9213 должна	-0.6832
-3.8701 должно	-0.6833
-99.9990 должное	-0.2415
-3.8244 должны	-1.1134
-4.1254 дом	-0.2390
-2.9731 дома	-1.8010
-99.9990 домах	-0.2415
-99.9990 домашнюю	-0.2755
-3.2116 доме	-1.3208
-3.2333 домов	-1.6122
-4.3472 домой	-0.0819
-4.0462 донесся	-0.9031
-99.9990 допытывался	-0.2737
-99.9990 дороге	-0.2415
-99.9990 дороги	-0.2755
-99.9990 дорогое	-0.2748
-99.9990 дорогой	-0.2415
-3.2333 досками	-1.6125
-3.9213 достаточно	-0.5758
-4.5233 достоин	-0.0322
-99.9990 достоинство	-0.2755
-99.9990 достойны	-0.2755
-99.9990 дохода	-0.2622
-99.9990 дочь	-0.2415
-99.9990 драках	-0.2713
-99.9990 древний	-0.2755
-3.9793 друг	-1.1743
-4.3472 друга	-0.6650
-3.9213 другая	-0.3844
-4.5233 другие	-0.2755
-4.5233 другим	-0.2755
-4.1254 других	-0.8448
-3.9793 другого	-0.5766
-4.2223 другое	-0.1033
-3.6483 другой	-0.5960
-3.7830 другом	-0.6675
-3.3192 другому	-1.1067
-3.9213 другую	-0.7180
-4.1254 друзья	-0.8111
-99.9990 дуба	-0.2750
-99.9990 думаете	-0.2415
-3.7104 думаешь	-0.7628
-3.7830 думал	-1.3517
-4.5233 думала	0.0014
-3.2116 думали	-1.6306
-4.2223 думать	0.0014
-3.7104 думаю	-0.5065
-4.5233 думают	-0.0320
-99.9990 дурной	-0.2755
-99.9990 духа	-0.2415
-4.3472 душ	-0.6020
-4.1254 душа	-0.8111
-4.0462 душе	-0.9014
-4.3472 души	-0.6650
-99.9990 душу	-0.2726
-99.9990 дыбом	-0.2755
-99.9990 дыма	-0.2622
-3.1909 дышалось	-1.6526
-99.9990 европе	-0.2745
-99.9990 европы	-0.2755
-2.3946 его	-0.8499
-3.3192 едва	-1.5299
-4.5233 единственное	-0.0325
-3.2446 единственные	-1.6018
-4.1254 единственный	-0.8422
-4.1254 еду	-0.8447
-4.5233 еды	-0.0283
-3.0685 ее	-0.5804
-2.9435 её	-2.1528
-4.5233 ездить	-0.0322
-99.9990 ездят	-0.2755
-3.4264 ей	-0.5915
-2.7171 ему	-0.9592
-3.3058 если	-0.3772
-4.1254 естественно	-0.8445
-2.9053 есть	-1.1488
-4.0462 ехал	-0.9030
-3.1431 ехать	-1.6986
-3.0320 еще	-0.6303
-4.1254 ею	-0.8451
-3.6782 ж	-0.8102
-3.1616 жадно	-1.6809
-99.9990 жал	-0.2747
-3.2446 жалованье	-1.6018
-99.9990 жаль	-0.2726
-99.9990 жандарма	-0.2755
-4.5233 жареная	-0.2755
-4.0462 жарко	-0.8691
-99.9990 жаркого	-0.2755
-99.9990 жатву	-0.2755
-4.2223 ждал	-0.0278
-3.2803 ждановскую	-1.5680
-3.2333 ждать	-1.8766
-3.9793 ждет	-0.6329
-2.3726 же	-0.9323
-3.9213 желал	-0.6840
-4.0462 желание	-0.9013
-4.1254 желаю	-0.8447
-99.9990 желая	-0.2755
-4.1254 железный	-0.8449
-4.5233 желтая	-0.2753
-99.9990 желтою	-0.2755
-4.2223 жена	0.0014
-99.9990 женатым	-0.2755
-3.9793 женился	-0.6131
-99.9990 женские	-0.2755
-4.0462 женский	-0.9029
-4.1254 женщин	-0.8448
-3.1168 женщина	-1.1466
-3.2681 женщину	-1.5654
-3.2681 женщины	-1.5756
-4.5233 жены	-0.2751
-99.9990 жестких	-0.2755
-3.3192 жестяном	-1.5313
-3.2333 жёлтой	-1.6125
-4.1254 жив	-0.8408
-4.3472 живет	-0.2251
-4.5233 живое	-0.2603
-3.2333 живоносного	-1.6125
-3.2116 животные	-1.6332
-99.9990 живу	-0.2745
-99.9990 живые	-0.2755
-99.9990 живым	-0.2622
-3.8701 жизни	-0.9405
-3.9793 жизнь	-0.0577
-4.0462 жила	-0.5407
-3.2333 жили	-1.5984
-99.9990 жительства	-0.2415
-3.7104 жить	-0.7607
-99.9990 з	-0.2755
-2.5190 за	-1.2165
-99.9990 забавно	-0.2755
-99.9990 забирался	-0.2755
-4.5233 заботились	-0.0297
-3.2562 забранные	-1.5908
-3.1431 заброшена	-1.6650
-3.2333 заброшенном	-1.6125
-3.5939 забыл	-0.4537
-4.5233 забыла	-0.0297
-3.3192 заваленном	-1.5313
-3.2803 завела	-1.5680
-99.9990 завернутая	-0.2611
-2.8750 завтра	-1.9326
-99.9990 загривком	-0.2415
-99.9990 задние	-0.2749
-99.9990 задубили	-0.2415
-99.9990 зажег	-0.2750
-99.9990 зажмурить	-0.2752
-3.2223 заката	-1.6100
-3.2333 заколоченные	-1.6125
-4.1254 законы	-0.8111
-99.9990 закопченный	-0.2755
-3.3192 закричал	-1.5272
-99.9990 закругленные	-0.2622
-4.5233 закружился	-0.2415
-3.2446 закрытые	-1.6018
-99.9990 закутываться	-0.2748
-99.9990 зал	-0.2754
-99.9990 зала	-0.2415
-99.9990 заливали	-0.2611
-4.5233 залито	-0.2415
-99.9990 заложенной	-0.2611
-99.9990 заложившив	-0.2754
-99.9990 залосненные	-0.2755
-3.2116 залу	-1.8641
-99.9990 залы	-0.2754
-99.9990 замаслившимся	-0.2739
-4.5233 заметил	-0.2696
-4.5233 заметила	-0.0316
-99.9990 заметили	-0.2752
-99.9990 заметною	-0.2755
-4.5233 замечает	0.0014
-4.5233 замечания	-0.2755
-99.9990 замечателен	-0.2726
-99.9990 замирал	-0.2750
-99.9990 занимали	-0.2755
-99.9990 занимались	-0.2755
-99.9990 занимают	-0.2755
-3.3772 заногу	-1.4769
-99.9990 заняли	-0.2755
-99.9990 заняло	-0.2713
-99.9990 занятию	-0.2755
-3.1616 запад	-1.6794
-3.1616 западу	-1.6680
-3.9793 запах	-1.1445
-99.9990 запаха	-0.2755
-99.9990 записку	-0.2748
-99.9990 заповеднике	-0.2740
-99.9990 запоминаются	-0.2754
-4.1254 запомнил	-0.8111
-3.2333 зарабатываю	-1.5788
-4.5233 заранее	-0.0320
-3.2562 заросли	-1.5908
-4.3472 засвидетельствовать	-0.0995
-99.9990 заслуживши	-0.2755
-99.9990 заснул	-0.2754
-4.5233 заставил	-0.0326
-99.9990 заставить	-0.2753
-99.9990 заставленною	-0.2755
-4.1254 заставляет	-0.8450
-99.9990 заставы	-0.2675
-99.9990 застегнутая	-0.2755
-3.7830 затем	-1.3881
-99.9990 зато	-0.2611
-99.9990 затрещит	-0.2749
-99.9990 затылке	-0.2415
-99.9990 захлюпал	-0.2755
-4.0462 зачем	-0.9009
-99.9990 зачесанные	-0.2755
-3.2223 зашагал	-1.6217
-99.9990 заявил	-0.2712
-99.9990 звал	-0.2737
-99.9990 звезда	-0.2755
-99.9990 звезде	-0.2754
-4.5233 звенели	-0.0325
-3.1711 звёзд	-1.6381
-3.2929 звёздную	-1.5561
-99.9990 звонки	-0.2755
-4.5233 звук	-0.2755
-4.5233 звука	0.0014
-99.9990 звучал	-0.2739
-3.0320 здесь	-0.9232
-99.9990 здравствует	-0.2755
-99.9990 зевать	-0.2622
-99.9990 зеленого	-0.2755
-99.9990 зеленый	-0.2755
-3.2803 зеленью	-1.5549
-4.1254 зелёный	-0.8451
-3.1711 земле	-1.9364
-3.2116 земли	-1.5995
-3.1711 землю	-1.6641
-3.1431 земля	-1.6987
-3.1809 земную	-1.6625
-99.9990 зеркалом	-0.2755
-99.9990 зловещие	-0.2415
-99.9990 знаем	-0.2749
-3.7452 знает	-0.8710
-4.0462 знаете	-0.9002
-4.2223 знаешь	-0.7766
-99.9990 знакомили	-0.2742
-99.9990 знакомились	-0.2622
-99.9990 знакомо	-0.2755
-99.9990 знакомого	-0.2675
-99.9990 знакомства	-0.2752
-4.0462 знакомы	-0.9030
-99.9990 знакомые	-0.2755
-3.7104 знал	-0.7603
-4.2223 знали	-0.9248
-99.9990 знамена	-0.2755
-99.9990 знаменитостей	-0.2754
-4.2223 знаменитости	-0.2611
-3.9213 знать	-0.5756
-4.3472 значит	-0.0985
-99.9990 значительного	-0.2755
-99.9990 значительной	-0.2415
-99.9990 значительных	-0.2755
-3.5939 знаю	-0.5896
-3.9793 знают	-0.6005
-3.2803 зовёт	-1.8311
-4.2223 зовут	-0.7442
-3.3330 золото	-1.4845
-99.9990 зорко	-0.2415
-3.2333 зрелища	-1.6125
-3.2011 зубами	-1.6416
-3.3330 зубах	-1.5168
-3.6782 зубр	-0.3564
-3.8701 зубра	-0.0749
-99.9990 зубрами	-0.2737
-99.9990 зубре	-0.2755
-99.9990 зубров	-0.2755
-4.5233 зубрость	0.0014
-4.2223 зубру	-0.1033
-3.2116 зубчатым	-1.6332
-1.5220 и	-1.1391
-4.1254 ибо	-0.2674
-99.9990 иванова	-0.2733
-3.1711 иванович	-1.3940
-4.3472 игра	-0.0655
-99.9990 играл	-0.2415
-4.0462 игру	-0.9009
-4.5233 игры	-0.2415
-4.5233 идет	-0.2720
-3.0609 идти	-1.1711
-2.1702 из	-1.7569
-99.9990 избегал	-0.2754
-99.9990 избрать	-0.2755
-99.9990 известная	-0.2755
-3.9793 известно	-0.6311
-4.2223 известного	-0.8435
-99.9990 известную	-0.2755
-99.9990 извнутри	-0.2755
-99.9990 изволили	-0.2754
-4.3472 издали	-0.0648
-99.9990 изза	-0.2755
-99.9990 изменился	-0.2748
-99.9990 изображен	-0.2748
-4.5233 изображена	-0.0311
-4.2223 изредка	-0.7781
-99.9990 изрезано	-0.2755
-99.9990 изречения	-0.2755
-99.9990 изучали	-0.2755
-99.9990 изысканность	-0.2622
-2.8701 или	-0.7564
-3.8244 им	-0.4414
-99.9990 имевший	-0.2752
-99.9990 имеет	-0.2755
-4.0462 имел	-0.5684
-3.9793 имела	-0.6345
-4.3472 имели	-0.0979
-4.5233 имело	-0.0326
-4.5233 именем	-0.0325
-99.9990 имения	-0.2748
-3.0609 именно	-1.0979
-4.2223 иметь	-0.7442
-4.0462 имею	-0.8887
-99.9990 имеющего	-0.2755
-99.9990 имеющие	-0.2755
-4.5233 ими	-0.0308
-4.3472 имя	-0.0862
-4.5233 иначе	0.0014
-3.3192 инженера	-1.5313
-3.8244 иногда	-0.7919
-4.1254 иного	-0.8451
-99.9990 иной	-0.2749
-99.9990 инспектору	-0.2755
-99.9990 институтам	-0.2755
-3.3058 инструментов	-1.5308
-4.1254 интерес	-1.0523
-4.0462 интересно	-1.0835
-99.9990 интересовались	-0.2415
-3.7830 интересует	-1.0799
-99.9990 интересующийся	-0.2754
-2.9105 иные	-1.3542
-99.9990 иных	-0.2750
-99.9990 искал	-0.2755
-3.2223 искателем	-1.6224
-4.0462 исключением	-0.9031
-3.2681 искоркой	-1.5458
-99.9990 искренним	-0.2415
-99.9990 искрой	-0.2754
-4.5233 искусно	-0.2745
-99.9990 искусств	-0.2755
-99.9990 испивать	-0.2754
-99.9990 исподлобья	-0.2755
-99.9990 исполинского	-0.2755
-99.9990 исполнить	-0.2745
-4.5233 испытал	-0.0325
-4.5233 истертым	-0.0326
-99.9990 историей	-0.2755
-99.9990 истории	-0.2755
-99.9990 исторических	-0.2755
-99.9990 исторического	-0.2755
-99.9990 источили	-0.2737
-3.2011 истребить	-1.6095
-99.9990 истребленного	-0.2752
-4.1254 исчез	-0.8111
-99.9990 италии	-0.2738
-99.9990 итальянски	-0.2415
-2.9267 их	-0.8176
-99.9990 ищет	-0.2415
-99.9990 июльского	-0.2755
-2.2597 к	-1.4320
-4.5233 кабака	-0.0325
-4.5233 кабинете	-0.0311
-99.9990 кадре	-0.2755
-4.5233 каждого	-0.2415
-99.9990 каждом	-0.2755
-99.9990 каждому	-0.2415
-99.9990 каждую	-0.2755
-4.5233 каждый	-0.0325
-99.9990 кажется	-0.2415
-4.5233 казалась	-0.0326
-3.1909 казались	-1.6625
-2.8701 казалось	-1.6212
-4.5233 казань	-0.2693
-99.9990 казенными	-0.2755
-2.4352 как	-0.7737
-99.9990 какая	-0.2752
-2.8799 какие	-1.2717
-4.5233 какието	-0.2755
-99.9990 каким	-0.2741
-4.2223 какими	-0.7767
-99.9990 какимито	-0.2755
-4.5233 каких	-0.2755
-99.9990 какихто	-0.2755
-3.9793 какого	-1.1780
-3.7104 какое	-1.4193
-3.6202 какой	-0.6615
-99.9990 каком	-0.2755
-99.9990 както	-0.2755
-4.0462 какую	-1.1187
-3.2011 каменных	-1.9087
-99.9990 камина	-0.2755
-2.9323 каналы	-1.9080
-4.5233 канелис	-0.2738
-99.9990 канифасовых	-0.2755
-99.9990 капустой	-0.2755
-99.9990 карельской	-0.2755
-3.2681 карие	-1.5665
-4.1254 кармане	-0.8111
-99.9990 карт	-0.2415
-99.9990 картинах	-0.2755
-4.5233 картине	-0.0326
-99.9990 картину	-0.2415
-4.5233 картины	-0.0320
-99.9990 карточек	-0.2755
-99.9990 карточки	-0.2754
-3.2446 картошку	-1.6018
-99.9990 карту	-0.2675
-4.5233 картуз	-0.2622
-99.9990 карты	-0.2415
-3.1809 катей	-1.6625
-3.2446 кати	-1.5978
-99.9990 катились	-0.2738
-3.1711 катюшиной	-1.6718
-3.2223 катя	-1.5893
-3.2116 квадратные	-1.6332
-3.7830 квартире	-1.1418
-3.2011 квартиру	-1.3507
-3.8701 кем	-0.7783
-99.9990 кивал	-0.2755
-3.3192 кивнул	-1.5308
-3.2562 кидались	-1.5766
-4.1254 километров	-0.8111
-99.9990 кинохроники	-0.2755
-4.1254 кинул	-0.8451
-3.1909 кинулся	-1.6508
-99.9990 кипение	-0.2713
-99.9990 кирпич	-0.2622
-99.9990 кирпичиках	-0.2415
-3.2929 кирпично	-1.5561
-3.3058 кислородные	-1.5439
-99.9990 кистью	-0.2755
-99.9990 клад	-0.2737
-3.1711 кладу	-1.6641
-99.9990 кланялись	-0.2755
-4.2223 класса	-0.7442
-99.9990 классики	-0.2749
-4.5233 клеенкам	-0.0326
-99.9990 клетки	-0.2755
-3.2929 клёпкой	-1.5561
-3.2562 клубки	-1.5571
-3.2223 клубы	-1.6230
-99.9990 ключница	-0.2755
-3.3192 книгами	-1.5313
-4.1254 книгах	-0.8111
-4.0462 книги	-1.0866
-99.9990 книжные	-0.2755
-3.9793 ко	-0.9025
-3.3192 кобуру	-1.5313
-2.6721 когда	-1.1444
-99.9990 когдато	-0.2745
-4.3472 кого	-0.2729
-99.9990 когото	-0.2755
-4.1254 кое	-0.0693
-3.3058 кожаного	-1.5439
-3.2011 кожи	-1.2191
-99.9990 козырьки	-0.2755
-4.5233 коленях	0.0014
-4.5233 колесо	-0.2413
-99.9990 коллежский	-0.2755
-99.9990 колодки	-0.2622
-99.9990 колюче	-0.2622
-3.2681 колючую	-1.5792
-99.9990 коляска	-0.2713
-3.2333 комнате	-1.5984
-4.3472 комнату	-0.2705
-99.9990 комнаты	-0.2745
-99.9990 комодом	-0.2415
-99.9990 комплимент	-0.2754
-4.2223 кому	-0.1345
-4.1254 конгресса	-0.2732
-99.9990 конгрессе	-0.2755
-3.3620 конец	-1.4910
-3.9213 конечно	-0.0953
-4.5233 конурке	-0.2712
-3.3192 конусе	-1.4975
-4.0462 конца	-1.0866
-4.3472 конце	-0.0992
-3.2803 концом	-1.5680
-3.3620 концу	-1.4910
-99.9990 кончился	-0.2415
-99.9990 конюшню	-0.2755
-99.9990 координатор	-0.2622
-99.9990 копченая	-0.2755
-3.2803 корзинку	-1.5640
-99.9990 корифеи	-0.2755
-99.9990 корифей	-0.2622
-3.2681 коричневую	-1.5795
-99.9990 король	-0.2755
-99.9990 коротких	-0.2415
-3.2681 корреспондент	-1.5795
-3.2929 корточках	-1.5559
-3.1809 кору	-1.6625
-99.9990 косвенных	-0.2755
-99.9990 косились	-0.2622
-4.5233 косынку	-0.2754
-99.9990 косынок	-0.2415
-99.9990 которая	-0.2755
-3.7830 которого	-0.4779
-4.0462 которое	-0.0962
-4.2223 которой	-0.2692
-4.5233 котором	-0.0326
-99.9990 которому	-0.2755
-4.5233 которую	-0.2567
-3.7452 которые	-0.1763
-3.5939 который	-0.6993
-99.9990 которым	-0.2739
-4.5233 которыми	-0.2755
-4.1254 которых	-0.1585
-99.9990 кофею	-0.2622
-4.0462 крайней	-0.9031
-4.5233 красавец	-0.0316
-99.9990 красе	-0.2415
-99.9990 красивая	-0.2755
-99.9990 краска	-0.2675
-4.5233 красками	-0.0326
-4.5233 краской	-0.2415
-99.9990 краскою	-0.2755
-99.9990 красная	-0.2755
-99.9990 красноармейцев	-0.2415
-4.5233 красноармейцы	-0.2259
-99.9990 красного	-0.2755
-4.5233 красной	-0.2755
-3.2929 красный	-1.5561
-4.5233 красным	-0.2739
-99.9990 края	-0.2707
-99.9990 крепкие	-0.2739
-4.2223 крепкий	-0.7781
-4.5233 крепко	-0.2415
-99.9990 кресле	-0.2750
-3.1809 крестом	-1.6288
-4.2223 крестьян	-0.1223
-99.9990 крики	-0.2755
-3.2116 крикнуть	-1.6310
-99.9990 кричали	-0.2745
-4.5233 кричит	0.0014
-4.0462 кровати	-0.8691
-99.9990 кровать	-0.2755
-4.1254 крови	-0.8449
-3.1909 кровь	-1.6388
-4.5233 кроме	-0.2747
-3.1909 круглая	-1.6529
-3.2333 круглое	-1.6125
-99.9990 круглые	-0.2415
-4.0462 кругом	-0.9030
-99.9990 кружение	-0.2739
-99.9990 крупными	-0.2753
-4.0462 крутой	-0.9029
-99.9990 крылышками	-0.2749
-99.9990 кстати	-0.2611
-2.8899 кто	-0.8515
-3.8244 куда	-0.1090
-99.9990 кудрявочерные	-0.2415
-99.9990 кукурузы	-0.2738
-99.9990 купеческими	-0.2755
-99.9990 купленный	-0.2675
-3.2562 купола	-1.5571
-99.9990 купцы	-0.2738
-99.9990 курица	-0.2415
-99.9990 курьеров	-0.2415
-99.9990 курьерских	-0.2745
-99.9990 куски	-0.2745
-4.5233 кухню	0.0014
-4.3472 кучами	-0.0988
-3.2929 куче	-1.8193
-4.5233 кучер	-0.0326
-3.2011 кучки	-1.6432
-3.3192 кущи	-1.5313
-99.9990 лабораториям	-0.2755
-99.9990 лавочек	-0.2749
-99.9990 лавочки	-0.2713
-4.2223 ладно	-0.7781
-4.5233 лакей	-0.0326
-99.9990 лакейским	-0.2755
-99.9990 лакированные	-0.2415
-4.5233 лакомые	-0.2755
-99.9990 лаконически	-0.2415
-99.9990 ламп	-0.2622
-3.3058 лампочка	-1.7573
-99.9990 лапки	-0.2755
-3.2562 лапчатой	-1.5908
-99.9990 ларчик	-0.2755
-99.9990 лауреат	-0.2755
-99.9990 лацканах	-0.2415
-99.9990 левым	-0.2755
-99.9990 легенд	-0.2752
-99.9990 легендам	-0.2749
-99.9990 легенды	-0.2755
-99.9990 легкие	-0.2755
-4.0462 легким	-1.0866
-2.8750 легко	-1.9328
-4.0462 легче	-0.8691
-4.1254 лед	-0.8111
-3.1523 ледяную	-1.6899
-3.1616 лежавший	-1.6732
-99.9990 лежал	-0.2712
-3.2011 лежали	-1.6354
-3.1809 лежащей	-1.6483
-4.1254 лежит	-0.8451
-4.0462 лейтенант	-0.9030
-3.2681 ленивые	-1.5795
-3.2223 лесенку	-1.6230
-2.9213 лесов	-1.9186
-99.9990 лестницы	-0.2755
-99.9990 лестное	-0.2755
-99.9990 лестные	-0.2755
-2.5643 лет	-1.5822
-99.9990 лета	-0.2746
-99.9990 летает	-0.2755
-3.1616 летел	-1.6732
-3.2011 летела	-1.6387
-3.2929 лететь	-1.5534
-99.9990 летом	-0.2622
-3.2116 лёгкими	-1.6332
-2.9267 ли	-0.8705
-99.9990 либо	-0.2755
-99.9990 лидеры	-0.2755
-2.8606 линий	-1.9769
-4.1254 линию	-0.8447
-99.9990 лихих	-0.2755
-99.9990 лихорадок	-0.2755
-99.9990 лиц	-0.2745
-4.3472 лица	-0.2735
-99.9990 лицах	-0.2755
-4.5233 лице	-0.2754
-3.1523 лицо	-0.9691
-99.9990 лицом	-0.2745
-4.1254 лицу	-0.8111
-99.9990 лишком	-0.2754
-3.5691 лишь	-0.6926
-2.9731 лоб	-1.8546
-3.1711 ловким	-1.6588
-99.9990 ловко	-0.2755
-4.1254 ложь	-0.8409
-99.9990 ломбард	-0.2737
-99.9990 лондон	-0.2755
-99.9990 лоскутке	-0.2755
-2.2538 лось	-2.5615
-3.3192 лося	-1.5310
-99.9990 лохматилась	-0.2415
-99.9990 лошадей	-0.2748
-3.2446 лупить	-1.6018
-3.2803 луч	-1.5680
-3.2011 лучи	-1.6095
-3.5939 лучше	-0.9941
-3.2011 льды	-1.6095
-3.1711 любви	-1.6381
-99.9990 любезного	-0.2755
-99.9990 любил	-0.2755
-4.5233 любила	-0.0320
-99.9990 любимого	-0.2737
-3.9793 любит	-0.6006
-99.9990 любителями	-0.2755
-4.0462 любить	-0.9030
-99.9990 любишь	-0.2415
-3.8244 люблю	-1.0799
-4.1254 любовь	-0.8450
-99.9990 любознательность	-0.2745
-99.9990 любопытно	-0.2742
-99.9990 любопытный	-0.2755
-4.5233 любопытство	0.0014
-99.9990 любят	-0.2675
-3.1254 людей	-1.9571
-3.9793 люди	-0.4863
-3.2333 люка	-1.5788
-4.5233 люстра	-0.0322
-99.9990 м	-0.2755
-3.2116 магнитных	-1.6332
-99.9990 майкл	-0.2755
-99.9990 малейшие	-0.2755
-99.9990 маленькие	-0.2755
-3.2446 маленький	-1.6123
-99.9990 маленькой	-0.2755
-3.0535 мало	-2.0654
-4.3472 малый	-0.2402
-2.9918 мальчик	-2.1057
-4.0462 мальчика	-0.8691
-99.9990 манер	-0.2755
-4.5233 манилов	-0.2618
-99.9990 маниловым	-0.2622
-99.9990 манишка	-0.2755
-99.9990 манишку	-0.2755
-2.7071 марс	-2.1164
-3.1616 марса	-1.6472
-3.1711 марсе	-1.6718
-99.9990 маршала	-0.2749
-99.9990 масляной	-0.2755
-4.5233 масляными	-0.0326
-3.1909 массивной	-1.6526
-99.9990 масти	-0.2611
-99.9990 материи	-0.2755
-3.1616 материк	-1.6809
-99.9990 матерую	-0.2755
-3.1431 матерью	-1.6987
-3.8244 мать	-0.4330
-99.9990 махину	-0.2755
-3.1431 махновщина	-1.6987
-3.2333 маша	-1.6125
-4.1254 машина	-0.8450
-4.5233 машине	-0.0283
-3.1616 машиной	-1.6770
-4.5233 машины	0.0014
-99.9990 мая	-0.2755
-99.9990 меди	-0.2622
-3.2116 медленно	-1.6315
-3.2333 медные	-1.6125
-3.1001 между	-1.1403
-3.1616 междузвёздном	-1.6806
-99.9990 международных	-0.2755
-99.9990 мелкую	-0.2755
-99.9990 мелькавших	-0.2415
-4.5233 мелькали	-0.0193
-3.1909 менее	-1.9177
-2.8376 меня	-0.8407
-4.5233 меняется	-0.2749
-3.1616 меняющиеся	-1.6809
-4.0462 мере	-0.8983
-4.5233 меру	-0.0326
-99.9990 мест	-0.2748
-4.2223 места	-0.7771
-99.9990 местами	-0.2713
-4.5233 месте	0.0014
-4.5233 место	-0.2748
-4.0462 месяц	-0.9021
-4.1254 месяцев	-0.8111
-3.2929 металлическая	-1.5521
-2.8949 метров	-2.1651
-3.1711 механизм	-1.6716
-3.2929 механизма	-1.5547
-99.9990 механизме	-0.2755
-99.9990 мешку	-0.2713
-99.9990 милостиво	-0.2755
-3.2681 мимо	-1.5795
-99.9990 миновали	-0.2755
-99.9990 минувших	-0.2755
-3.2223 минули	-1.6230
-3.2929 минуту	-1.8190
-4.3472 минуты	-0.2715
-99.9990 мир	-0.2755
-3.9213 мира	-1.1445
-3.1711 мириады	-1.9380
-3.1616 миров	-1.6472
-99.9990 мифы	-0.2755
-3.2011 младенцами	-1.6095
-2.9053 мне	-0.6109
-99.9990 многие	-0.2755
-3.7452 много	-0.2150
-3.2223 многоугольную	-1.6230
-3.2333 многоэтажных	-1.6125
-99.9990 множество	-0.2755
-4.5233 множеством	-0.0326
-99.9990 множится	-0.2754
-3.6202 мной	-0.9586
-3.3472 мог	-0.8626
-3.1711 могла	-1.2849
-2.8848 могли	-1.9483
-3.8244 могу	-0.5007
-99.9990 могут	-0.2755
-99.9990 могучая	-0.2737
-99.9990 моде	-0.2415
-99.9990 моду	-0.2725
-4.0462 мое	-0.5766
-4.5233 моего	-0.0326
-3.2223 моё	-1.6230
-4.1254 можем	-0.8111
-2.9267 может	-1.6993
-3.2562 можете	-1.3111
-4.0462 можешь	-0.9025
-2.8200 можно	-1.5097
-99.9990 мозги	-0.2713
-3.6782 мои	-0.7390
-3.8244 моих	-1.1138
-2.9105 мой	-1.9286
-3.9793 мол	-0.6346
-99.9990 молод	-0.2415
-99.9990 молоденьких	-0.2755
-4.2223 молодой	-0.1029
-3.2681 молодую	-1.5795
-4.1254 молодые	-0.1581
-99.9990 молот	-0.2748
-4.3472 молчал	-0.0780
-99.9990 молчаливого	-0.2755
-99.9990 молчаливость	-0.2754
-99.9990 молчаливый	-0.2622
-3.2116 молчании	-1.6315
-99.9990 молчать	-0.2712
-4.2223 момент	-0.0317
-3.2223 монетную	-1.6225
-99.9990 монталенти	-0.2754
-4.5233 морском	-0.0326
-99.9990 морщинами	-0.2754
-99.9990 морщины	-0.2707
-3.2333 моря	-1.5788
-99.9990 москве	-0.2755
-99.9990 москву	-0.2749
-3.1616 москвы	-1.6668
-99.9990 московский	-0.2755
-99.9990 мохнатым	-0.2755
-99.9990 мошенник	-0.2415
-4.0462 моя	-0.0277
-99.9990 мудрых	-0.2755
-4.5233 муж	-0.0193
-3.2803 мужеством	-1.5677
-99.9990 мужик	-0.2748
-4.5233 мужика	-0.0326
-3.1431 мужикам	-1.6987
-99.9990 мужчин	-0.2415
-4.5233 мужчина	-0.0325
-4.1254 мужчину	-0.8451
-99.9990 мужчины	-0.2751
-99.9990 музея	-0.2755
-99.9990 мутация	-0.2752
-99.9990 мух	-0.2415
-4.5233 мухи	-0.0246
-99.9990 муху	-0.2751
-3.1711 мучительно	-1.6465
-2.7038 мы	-1.0823
-99.9990 мылом	-0.2751
-4.1254 мыслей	-0.8451
-4.1254 мысль	-0.8111
-4.0462 мыслями	-0.8691
-4.5233 мыслях	-0.0315
-99.9990 мыслящую	-0.2755
-3.2116 мышь	-1.6332
-3.2116 мягкой	-1.6202
-1.7366 на	-1.2662
-3.2011 набережной	-1.6432
-3.2803 набережную	-1.5342
-99.9990 набивают	-0.2750
-3.3058 наблюдения	-1.5308
-99.9990 набок	-0.2754
-99.9990 набычена	-0.2755
-4.1254 наверно	-0.8444
-4.3472 наверное	-0.0931
-99.9990 наверняка	-0.2750
-4.1254 навсегда	-0.8111
-4.5233 навстречу	0.0014
-99.9990 нагнувши	-0.2713
-3.3330 нагнулся	-1.5053
-2.4264 над	-1.8685
-99.9990 надежд	-0.2755
-4.5233 надежды	-0.2658
-99.9990 надежно	-0.2622
-99.9990 надел	-0.2415
-4.5233 надеялся	0.0014
-3.2681 надо	-1.8388
-99.9990 надобностям	-0.2415
-3.1431 надоедать	-1.6650
-3.1431 надоело	-1.6898
-99.9990 надписи	-0.2415
-3.1809 назад	-1.3115
-4.5233 названия	-0.2740
-99.9990 назвать	-0.2755
-99.9990 назначают	-0.2755
-4.3472 называют	-0.2610
-99.9990 наибольшее	-0.2755
-99.9990 наилучшей	-0.2755
-99.9990 найти	-0.2755
-4.1254 наказание	-0.8111
-3.2223 накинул	-1.6230
-99.9990 наклонением	-0.2755
-4.2223 наконец	-0.2415
-99.9990 накрыв	-0.2751
-99.9990 накрытыми	-0.2755
-99.9990 накупившими	-0.2750
-3.8244 нам	-0.0217
-99.9990 намекнул	-0.2755
-4.5233 написал	-0.2657
-3.3058 направлению	-1.5417
-99.9990 направления	-0.2755
-4.5233 напротив	-0.2750
-99.9990 нарочно	-0.2755
-99.9990 наружного	-0.2755
-99.9990 наружности	-0.2415
-99.9990 наружный	-0.2755
-3.5021 нас	-1.0774
-99.9990 наследники	-0.2755
-99.9990 наследственности	-0.2611
-99.9990 наставлениями	-0.2739
-4.5233 настолько	-0.0297
-4.1254 настоящее	-0.8451
-4.2223 настроение	-0.7442
-99.9990 наступил	-0.2675
-4.0462 наступление	-0.8691
-4.5233 насчет	-0.2755
-99.9990 насыщенные	-0.2755
-99.9990 натуральности	-0.2745
-99.9990 натуре	-0.2712
-99.9990 натуры	-0.2755
-99.9990 наук	-0.2740
-99.9990 науки	-0.2755
-99.9990 наукой	-0.2415
-3.3058 находились	-1.5439
-99.9990 находится	-0.2751
-99.9990 находчивоострый	-0.2753
-99.9990 находятся	-0.2750
-99.9990 начав	-0.2755
-3.1809 начал	-1.9337
-4.1254 начала	-0.8318
-99.9990 начале	-0.2755
-99.9990 начались	-0.2755
-99.9990 начало	-0.2755
-4.5233 начался	-0.0325
-4.5233 начальника	-0.2739
-99.9990 начинать	-0.2415
-99.9990 начинают	-0.2755
-4.0462 начиная	-0.9030
-99.9990 начисто	-0.2755
-4.0462 наш	-0.8194
-4.5233 наша	-0.0326
-4.3472 нашел	-0.0961
-3.2223 нашёл	-1.6230
-99.9990 нашими	-0.2755
-99.9990 наших	-0.2755
-99.9990 нашли	-0.2415
-99.9990 нашлось	-0.2755
-99.9990 нашумевшие	-0.2755
-1.9604 не	-0.9198
-3.2803 небольшая	-1.8316
-99.9990 небольшим	-0.2755
-99.9990 небольшого	-0.2755
-3.2116 небольшой	-1.8985
-99.9990 небрежно	-0.2755
-4.5233 неважно	-0.0320
-3.3058 неве	-1.5439
-99.9990 невероятнее	-0.2754
-99.9990 невзначай	-0.2755
-99.9990 невинное	-0.2755
-99.9990 невозможно	-0.2415
-99.9990 невозможные	-0.2415
-4.3472 невольно	-0.2755
-3.2011 него	-0.8119
-4.1254 негодяйка	-0.8111
-99.9990 недавно	-0.2755
-99.9990 недаром	-0.2740
-99.9990 неделей	-0.2755
-3.2446 недолго	-1.6018
-3.6782 нее	-0.2214
-3.2562 неё	-1.5895
-99.9990 нежели	-0.2755
-99.9990 неживого	-0.2415
-3.2333 нежилыми	-1.6117
-4.3472 незначащий	-0.0995
-4.5233 неизвестно	-0.2594
-4.1254 неизменно	-0.8451
-99.9990 неизменным	-0.2415
-3.0840 ней	-1.1914
-99.9990 некогда	-0.2755
-4.2223 некоторые	-0.1334
-3.7104 нельзя	-0.6791
-3.7104 нем	-0.5742
-4.2223 немало	-0.7442
-4.3472 немного	-0.2755
-99.9990 немногословен	-0.2712
-99.9990 немолодая	-0.2755
-3.1809 нему	-1.1632
-3.9793 немцев	-1.1432
-99.9990 ненадежно	-0.2755
-99.9990 ненаучного	-0.2755
-99.9990 необходимо	-0.2751
-3.2333 необыкновенного	-1.6125
-99.9990 необыкновенную	-0.2755
-3.1809 необычайно	-1.6622
-99.9990 неожиданный	-0.2755
-99.9990 непосвященные	-0.2755
-99.9990 непосредственно	-0.2742
-3.1616 непостигаемые	-1.6807
-99.9990 непостижимая	-0.2755
-4.5233 непременно	-0.0325
-99.9990 непременный	-0.2755
-99.9990 неприрученность	-0.2755
-99.9990 неприятелей	-0.2755
-4.5233 нервы	-0.0325
-3.1616 нерождённых	-1.6807
-99.9990 нескладный	-0.2755
-99.9990 нескольких	-0.2755
-2.6425 несколько	-1.4292
-4.5233 несомненно	-0.2415
-3.1711 нет	-1.0226
-4.0462 нетрудно	-0.8691
-99.9990 неудачи	-0.2415
-3.6202 неужели	-1.5511
-99.9990 неуклюжим	-0.2675
-4.5233 нечего	-0.0322
-4.3472 нечто	-0.0994
-3.3192 неширокие	-1.5310
-4.5233 нею	-0.2414
-3.2929 нём	-1.5548
-2.5990 ни	-0.8439
-3.5021 нибудь	-1.3400
-4.5233 нигде	-0.0315
-99.9990 нижнею	-0.2755
-99.9990 нижний	-0.2707
-99.9990 нижнюю	-0.2755
-99.9990 низенький	-0.2752
-99.9990 низенького	-0.2755
-99.9990 низко	-0.2755
-3.2011 низкое	-1.6432
-4.5233 никак	-0.0278
-4.1254 никаких	-0.8433
-99.9990 никакого	-0.2755
-3.0390 никогда	-1.5045
-4.0462 никого	-1.1203
-4.5233 никому	-0.0278
-3.9213 никто	-1.1737
-4.2223 нильса	-0.6989
-3.5233 ним	-0.8704
-4.3472 ними	-0.2415
-4.3472 нимфа	-0.0948
-99.9990 ниспосланный	-0.2747
-2.7380 них	-1.3792
-3.2929 ничего	-0.8976
-99.9990 ничем	-0.2755
-3.9793 ничто	-0.6202
-99.9990 ничтожнейших	-0.2755
-2.6454 но	-0.7875
-99.9990 нобелевской	-0.2755
-99.9990 новом	-0.2755
-4.2223 новые	-0.2622
-99.9990 новыми	-0.2755
-4.5233 новых	-0.2755
-3.2116 ног	-1.6332
-2.9213 ноги	-1.8707
-3.3330 ногой	-1.5156
-99.9990 ногою	-0.2755
-4.5233 ногу	-0.2415
-99.9990 ножки	-0.2749
-4.0462 номер	-0.8451
-3.1909 нос	-1.6156
-4.0462 носил	-1.1204
-99.9990 носили	-0.2744
-4.5233 носились	-0.0326
-4.5233 носом	0.0014
-99.9990 носу	-0.2754
-3.1431 носятся	-1.4215
-3.2446 ночевал	-1.5681
-99.9990 ночным	-0.2755
-3.6782 ночь	-0.8989
-99.9990 нравилась	-0.2755
-99.9990 нравится	-0.2415
-2.9918 ну	-1.2951
-4.5233 нужна	0.0014
-3.6202 нужно	-0.4942
-99.9990 нужное	-0.2755
-99.9990 нумер	-0.2745
-99.9990 нынешнее	-0.2752
-3.9213 нынче	-0.6362
-2.8606 о	-1.0055
-3.0609 об	-2.0455
-4.5233 оба	-0.0326
-99.9990 обделывать	-0.2752
-99.9990 обдуманно	-0.2622
-99.9990 обе	-0.2755
-4.5233 обед	-0.2749
-99.9990 обеда	-0.2754
-3.2446 обеспечить	-1.6018
-99.9990 обещавшие	-0.2755
-4.5233 обещаний	-0.2415
-99.9990 облак	-0.2748
-2.9105 облака	-1.9275
-99.9990 областях	-0.2738
-99.9990 обломки	-0.2750
-99.9990 обмотками	-0.2755
-3.2446 обмотках	-1.5681
-99.9990 обнял	-0.2754
-99.9990 обняла	-0.2737
-99.9990 обо	-0.2754
-3.1523 обоз	-1.6899
-99.9990 оборотился	-0.2752
-99.9990 обороты	-0.2415
-3.9213 образом	-0.7475
-99.9990 обросшем	-0.2755
-99.9990 обстоятельно	-0.2622
-3.3192 обсыпавшиеся	-1.5313
-99.9990 обсыпают	-0.2755
-99.9990 обутою	-0.2611
-99.9990 обходительными	-0.2622
-99.9990 общего	-0.2737
-4.5233 общества	-0.2415
-4.3472 обществе	-0.0653
-99.9990 общество	-0.2622
-99.9990 общие	-0.2755
-99.9990 общими	-0.2755
-3.2929 общих	-1.5561
-99.9990 общую	-0.2752
-99.9990 объединяло	-0.2754
-3.2929 объявление	-1.5557
-2.9551 объявлением	-1.8860
-3.9793 объяснить	-1.1770
-99.9990 объяснять	-0.2726
-99.9990 обыкновению	-0.2755
-99.9990 обычаю	-0.2675
-99.9990 обычная	-0.2755
-99.9990 обычные	-0.2611
-99.9990 овалы	-0.2755
-3.3192 огибали	-1.5313
-3.3058 оглянул	-1.5439
-3.2562 огненные	-1.5908
-3.2333 огня	-1.6125
-3.1523 оголённую	-1.6899
-3.2333 огромном	-1.6108
-4.5233 огромными	-0.0326
-99.9990 огурец	-0.2755
-99.9990 одевшись	-0.2622
-3.2446 одежде	-1.6018
-99.9990 оделись	-0.2749
-99.9990 одеты	-0.2622
-4.5233 одеяло	0.0014
-2.9213 один	-1.4428
-3.2223 одиночество	-1.6230
-3.1342 одна	-1.0727
-4.1254 однако	-0.4304
-3.1523 одни	-1.6424
-99.9990 одним	-0.2725
-3.9793 одно	-0.5248
-3.7830 одного	-1.0538
-99.9990 одногодки	-0.2415
-3.1616 одной	-0.9441
-99.9990 одном	-0.2712
-4.0462 одну	-0.5634
-4.5233 одобрительно	-0.2741
-99.9990 одушевленное	-0.2415
-99.9990 оживленных	-0.2739
-3.2803 ожидал	-1.5679
-4.5233 ожидании	0.0014
-3.2333 ожидающей	-1.6125
-3.2116 ожила	-1.6330
-99.9990 озаренным	-0.2755
-99.9990 оказал	-0.2755
-4.5233 оказалась	-0.2750
-4.0462 оказалось	-1.1205
-3.1254 оказался	-1.7240
-3.9793 океан	-1.1400
-3.1616 океане	-1.6472
-3.2562 океаны	-1.5571
-2.8799 окна	-1.9194
-4.5233 окне	-0.2755
-99.9990 окном	-0.2415
-4.3472 около	-0.2755
-3.2929 окон	-1.5223
-99.9990 окончании	-0.2755
-3.2562 окоченелый	-1.5908
-3.1909 окружала	-1.6529
-3.2446 окунул	-1.5876
-99.9990 олку	-0.2750
-99.9990 олосы	-0.2752
-2.0101 он	-0.8997
-2.6257 она	-0.8222
-2.4645 они	-1.2885
-99.9990 опорожняясь	-0.2675
-99.9990 оправдались	-0.2736
-3.2011 определил	-1.6406
-3.2681 опрятном	-1.5795
-3.2116 опускался	-1.6332
-99.9990 опустив	-0.2755
-4.1254 опыт	-0.8111
-99.9990 опытный	-0.2755
-4.0462 опять	-0.2747
-3.2116 оранжевые	-1.6292
-99.9990 организмов	-0.2415
-99.9990 оробел	-0.2622
-99.9990 ороны	-0.2752
-4.1254 оружие	-0.8371
-99.9990 оря	-0.2415
-99.9990 ос	-0.2742
-99.9990 осведомились	-0.2415
-4.5233 осведомился	-0.2733
-99.9990 освещен	-0.2755
-99.9990 освещением	-0.2725
-3.3192 освещён	-1.5298
-3.2333 освещённая	-1.6125
-3.2116 освещённые	-1.6329
-3.1711 оседают	-1.6641
-3.1809 осенний	-1.6625
-3.1616 осколки	-1.6809
-3.2803 ослепительный	-1.5680
-99.9990 осматривал	-0.2754
-99.9990 осмотреться	-0.2739
-99.9990 основательность	-0.2755
-99.9990 особ	-0.2755
-3.9213 особенно	-0.5742
-4.5233 особенным	-0.2415
-4.5233 особливо	-0.2611
-99.9990 оспы	-0.2622
-99.9990 оставалась	-0.2755
-3.8244 оставалось	-1.3540
-4.3472 оставался	-0.2604
-4.5233 оставить	-0.0310
-99.9990 оставляет	-0.2755
-99.9990 остается	-0.2744
-4.3472 осталось	-0.0653
-4.0462 останется	-0.9031
-4.1254 остановились	-0.8111
-3.2223 остановился	-1.3441
-4.0462 осторожно	-1.1205
-99.9990 остряка	-0.2622
-3.1809 остывающих	-1.6625
-99.9990 остывших	-0.2752
-2.3695 от	-1.6243
-3.2333 отверстие	-1.6125
-2.9731 отверстия	-1.8688
-99.9990 отвести	-0.2753
-4.2223 ответил	0.0015
-4.5233 ответить	-0.0316
-4.5233 отвечает	-0.0316
-4.1254 отвечал	-0.1577
-99.9990 отвечающую	-0.2755
-4.5233 отдать	-0.2622
-99.9990 отдела	-0.2415
-99.9990 отдохнувши	-0.2712
-3.0535 отец	-2.0619
-4.5233 отказаться	0.0014
-3.1809 отклонил	-1.6625
-3.1254 открыл	-1.9908
-99.9990 открытия	-0.2755
-99.9990 открытым	-0.2415
-3.9213 откуда	-0.8632
-99.9990 откупщика	-0.2737
-99.9990 отличает	-0.2755
-99.9990 отличить	-0.2750
-4.5233 относившиеся	-0.0325
-4.1254 относится	-0.8427
-99.9990 относящие	-0.2755
-99.9990 отношение	-0.2415
-3.1523 отобьём	-1.6769
-99.9990 отозвавши	-0.2753
-3.2333 оторвался	-1.6109
-4.1254 отправился	-0.2501
-99.9990 отрицательно	-0.2755
-99.9990 отставные	-0.2755
-3.2929 отсюда	-1.5548
-4.3472 оттого	-0.0989
-99.9990 оттопырив	-0.2755
-4.1254 отца	-0.8371
-99.9990 отцовское	-0.2755
-4.1254 отцом	-0.8111
-99.9990 отчаянных	-0.2755
-4.0462 отчего	-0.9012
-99.9990 отчество	-0.2415
-3.2803 отыскал	-1.5680
-4.1254 офицеры	-0.8451
-99.9990 охотою	-0.2755
-99.9990 очаровать	-0.2750
-2.8848 очень	-0.9859
-99.9990 очередь	-0.2731
-99.9990 очутился	-0.2749
-99.9990 ошибкою	-0.2754
-4.0462 ощутил	-0.9031
-99.9990 п	-0.2755
-4.5233 павел	-0.0323
-3.1909 падаем	-1.6192
-4.2223 палаты	-0.2729
-4.5233 пальмы	0.0014
-3.2223 пальто	-1.6100
-4.1254 пальцев	-0.8111
-99.9990 памяти	-0.2712
-99.9990 памятные	-0.2748
-99.9990 память	-0.2751
-99.9990 панталонах	-0.2754
-4.0462 папа	-0.8691
-4.5233 парад	-0.2739
-99.9990 парень	-0.2415
-99.9990 пару	-0.2755
-99.9990 пары	-0.2755
-3.2011 паслись	-1.6427
-99.9990 патриарха	-0.2712
-3.2681 паук	-1.5795
-99.9990 паша	-0.2755
-99.9990 первого	-0.2755
-3.9793 первый	-0.9025
-99.9990 первым	-0.2737
-99.9990 первых	-0.2755
-99.9990 перебирается	-0.2622
-99.9990 переводе	-0.2675
-2.9323 перед	-1.5706
-4.5233 передавали	-0.2675
-99.9990 передней	-0.2749
-4.5233 передние	-0.2755
-4.5233 передо	-0.0325
-99.9990 перекрестили	-0.2740
-2.8606 перелёт	-1.9602
-3.2011 перелёта	-1.6432
-3.2333 переливался	-1.6125
-99.9990 перемен	-0.2622
-99.9990 перемолвился	-0.2738
-3.3192 перепрыгивали	-1.5299
-3.2011 переулков	-1.6432
-99.9990 переходили	-0.2713
-99.9990 пером	-0.2415
-3.3058 песку	-1.5435
-3.2803 петербурга	-1.5549
-99.9990 петербурге	-0.2415
-3.2223 петербургом	-1.6100
-99.9990 петербургский	-0.2755
-99.9990 петербургских	-0.2415
-4.5233 петрушка	-0.2752
-4.5233 петя	-0.0322
-99.9990 пиво	-0.2622
-99.9990 пикендрас	-0.2415
-99.9990 пикенция	-0.2749
-99.9990 пили	-0.2755
-99.9990 пирожком	-0.2755
-99.9990 пирожок	-0.2754
-4.5233 писанные	-0.0326
-4.2223 писать	-0.7781
-99.9990 пистолетом	-0.2415
-4.5233 письмо	0.0014
-4.0462 пить	-0.8691
-99.9990 пичу	-0.2415
-99.9990 пичук	-0.2415
-99.9990 пичура	-0.2622
-4.0462 плакать	-0.8691
-3.2803 план	-1.5680
-3.1616 планет	-1.6809
-4.1254 планы	-0.8111
-3.2681 платье	-1.5788
-99.9990 платьев	-0.2739
-3.9793 плачет	-0.6006
-4.5233 плеча	-0.2415
-4.1254 плечо	-0.8111
-99.9990 плоским	-0.2739
-4.5233 плохо	-0.2755
-99.9990 площадь	-0.2415
-99.9990 плутовские	-0.2755
-2.4061 по	-1.0842
-3.2681 побежал	-1.5768
-99.9990 побери	-0.2415
-3.2929 поблескивала	-1.5561
-99.9990 побывал	-0.2415
-99.9990 повальных	-0.2755
-99.9990 поведения	-0.2755
-99.9990 повел	-0.2755
-99.9990 повернуться	-0.2622
-3.2929 поверхность	-1.5561
-99.9990 повесил	-0.2751
-99.9990 поводу	-0.2415
-3.1616 погиб	-1.6809
-3.1616 погибших	-1.6809
-3.3058 поглощения	-1.5438
-3.2011 поглядывали	-1.6354
-99.9990 поговаривали	-0.2751
-99.9990 поговорить	-0.2713
-4.1254 погода	-0.8436
-99.9990 погодных	-0.2755
-2.7038 под	-1.4784
-99.9990 подавал	-0.2747
-99.9990 подавались	-0.2752
-4.3472 подавалось	-0.6857
-3.1711 подавая	-1.6713
-4.3472 подать	-0.2750
-3.2446 подвёртки	-1.5681
-99.9990 подворотни	-0.2755
-99.9990 поделаешь	-0.2754
-99.9990 подержанном	-0.2755
-99.9990 подлец	-0.2750
-99.9990 подложивши	-0.2751
-99.9990 подмигивавшим	-0.2755
-3.2681 поднимая	-1.5795
-99.9990 подносил	-0.2754
-4.5233 подносом	0.0014
-3.2223 поднявшийся	-1.6220
-3.2223 поднявшихся	-1.6086
-99.9990 поднял	-0.2752
-2.9435 подняла	-1.8931
-4.5233 поднялся	-0.0326
-99.9990 поднятые	-0.2755
-99.9990 подобием	-0.2755
-99.9990 подобная	-0.2755
-99.9990 подобно	-0.2755
-99.9990 подобного	-0.2622
-99.9990 подобное	-0.2415
-99.9990 подобные	-0.2755
-3.9793 подошел	-0.8751
-99.9990 подперши	-0.2750
-99.9990 подполковники	-0.2755
-99.9990 подпускают	-0.2731
-99.9990 подробности	-0.2415
-99.9990 подробностях	-0.2755
-99.9990 подседали	-0.2731
-99.9990 подслеповатостию	-0.2755
-99.9990 подстрижены	-0.2749
-99.9990 подтвердились	-0.2415
-4.5233 подумать	-0.2384
-3.3058 подушки	-1.5434
-99.9990 подушку	-0.2755
-4.3472 подходили	-0.2727
-4.1254 подходит	-0.8111
-3.2446 подштаники	-1.6018
-99.9990 подъездом	-0.2754
-99.9990 подъехала	-0.2731
-99.9990 подымающих	-0.2755
-4.1254 пожал	-0.8450
-99.9990 пожаловать	-0.2731
-4.2223 пожалуй	-0.7734
-99.9990 пожатием	-0.2754
-99.9990 пожилой	-0.2755
-99.9990 пожилым	-0.2755
-99.9990 пожимали	-0.2751
-99.9990 пожитки	-0.2755
-4.1254 позади	-0.8450
-99.9990 позволить	-0.2751
-99.9990 позволял	-0.2751
-99.9990 поздно	-0.2749
-99.9990 познакомился	-0.2712
-99.9990 поиному	-0.2750
-99.9990 поистасканный	-0.2415
-99.9990 пойдем	-0.2754
-3.9793 пойдет	-1.1782
-3.3058 пойму	-1.5429
-3.7830 пойти	-1.3530
-99.9990 пока	-0.2754
-3.1711 показал	-1.6718
-99.9990 показали	-0.2611
-4.5233 показалось	-0.0297
-4.0462 показать	-0.5763
-99.9990 показывавший	-0.2726
-99.9990 показывала	-0.2749
-99.9990 показывать	-0.2415
-3.1909 покалывало	-1.6529
-4.2223 покамест	-0.8767
-3.3058 покатился	-1.4710
-4.0462 покачал	-0.9028
-99.9990 покачивалась	-0.2675
-99.9990 поклоном	-0.2740
-4.5233 покой	-0.2398
-99.9990 покойную	-0.2755
-99.9990 поколение	-0.2742
-99.9990 поколением	-0.2754
-99.9990 покрыл	-0.2755
-99.9990 покрыть	-0.2752
-99.9990 покушавшихся	-0.2751
-99.9990 покушать	-0.2611
-99.9990 покушеньями	-0.2675
-3.2223 полгода	-1.6230
-99.9990 ползает	-0.2754
-99.9990 полицеймейстера	-0.2737
-99.9990 полицеймейстеру	-0.2750
-99.9990 полицию	-0.2415
-4.1254 полиция	-0.8451
-99.9990 полицмейстер	-0.2739
-4.2223 полно	-0.7776
-99.9990 полное	-0.2755
-99.9990 полной	-0.2755
-4.5233 полные	-0.2622
-4.1254 половина	-0.8111
-3.2223 половинки	-1.6230
-3.2011 половиной	-1.6429
-4.1254 половины	-0.8450
-4.5233 полового	0.0014
-4.1254 половой	-0.1589
-99.9990 половым	-0.2739
-4.5233 положение	-0.2731
-99.9990 положении	-0.2755
-99.9990 положенные	-0.2754
-4.1254 положив	-0.8447
-4.5233 положил	-0.0182
-4.1254 положила	-0.8451
-3.2333 полосы	-1.6125
-99.9990 полотенце	-0.2755
-3.1616 полукружий	-1.6809
-99.9990 получают	-0.2755
-99.9990 получился	-0.2415
-4.5233 получить	-0.2409
-3.3058 полые	-1.5439
-99.9990 пользу	-0.2754
-99.9990 пользуясь	-0.2755
-99.9990 польстить	-0.2755
-3.1809 полюсы	-1.6288
-3.2116 полях	-1.6332
-4.5233 помахивая	-0.0326
-3.1431 померли	-1.6986
-99.9990 помещался	-0.2755
-99.9990 помещение	-0.2754
-4.5233 помещик	-0.2738
-99.9990 помещиках	-0.2415
-4.5233 помещики	-0.2755
-4.5233 помещиком	-0.2415
-4.3472 помнил	-0.0988
-99.9990 помнила	-0.2755
-99.9990 помнился	-0.2755
-99.9990 помнишь	-0.2745
-4.1254 помню	-0.8422
-99.9990 помог	-0.2753
-99.9990 помоему	-0.2755
-4.5233 поможет	-0.0318
-3.9213 помочь	-0.6514
-3.2116 понемногу	-1.6332
-3.9793 понимает	-1.1437
-99.9990 понимаешь	-0.2726
-4.5233 понимал	-0.0297
-4.2223 понимаю	-0.7781
-99.9990 понравилось	-0.2755
-3.9793 понял	-0.5989
-99.9990 поняла	-0.2726
-3.9213 понять	-0.9098
-99.9990 попадья	-0.2753
-99.9990 попал	-0.2415
-3.1342 попали	-1.7077
-4.0462 попасть	-0.8887
-3.2011 поперечнике	-1.6095
-99.9990 попросить	-0.2753
-3.1616 пор	-0.8461
-3.2929 пороге	-1.5558
-99.9990 породистую	-0.2755
-99.9990 портрет	-0.2755
-99.9990 портрете	-0.2755
-99.9990 портреты	-0.2755
-99.9990 пору	-0.2755
-99.9990 поручениям	-0.2749
-99.9990 посвящен	-0.2739
-4.3472 посетителей	-0.0648
-99.9990 послал	-0.2415
-3.1084 после	-0.9567
-4.5233 последнее	-0.0326
-99.9990 последние	-0.2754
-4.5233 последний	-0.0320
-99.9990 последних	-0.2749
-3.7830 последняя	-1.1460
-99.9990 послеобеденного	-0.2755
-99.9990 послуживши	-0.2755
-4.0462 послушай	-0.9026
-99.9990 посматривали	-0.2748
-99.9990 посмотрел	-0.2755
-4.0462 посмотреть	-0.8066
-99.9990 постигали	-0.2740
-3.1616 постоянно	-1.6809
-3.2116 построен	-1.6305
-99.9990 поступки	-0.2755
-4.1254 поступок	-0.8111
-99.9990 потемневшие	-0.2755
-99.9990 потемневших	-0.2736
-4.5233 потереть	-0.2752
-99.9990 поток	-0.2415
-99.9990 потолок	-0.2754
-3.0114 потом	-1.0300
-3.5456 потому	-1.0069
-3.1809 потушено	-1.6495
-99.9990 пофранцузски	-0.2622
-99.9990 пофыркивал	-0.2755
-99.9990 похвалы	-0.2755
-99.9990 походили	-0.2675
-4.5233 похож	-0.0246
-99.9990 похоже	-0.2738
-3.2116 похожие	-1.6254
-99.9990 похожим	-0.2675
-99.9990 похожих	-0.2675
-4.2223 поцеловал	-0.7778
-3.1809 почве	-1.6288
-99.9990 почел	-0.2742
-3.5691 почему	-0.6148
-99.9990 почесать	-0.2755
-99.9990 почетные	-0.2755
-4.3472 почтение	-0.2415
-99.9990 почтением	-0.2737
-99.9990 почтенных	-0.2752
-99.9990 почтет	-0.2742
-3.7104 почти	-0.9385
-99.9990 почтительнее	-0.2622
-4.5233 почтмейстера	-0.2415
-4.5233 почувствовал	0.0014
-4.1254 почувствовать	-0.8111
-3.2446 пошатнётся	-1.6016
-4.0462 пошел	-0.1668
-3.3058 пошёл	-1.5424
-3.2446 пошла	-1.2117
-99.9990 пошли	-0.2745
-99.9990 пошутить	-0.2739
-3.1616 поэтому	-1.6699
-99.9990 появилось	-0.2755
-3.2446 пояса	-1.5876
-4.5233 права	0.0014
-3.8701 правда	-1.2792
-99.9990 правду	-0.2755
-99.9990 правило	-0.2707
-99.9990 правильно	-0.2415
-3.1616 правильные	-1.6809
-99.9990 правительства	-0.2754
-4.5233 право	0.0014
-3.3330 праха	-1.5183
-3.3192 праху	-1.5313
-99.9990 превосходительство	-0.2415
-99.9990 предаются	-0.2755
-99.9990 предках	-0.2622
-3.2446 предложил	-1.6018
-4.0462 предполагал	-0.9002
-99.9990 предположить	-0.2415
-99.9990 председателем	-0.2755
-4.5233 председатель	-0.2755
-4.3472 председателя	-0.0862
-4.5233 представил	-0.0308
-99.9990 представитель	-0.2755
-4.3472 представить	-0.0949
-99.9990 представлен	-0.2731
-99.9990 представлял	-0.2751
-4.5233 предстоит	-0.0326
-99.9990 предстояло	-0.2752
-3.2011 предупредил	-1.6429
-4.2223 прежде	-0.1369
-99.9990 прежним	-0.2745
-99.9990 президент	-0.2755
-4.1254 прекрасно	-0.8450
-99.9990 прекрасной	-0.2622
-99.9990 прекрасный	-0.2752
-99.9990 прекратились	-0.2739
-99.9990 премии	-0.2755
-99.9990 преминуло	-0.2755
-99.9990 претерпел	-0.2675
-4.5233 при	-0.2754
-99.9990 приблизился	-0.2755
-3.1711 приборы	-1.6711
-99.9990 прибывши	-0.2611
-99.9990 привезенных	-0.2731
-99.9990 приветствовали	-0.2737
-99.9990 приветы	-0.2415
-99.9990 привилегию	-0.2755
-3.3192 привычной	-1.5313
-3.3620 привязана	-1.7524
-99.9990 приглашение	-0.2755
-99.9990 приговаривал	-0.2748
-99.9990 приговаривая	-0.2753
-3.1711 пригожусь	-1.6717
-99.9990 приготовление	-0.2731
-99.9990 приготовляет	-0.2755
-3.2446 приготовь	-1.6018
-99.9990 придержал	-0.2755
-4.2223 придется	-0.0320
-99.9990 придумывая	-0.2755
-99.9990 приездом	-0.2611
-99.9990 приезжает	-0.2611
-99.9990 приезжего	-0.2754
-99.9990 приезжем	-0.2755
-3.9793 приезжий	-0.2737
-4.5233 прием	-0.2733
-99.9990 приемах	-0.2755
-3.9793 приехал	-0.8887
-99.9990 приехала	-0.2725
-4.5233 признался	-0.0322
-99.9990 признаться	-0.2415
-4.5233 приказал	-0.2755
-3.2929 приколоченное	-1.5561
-99.9990 прикосновение	-0.2731
-4.5233 приладил	-0.2389
-99.9990 прилегши	-0.2755
-99.9990 прилететь	-0.2713
-99.9990 прилизаны	-0.2415
-99.9990 приличный	-0.2748
-99.9990 приличными	-0.2755
-4.5233 пример	-0.0310
-99.9990 принесенному	-0.2754
-4.0462 принести	-0.9015
-4.5233 принимал	-0.2744
-4.0462 принимать	-1.0863
-4.1254 принц	-0.8111
-3.2929 принцип	-1.5561
-99.9990 принял	-0.2713
-99.9990 принялся	-0.2755
-99.9990 приобрело	-0.2755
-3.2929 приотворена	-1.5483
-99.9990 приписывались	-0.2755
-99.9990 природу	-0.2739
-99.9990 природы	-0.2754
-99.9990 присоединился	-0.2731
-99.9990 присутствие	-0.2755
-99.9990 присутствует	-0.2755
-99.9990 присуща	-0.2737
-99.9990 притащить	-0.2754
-99.9990 притиснули	-0.2754
-3.1909 притягиваемся	-1.6529
-99.9990 приходили	-0.2755
-99.9990 причем	-0.2751
-4.5233 причину	0.0014
-99.9990 пришел	-0.2755
-4.5233 пришлось	-0.0326
-3.3058 прищурясь	-1.5439
-99.9990 приятно	-0.2755
-99.9990 приятности	-0.2415
-4.3472 про	-0.0994
-4.0462 проблема	-0.8887
-4.5233 проверить	-0.0325
-3.3058 провизии	-1.5101
-4.5233 проворно	-0.2713
-3.9793 продать	-0.9202
-99.9990 продержав	-0.2737
-4.5233 продолжал	-0.0326
-3.2446 продуктами	-1.5681
-99.9990 проезжающего	-0.2415
-99.9990 проезжающие	-0.2755
-99.9990 проезжающий	-0.2754
-4.5233 проезжающих	-0.2259
-4.0462 прозвучал	-0.9028
-99.9990 произвел	-0.2611
-99.9990 произнес	-0.2748
-4.5233 произнесла	-0.0308
-99.9990 произносил	-0.2755
-4.5233 произошло	-0.0182
-99.9990 происходили	-0.2611
-99.9990 происходило	-0.2755
-99.9990 происходящего	-0.2415
-4.0462 пройдет	-0.5283
-99.9990 пройтись	-0.2755
-99.9990 проку	-0.2755
-99.9990 прокурор	-0.2755
-4.5233 прокурора	-0.2369
-3.3330 проломанный	-1.5183
-2.9159 проникал	-1.9083
-99.9990 пропадали	-0.2675
-4.1254 пропасть	-0.8111
-99.9990 пропустил	-0.2744
-99.9990 пропустить	-0.2753
-3.2116 прорезывал	-1.6329
-4.5233 просвещенной	-0.2755
-99.9990 просил	-0.2755
-99.9990 простейшего	-0.2755
-4.1254 простите	-0.8429
-3.2803 просто	-0.4966
-99.9990 простое	-0.2755
-99.9990 просторном	-0.2755
-2.8606 пространстве	-1.9769
-99.9990 проступает	-0.2755
-99.9990 просьбе	-0.2755
-3.8701 против	-0.7309
-99.9990 противников	-0.2712
-3.1909 противоположные	-1.9186
-99.9990 протискивался	-0.2731
-99.9990 протянувши	-0.2755
-3.9793 профессор	-0.8774
-99.9990 профиль	-0.2755
-3.2681 проходя	-1.5795
-3.2929 прохожих	-1.5430
-99.9990 прочая	-0.2752
-4.5233 прочесть	0.0014
-4.5233 прочие	-0.2755
-99.9990 прочитал	-0.2738
-4.3472 прочих	-0.0654
-99.9990 прошептал	-0.2747
-99.9990 прошло	-0.2713
-99.9990 прошлого	-0.2755
-4.5233 прошу	-0.2755
-99.9990 проще	-0.2415
-99.9990 прощения	-0.2754
-3.3192 прудики	-1.4975
-4.5233 прыгали	-0.0193
-3.2803 прядь	-1.5561
-4.3472 прямо	-0.0991
-3.2803 прямой	-1.5680
-99.9990 прямые	-0.2622
-3.9793 птиц	-0.5920
-99.9990 публику	-0.2415
-3.2011 пуля	-1.6424
-99.9990 пулярка	-0.2755
-3.2011 пустившее	-1.6319
-4.5233 пустил	-0.0308
-99.9990 пусто	-0.2755
-3.2803 пустые	-1.5303
-3.2929 пустынные	-1.5561
-3.2929 пустыню	-1.5223
-3.2223 пустырь	-1.6152
-4.5233 пусть	-0.0326
-3.1616 путешествие	-1.6732
-4.1254 пути	-0.8433
-3.3330 пхнул	-1.5183
-3.2681 пыльцу	-1.5665
-99.9990 пытались	-0.2754
-99.9990 пятились	-0.2736
-99.9990 пятнадцать	-0.2755
-3.9213 пять	-0.7505
-3.1616 работаю	-1.6807
-99.9990 работой	-0.2415
-3.0048 рабочий	-1.8254
-99.9990 рабочих	-0.2622
-3.2929 равнина	-1.5559
-3.2116 равниной	-1.6202
-3.1523 равнину	-1.6562
-3.1342 рад	-1.7127
-3.9793 ради	-0.6338
-99.9990 радости	-0.2755
-4.5233 радужных	-0.0326
-2.8848 раз	-0.9319
-4.1254 раза	-0.7176
-3.1809 разбил	-1.6625
-99.9990 разбирал	-0.2738
-3.2333 разбитые	-1.6122
-99.9990 разбросанных	-0.2738
-3.1616 разбросано	-1.6788
-3.9793 разве	-0.6297
-4.5233 развелся	0.0014
-3.2803 развернул	-1.5680
-99.9990 развивается	-0.2755
-99.9990 разглядывая	-0.2611
-99.9990 разговаривали	-0.2751
-4.5233 разговор	-0.2604
-4.5233 разговорах	-0.0284
-3.2116 разговоры	-1.5832
-3.7830 раздался	-1.1461
-99.9990 различимые	-0.2415
-3.2446 разломил	-1.6018
-99.9990 разлученных	-0.2752
-99.9990 размера	-0.2755
-3.2929 размешивал	-1.5419
-99.9990 размотавши	-0.2755
-99.9990 размотал	-0.2713
-99.9990 размышления	-0.2755
-4.5233 разницы	-0.0297
-99.9990 разновозрастную	-0.2755
-99.9990 разноликую	-0.2755
-99.9990 разноязычную	-0.2755
-99.9990 разноязычный	-0.2755
-3.2223 разные	-1.8880
-99.9990 разным	-0.2755
-4.5233 разных	-0.2755
-4.3472 разогретое	-0.0512
-3.2446 разум	-1.6018
-4.5233 разумеется	-0.2751
-99.9990 разыскивали	-0.2755
-99.9990 рай	-0.2755
-3.2929 ракета	-1.5223
-99.9990 рано	-0.2415
-3.7104 раньше	-0.8989
-99.9990 раскаленность	-0.2746
-99.9990 раскланивался	-0.2745
-99.9990 раскованнее	-0.2415
-3.2223 раскрытые	-1.6230
-99.9990 распахнутых	-0.2752
-3.2223 распростёртое	-1.6088
-99.9990 распростро	-0.2755
-99.9990 рассеянно	-0.2755
-4.2223 расскажу	-0.7772
-3.2011 рассказал	-1.6426
-4.5233 рассказать	-0.0325
-99.9990 рассказывать	-0.2754
-99.9990 рассматривал	-0.2755
-4.0462 рассмеялся	-0.8898
-99.9990 рассмотреть	-0.2754
-4.2223 расспросил	-0.2706
-99.9990 расставлял	-0.2750
-99.9990 расставляющим	-0.2755
-99.9990 расстались	-0.2415
-3.3192 расстегнул	-1.5313
-99.9990 рассудительного	-0.2622
-3.1809 рассыпающей	-1.6625
-99.9990 растет	-0.2675
-4.1254 расходы	-0.8429
-99.9990 расцеловала	-0.2415
-4.2223 ребенка	-0.7442
-3.8701 ребенок	-1.0074
-3.3192 револьвер	-1.5313
-3.2116 ревя	-1.6202
-99.9990 редактор	-0.2755
-99.9990 редко	-0.2755
-3.1523 резкие	-1.6899
-99.9990 ренный	-0.2755
-3.1909 реостатам	-1.6529
-99.9990 рессорная	-0.2753
-99.9990 речист	-0.2745
-3.7830 решил	-0.7701
-99.9990 решительно	-0.2622
-3.2116 рёбрами	-1.6202
-3.2011 риске	-1.6095
-99.9990 рисовал	-0.2737
-4.1254 ровно	-0.8451
-99.9990 род	-0.2415
-3.9213 рода	-0.0986
-4.1254 родился	-0.8318
-99.9990 родители	-0.2622
-4.5233 родной	-0.0326
-99.9990 родов	-0.2415
-99.9990 роль	-0.2755
-3.2333 ромбами	-1.6125
-3.2333 роскошном	-1.6125
-3.2446 рослый	-1.6018
-99.9990 россии	-0.2750
-99.9990 россию	-0.2755
-99.9990 россказни	-0.2755
-4.5233 рот	-0.0326
-3.2446 рубахе	-1.6012
-3.3058 рубашке	-1.5438
-3.2446 рубашки	-1.6018
-99.9990 рубит	-0.2622
-99.9990 рубля	-0.2611
-99.9990 рук	-0.2751
-4.1254 рукам	-0.8111
-4.2223 руками	-0.1372
-3.8244 руках	-1.1004
-3.3472 руке	-1.7623
-3.8244 руки	-0.5602
-99.9990 рукой	-0.2712
-99.9990 рукопожатий	-0.2712
-4.5233 рукою	-0.2755
-3.0840 руку	-1.6880
-99.9990 руси	-0.2755
-4.5233 русские	-0.0326
-99.9990 русский	-0.2415
-99.9990 русским	-0.2755
-4.3472 русских	-0.0655
-99.9990 русскому	-0.2755
-99.9990 руч	-0.2415
-99.9990 рыба	-0.2611
-99.9990 рычал	-0.2741
-99.9990 рябоват	-0.2753
-3.7452 рядом	-1.3826
-2.0134 с	-1.1801
-3.2116 садимся	-1.6332
-99.9990 салфеткой	-0.2611
-2.8200 сам	-1.3541
-4.5233 сама	-0.0321
-99.9990 самая	-0.2755
-4.0462 сами	-1.1205
-99.9990 самим	-0.2755
-99.9990 самих	-0.2738
-4.5233 самовар	-0.2363
-99.9990 самовара	-0.2753
-99.9990 самоваром	-0.2725
-4.1254 самое	-0.1613
-4.0462 самой	-1.1190
-4.3472 самом	-0.0995
-99.9990 самоуве	-0.2755
-99.9990 самсьм	-0.2755
-99.9990 самшест	-0.2622
-99.9990 самый	-0.2755
-4.5233 сановникам	0.0014
-99.9990 сановников	-0.2755
-99.9990 сапог	-0.2754
-99.9990 сапожные	-0.2755
-3.3192 сарай	-1.5313
-2.9610 сарая	-1.8411
-99.9990 сахар	-0.2622
-99.9990 сахарной	-0.2753
-99.9990 сберегаемым	-0.2748
-3.2011 сбивались	-1.6290
-99.9990 сбитенщик	-0.2415
-99.9990 сборищ	-0.2415
-4.2223 свежий	-0.7781
-99.9990 сверкали	-0.2755
-99.9990 сверху	-0.2755
-2.9105 свет	-2.1808
-4.1254 свете	-0.0369
-4.5233 светом	-0.0326
-99.9990 светский	-0.2755
-99.9990 свечей	-0.2755
-3.1909 свёрнутая	-1.6388
-99.9990 свободнее	-0.2755
-4.5233 свободной	-0.0326
-99.9990 сводом	-0.2755
-3.2562 сводчатого	-1.5908
-3.1616 сводящие	-1.6770
-4.1254 свое	-0.1610
-4.2223 своей	-0.2752
-4.1254 своем	-0.2415
-3.7452 свои	-1.1205
-99.9990 своим	-0.2755
-4.3472 своими	-0.6020
-4.3472 своих	-0.2754
-4.5233 свой	-0.2755
-3.5456 свою	-0.6942
-99.9990 связанные	-0.2713
-4.1254 святой	-0.8111
-99.9990 священнейший	-0.2755
-4.1254 сделал	-0.1603
-4.5233 сделали	-0.0326
-99.9990 сделанных	-0.2755
-3.8244 сделать	-0.5416
-3.0685 себе	-0.9533
-3.2681 себя	-0.7353
-3.8701 сего	-0.5729
-3.8701 сегодня	-0.5002
-99.9990 сегодняшние	-0.2755
-99.9990 седая	-0.2755
-4.5233 седой	-0.0319
-3.1909 сейчас	-1.4149
-4.5233 секрет	0.0014
-3.1809 сел	-1.9130
-4.5233 села	-0.0322
-99.9990 сели	-0.2742
-4.5233 селифан	-0.2755
-99.9990 село	-0.2751
-3.1711 семена	-1.6718
-2.8559 семь	-1.9512
-99.9990 семьдесят	-0.2415
-3.1909 семью	-1.6489
-3.1809 сердце	-1.6712
-99.9990 серебряную	-0.2755
-3.2681 серо	-1.5795
-4.0462 серой	-0.8989
-4.1254 серьезно	-0.8111
-99.9990 серьезного	-0.2622
-4.5233 сестра	-0.0313
-4.5233 сестры	0.0014
-2.9105 сеть	-1.9286
-4.0462 сзади	-0.9031
-4.5233 сигару	0.0014
-4.5233 сидевшему	-0.0182
-2.9493 сидел	-1.6653
-4.0462 сидела	-0.5746
-4.5233 сидеть	-0.0317
-99.9990 сидит	-0.2755
-3.8244 сил	-1.0452
-4.5233 силах	0.0014
-99.9990 силе	-0.2622
-4.5233 силу	-0.0324
-99.9990 сильно	-0.2755
-99.9990 сильную	-0.2755
-99.9990 сильных	-0.2754
-99.9990 сими	-0.2415
-99.9990 симпозиуме	-0.2755
-99.9990 синюю	-0.2755
-3.2681 ситцевом	-1.5795
-3.1809 сих	-1.6529
-4.5233 сияющем	-0.2415
-99.9990 сияющие	-0.2755
-4.0462 скажем	-0.9030
-99.9990 скажу	-0.2415
-99.9990 сказавши	-0.2755
-2.9855 сказал	-1.1593
-4.5233 сказала	0.0014
-99.9990 сказали	-0.2415
-3.3772 сказать	-0.8670
-99.9990 сказочные	-0.2755
-2.9731 скайлс	-1.8688
-2.9493 скайльс	-1.8914
-3.3192 скайльса	-1.5311
-3.1523 скал	-1.6887
-3.3058 сквере	-1.5438
-2.4514 сквозь	-2.6575
-99.9990 скинул	-0.2713
-4.5233 складам	-0.2755
-3.2562 скользили	-1.5908
-4.2223 сколько	-0.1007
-4.5233 скорее	-0.2755
-99.9990 скорей	-0.2415
-4.5233 скоро	-0.2694
-4.1254 скоростью	-0.8451
-99.9990 скроен	-0.2739
-99.9990 скромностию	-0.2622
-3.9793 скучно	-0.2842
-4.5233 слабо	-0.0326
-4.0462 слабый	-0.9030
-4.5233 слава	-0.2622
-99.9990 славным	-0.2755
-99.9990 сладкие	-0.2739
-99.9990 сладкий	-0.2755
-4.1254 следов	-0.8111
-4.5233 следствием	-0.0314
-3.9213 следует	-0.5270
-99.9990 следующее	-0.2755
-99.9990 следующий	-0.2755
-3.2011 следы	-1.9087
-99.9990 следя	-0.2755
-99.9990 следят	-0.2748
-99.9990 слезы	-0.2755
-99.9990 слетевший	-0.2736
-4.5233 слетят	0.0014
-99.9990 сличали	-0.2737
-3.5233 слишком	-0.6616
-3.8701 слов	-1.0791
-3.9793 слова	-0.6006
-99.9990 словам	-0.2738
-99.9990 словно	-0.2755
-3.6202 слово	-0.9623
-4.1254 словом	-0.9687
-99.9990 слоеный	-0.2755
-99.9990 слоеным	-0.2755
-3.1616 сложно	-1.6808
-99.9990 сложность	-0.2755
-99.9990 слуга	-0.2755
-4.1254 слуги	-0.2404
-4.5233 слугою	-0.2409
-4.5233 слугу	-0.0320
-99.9990 служат	-0.2754
-99.9990 службе	-0.2742
-99.9990 службу	-0.2755
-3.9793 случае	-1.1743
-4.5233 случается	-0.2674
-4.2223 случай	0.0014
-4.5233 случайно	-0.0326
-99.9990 случаях	-0.2755
-3.8701 случилось	-1.2625
-3.5939 слышал	-1.5248
-3.9793 слышала	-0.6336
-4.5233 слышали	-0.0322
-4.1254 слышать	-0.8446
-4.5233 слышишь	-0.0193
-99.9990 смело	-0.2739
-3.2446 смены	-1.6018
-3.2333 смерти	-1.8772
-3.9793 смерть	-0.5995
-3.1711 сметливым	-1.6718
-99.9990 смешили	-0.2755
-99.9990 смеялся	-0.2739
-99.9990 смогу	-0.2751
-99.9990 смоль	-0.2755
-3.3058 сморщился	-1.5101
-4.5233 смотрели	0.0014
-3.8701 смотреть	-1.0451
-3.9213 смотрит	-0.5412
-99.9990 смутно	-0.2415
-99.9990 смущенно	-0.2755
-4.5233 смысл	0.0014
-4.5233 смысла	0.0014
-99.9990 сна	-0.2712
-99.9990 снабжая	-0.2755
-4.1254 снаружи	-0.8448
-3.2116 сначала	-1.6332
-99.9990 снизу	-0.2755
-4.2223 снова	-0.7781
-99.9990 сновали	-0.2755
-99.9990 снятой	-0.2755
-3.0390 со	-1.1515
-99.9990 соавтор	-0.2415
-4.5233 собакевич	-0.2745
-99.9990 собакевичем	-0.2754
-99.9990 собирая	-0.2754
-4.0462 собираясь	-0.8989
-4.2223 собой	-0.1032
-99.9990 собою	-0.2415
-99.9990 собравшись	-0.2755
-4.5233 собрался	-0.0326
-4.0462 собственно	-0.0986
-99.9990 собственной	-0.2415
-4.0462 собственный	-1.1205
-4.5233 событий	-0.0316
-3.2333 события	-1.5788
-4.1254 совершенно	-0.2752
-99.9990 совершенства	-0.2755
-4.1254 совершить	-0.8450
-99.9990 советник	-0.2755
-99.9990 советники	-0.2750
-99.9990 совету	-0.2755
-3.3772 совсем	-0.7780
-99.9990 согласить	-0.2415
-99.9990 согласиться	-0.2755
-99.9990 содержал	-0.2755
-3.2446 солдат	-1.5876
-3.3058 солдата	-1.5439
-99.9990 соленый	-0.2622
-99.9990 солидное	-0.2622
-3.2803 солнца	-1.5342
-3.2011 солнце	-1.6432
-99.9990 солнцем	-0.2755
-3.2446 соль	-1.5940
-99.9990 сообщен	-0.2622
-4.5233 сообщения	-0.2745
-99.9990 соответствовало	-0.2755
-4.5233 сопровождал	-0.2753
-99.9990 сопровожден	-0.2755
-4.0462 сорок	-1.1205
-99.9990 сосед	-0.2755
-99.9990 соседнее	-0.2755
-99.9990 соседстве	-0.2713
-99.9990 сосиски	-0.2713
-99.9990 сосредоточенность	-0.2415
-99.9990 составляли	-0.2755
-99.9990 составляло	-0.2751
-4.1254 состоит	-0.8447
-4.5233 состояние	0.0014
-4.1254 состоянии	-1.0535
-99.9990 сотни	-0.2755
-4.5233 сотня	-0.0326
-99.9990 сотрудниц	-0.2755
-3.2116 сотрясаясь	-1.6332
-99.9990 сохранил	-0.2753
-4.5233 сохранить	-0.0326
-99.9990 сохранял	-0.2750
-99.9990 сохраняя	-0.2754
-99.9990 сошлись	-0.2746
-99.9990 союз	-0.2755
-4.5233 спальне	0.0014
-99.9990 спальни	-0.2707
-3.2446 спальню	-1.6010
-99.9990 спас	-0.2743
-4.3472 спасибо	-0.0990
-99.9990 специалист	-0.2755
-99.9990 спинами	-0.2755
-99.9990 спинкою	-0.2754
-4.1254 спиной	-0.8111
-99.9990 спину	-0.2755
-3.1909 спираль	-1.6529
-99.9990 спокойно	-0.2755
-99.9990 спокойный	-0.2752
-3.2803 спокойным	-1.5680
-4.5233 спокойствие	-0.0326
-4.3472 спорил	-0.2738
-99.9990 спорили	-0.2739
-3.6782 способен	-0.5919
-4.5233 способность	-0.0326
-4.2223 способны	-0.7776
-99.9990 спохватывались	-0.2755
-4.1254 справа	-0.8111
-3.8244 спрашивал	-1.3450
-99.9990 спрашивали	-0.2755
-4.5233 спросил	0.0014
-4.0462 спросила	-0.9021
-4.5233 спросить	-0.0246
-99.9990 спускался	-0.2611
-99.9990 спускают	-0.2738
-4.5233 спускаясь	-0.2369
-4.5233 спустя	0.0014
-99.9990 спутаешь	-0.2415
-3.5939 сразу	-0.6426
-99.9990 среди	-0.2755
-99.9990 средней	-0.2754
-99.9990 средних	-0.2743
-4.0462 средства	-0.8691
-99.9990 ст	-0.2755
-3.2116 стал	-0.9947
-2.8750 стала	-1.9632
-2.8799 стали	-1.3839
-3.8244 стало	-0.5752
-4.5233 стар	-0.2745
-99.9990 старались	-0.2754
-3.3330 старая	-1.4794
-99.9990 стараясь	-0.2707
-99.9990 старили	-0.2737
-99.9990 старинного	-0.2755
-99.9990 старухи	-0.2622
-99.9990 старшим	-0.2751
-99.9990 статейка	-0.2415
-99.9990 статские	-0.2755
-3.2562 стеклом	-1.5906
-4.5233 стеклышек	-0.2414
-3.2929 стенах	-1.5561
-4.3472 стене	-0.2696
-4.5233 стену	-0.0326
-99.9990 стены	-0.2755
-99.9990 степени	-0.2726
-3.3058 стёганого	-1.5439
-3.2333 стёганой	-1.6125
-3.1809 стёкла	-1.6622
-4.2223 стихи	-0.7776
-4.2223 стоит	-0.9248
-3.2929 стокгольме	-1.5223
-99.9990 стол	-0.2622
-99.9990 стола	-0.2748
-4.5233 столами	-0.2748
-99.9990 столиком	-0.2737
-4.1254 столовой	-0.8111
-3.3192 столом	-1.5313
-3.2011 столу	-1.1344
-99.9990 сторон	-0.2755
-4.5233 сторона	-0.0326
-99.9990 сторонам	-0.2415
-99.9990 стороне	-0.2415
-2.8848 сторону	-1.4474
-3.1616 стороны	-1.1724
-4.5233 стоявшие	-0.0308
-3.2681 стоявшую	-1.5793
-3.8244 стоял	-1.1125
-4.5233 стояли	-0.0246
-4.3472 стояло	-0.0981
-99.9990 стоят	-0.2611
-4.5233 стоять	-0.0193
-99.9990 страна	-0.2755
-4.2223 странно	-0.1353
-3.2929 странные	-1.5561
-4.2223 страшно	-0.7775
-99.9990 страшный	-0.2415
-4.2223 стрелять	0.0032
-3.2803 строк	-1.5680
-4.5233 строю	-0.2755
-3.1909 стучала	-1.6529
-99.9990 стыда	-0.2415
-99.9990 сударь	-0.2755
-99.9990 судить	-0.2415
-99.9990 судя	-0.2738
-99.9990 сумели	-0.2726
-3.2333 сумерек	-1.6125
-4.1254 сумерки	-0.8451
-4.0462 сумку	-0.8691
-4.5233 сунул	-0.0182
-99.9990 супруга	-0.2755
-3.2929 сурик	-1.5223
-99.9990 суровый	-0.2675
-99.9990 сутки	-0.2755
-99.9990 сутуловатый	-0.2755
-99.9990 сутулую	-0.2755
-3.1909 сух	-1.6192
-4.5233 существовали	-0.2755
-99.9990 существование	-0.2739
-3.2929 сферического	-1.5561
-4.5233 схваток	-0.2707
-99.9990 схвачен	-0.2746
-99.9990 сходилось	-0.2415
-4.5233 счастья	0.0014
-4.5233 считаю	0.0014
-99.9990 съезде	-0.2754
-99.9990 съездов	-0.2415
-4.2223 сын	-0.0889
-99.9990 сына	-0.2748
-99.9990 сырым	-0.2755
-4.5233 сюда	-0.2415
-4.5233 сюртуке	-0.2735
-4.5233 сядут	-0.2745
-99.9990 т	-0.2755
-3.9793 та	-0.8757
-4.2223 табак	-0.7442
-99.9990 табакерку	-0.2415
-99.9990 таинственное	-0.2755
-4.1254 тайна	-0.8451
-2.6570 так	-0.9274
-3.8244 такая	-0.4632
-99.9990 также	-0.2755
-4.0462 таки	-1.1203
-3.5939 такие	-1.2363
-4.3472 таким	-0.0976
-4.5233 такими	-0.0326
-3.5691 таких	-0.8558
-3.2929 таков	-1.5419
-3.7104 такого	-0.7633
-3.4819 такое	-0.7165
-3.5691 такой	-0.9445
-99.9990 такою	-0.2755
-4.0462 такси	-1.1193
-2.7909 там	-1.1401
-4.5233 тамбовский	-0.2755
-99.9990 танцующих	-0.2755
-99.9990 тараканами	-0.2755
-99.9990 твердо	-0.2750
-4.5233 твои	-0.0326
-3.8244 твоим	-1.1139
-3.1254 те	-1.6716
-3.4626 тебе	-0.8402
-3.4819 тебя	-0.7332
-3.2929 тела	-1.5223
-3.2223 телескопа	-1.6230
-4.0462 телефона	-1.0865
-3.7104 тем	-0.5134
-4.3472 темной	-0.0655
-99.9990 темнокрасных	-0.2755
-3.1523 тени	-1.6883
-2.3401 теперь	-1.4954
-99.9990 тер	-0.2755
-99.9990 термины	-0.2745
-99.9990 тертый	-0.2755
-99.9990 теряли	-0.2737
-4.0462 тетя	-0.8691
-4.3472 тех	-0.0989
-99.9990 течение	-0.2755
-3.2223 тёмный	-1.6230
-3.2223 тёплый	-1.6230
-3.5939 тихо	-1.2738
-3.1616 ткнул	-1.6809
-3.2681 ткнулся	-1.5654
-2.4899 то	-0.7976
-3.6782 тогда	-0.2649
-2.9918 того	-1.1369
-3.0320 тоже	-0.9699
-3.2681 той	-1.5795
-3.1084 толку	-1.7399
-3.2333 толпе	-1.6125
-4.5233 толст	-0.0315
-99.9990 толстого	-0.2755
-4.2223 толстые	-0.2730
-99.9990 толстый	-0.2415
-99.9990 толстым	-0.2415
-2.8032 только	-0.6944
-3.6782 том	-1.0016
-3.2011 тому	-1.6076
-4.5233 тон	-0.0318
-4.2223 тоненькие	-0.2754
-99.9990 тоненький	-0.2745
-99.9990 тоненьких	-0.2755
-99.9990 тоненького	-0.2611
-99.9990 тонкие	-0.2415
-99.9990 тонну	-0.2713
-3.1711 тонок	-1.5888
-99.9990 тоном	-0.2415
-99.9990 торговым	-0.2755
-99.9990 тостов	-0.2755
-3.8244 тот	-0.2654
-4.2223 тотчас	-0.0306
-3.1616 точек	-1.6680
-4.5233 точно	-0.2415
-4.3472 точностию	-0.2753
-99.9990 тощим	-0.2755
-3.2011 трава	-1.6420
-3.2011 траве	-1.6432
-4.5233 трактир	-0.2271
-4.3472 трактирах	-0.2414
-99.9990 трактире	-0.2755
-4.2223 трактирного	-0.6989
-99.9990 трактирным	-0.2755
-99.9990 требовалось	-0.2755
-99.9990 трепетной	-0.2746
-3.2333 трепещет	-1.6125
-99.9990 третьем	-0.2755
-99.9990 трехногую	-0.2755
-3.6483 три	-0.3951
-99.9990 тридцати	-0.2611
-4.3472 тридцать	-0.2749
-3.2803 тротуара	-1.5680
-99.9990 труба	-0.2415
-3.2803 трубки	-1.5680
-3.1616 трубкой	-1.6668
-4.0462 трубку	-1.0722
-99.9990 трубочного	-0.2755
-4.2223 трудно	-0.1371
-4.5233 труднопроизносимые	-0.2754
-3.2223 трудом	-1.8874
-3.2562 труп	-1.5908
-3.9793 ту	-0.9012
-99.9990 туалетом	-0.2415
-99.9990 туалету	-0.2415
-3.2116 тугоплавкой	-1.6329
-3.6782 туда	-0.9220
-99.9990 туземными	-0.2755
-99.9990 тулупчике	-0.2622
-99.9990 тульскою	-0.2755
-3.2929 тусклого	-1.5561
-3.2116 тусклой	-1.6332
-3.4626 тут	-0.8468
-3.2223 туч	-1.6230
-2.9610 ты	-0.9314
-4.1254 тысяч	-0.8451
-4.3472 тысяча	-0.6020
-3.2116 тысячи	-1.6331
-3.2562 тысячу	-1.5899
-3.2223 тьме	-1.5893
-99.9990 тью	-0.2755
-99.9990 тюлю	-0.2415
-99.9990 тюфяка	-0.2755
-99.9990 тяжелая	-0.2755
-3.1523 тянулись	-1.6886
-99.9990 тянуло	-0.2755
-99.9990 тянулся	-0.2755
-2.3756 у	-1.2510
-99.9990 уайт	-0.2755
-99.9990 уайта	-0.2712
-99.9990 уайтом	-0.2755
-4.5233 убедительно	-0.2414
-4.0462 убедиться	-1.0835
-99.9990 убеждались	-0.2739
-99.9990 убийственных	-0.2755
-99.9990 убил	-0.2754
-4.1254 убили	-0.8445
-3.1431 убиты	-1.6987
-99.9990 убитым	-0.2622
-4.1254 убить	-0.8422
-99.9990 уважение	-0.2755
-99.9990 уважения	-0.2751
-3.3058 уверенно	-1.5308
-99.9990 увивались	-0.2755
-3.2562 увидел	-1.8546
-4.5233 увидела	0.0014
-99.9990 увидите	-0.2415
-99.9990 увы	-0.2755
-3.2929 углекислоты	-1.8193
-99.9990 углов	-0.2622
-99.9990 углу	-0.2611
-99.9990 угнетется	-0.2746
-99.9990 угодьями	-0.2755
-99.9990 угол	-0.2755
-99.9990 уголовниками	-0.2415
-99.9990 угольной	-0.2725
-99.9990 удается	-0.2753
-4.2223 удалось	-0.1364
-3.1616 удара	-1.6809
-99.9990 ударе	-0.2755
-99.9990 ударял	-0.2738
-99.9990 удивился	-0.2754
-99.9990 удивительно	-0.2745
-99.9990 удивленно	-0.2415
-99.9990 удобно	-0.2750
-99.9990 удовлетворен	-0.2755
-99.9990 удовольствие	-0.2622
-2.7637 уж	-1.5242
-4.1254 ужасно	-0.8441
-2.5321 уже	-1.0596
-4.1254 ужин	-0.8307
-99.9990 ужина	-0.2754
-99.9990 узенькую	-0.2755
-3.2929 узкие	-1.5547
-4.5233 узких	-0.2622
-99.9990 узнаваемый	-0.2755
-3.9793 узнал	-0.6006
-99.9990 узнали	-0.2611
-4.5233 узнать	-0.2605
-4.1254 узнаю	-0.8434
-4.1254 уйти	-0.8438
-99.9990 украшали	-0.2737
-99.9990 украшение	-0.2755
-99.9990 украшений	-0.2755
-3.2116 укреплён	-1.6332
-3.1909 улететь	-1.8847
-99.9990 улицам	-0.2755
-4.2223 улице	0.0066
-2.7674 улицу	-2.0316
-3.2929 улицы	-1.5561
-4.5233 улыбалась	0.0014
-4.5233 улыбаться	0.0014
-4.3472 улыбаясь	-0.0655
-99.9990 улыбчивых	-0.2755
-3.1616 ума	-1.6809
-99.9990 умел	-0.2755
-3.1523 умерла	-1.9310
-99.9990 умеют	-0.2754
-99.9990 умеющий	-0.2753
-99.9990 умные	-0.2745
-3.2116 умылась	-1.5995
-99.9990 умыться	-0.2415
-99.9990 университетам	-0.2755
-3.1809 упал	-1.6625
-4.5233 уполномоченный	-0.2755
-99.9990 упомнить	-0.2415
-4.5233 упомянуто	-0.0326
-99.9990 упорство	-0.2755
-99.9990 употребляли	-0.2752
-99.9990 управлялись	-0.2622
-99.9990 управы	-0.2622
-99.9990 уровне	-0.2755
-99.9990 уронил	-0.2753
-4.5233 усам	0.0014
-3.1523 усами	-1.6647
-99.9990 усачом	-0.2755
-3.2011 условиях	-1.6432
-99.9990 услугам	-0.2755
-3.1431 успел	-0.9287
-99.9990 успокоиться	-0.2755
-99.9990 установившиеся	-0.2755
-99.9990 устроивается	-0.2755
-99.9990 устроиваться	-0.2611
-99.9990 устроиться	-0.2611
-99.9990 устройства	-0.2755
-99.9990 уступал	-0.2755
-99.9990 утаить	-0.2415
-3.3058 утомлённым	-1.5436
-4.1254 утра	-0.8111
-4.5233 утро	0.0014
-3.2562 ухо	-1.5145
-4.5233 уходила	-0.0312
-3.8244 уходит	-1.1126
-4.2223 уходить	-0.7442
-99.9990 участием	-0.2755
-99.9990 участника	-0.2415
-99.9990 ученика	-0.2755
-3.2803 учесть	-1.5538
-3.2333 учился	-1.6047
-99.9990 учителе	-0.2415
-99.9990 учтивыми	-0.2415
-99.9990 ушей	-0.2622
-4.5233 ушел	0.0014
-99.9990 ушла	-0.2675
-4.5233 фабриками	-0.2415
-99.9990 факты	-0.2737
-4.0462 фамилию	-1.0859
-99.9990 фамилия	-0.2622
-99.9990 фаринаде	-0.2611
-99.9990 фасад	-0.2754
-99.9990 федька	-0.2755
-3.2803 фельетонов	-1.5665
-3.2116 фермами	-1.5995
-99.9990 фиалки	-0.2415
-99.9990 фигура	-0.2746
-99.9990 фигуре	-0.2754
-99.9990 фигуры	-0.2712
-4.5233 физиономию	-0.2415
-99.9990 философа	-0.2755
-99.9990 финифью	-0.2415
-99.9990 фонарями	-0.2750
-99.9990 форейторские	-0.2755
-4.1254 форме	-0.8111
-99.9990 формы	-0.2415
-4.2223 фотографии	-0.0836
-4.2223 фотографию	-0.7442
-4.5233 фотография	-0.2745
-99.9990 фразы	-0.2755
-99.9990 фрак	-0.2707
-4.5233 фраке	-0.2713
-4.5233 фраки	-0.0326
-4.1254 франков	-0.8111
-99.9990 французы	-0.2415
-4.0462 фронт	-0.8691
-99.9990 фуражечки	-0.2755
-99.9990 фыркнув	-0.2755
-4.1254 характер	-0.8433
-99.9990 характера	-0.2622
-99.9990 хватало	-0.2755
-4.0462 хватит	-0.9030
-3.3192 хваткой	-1.5313
-99.9990 хлебосолом	-0.2622
-3.8701 хм	-1.2414
-99.9990 хмыкал	-0.2415
-4.1254 ходил	-0.8307
-4.3472 ходили	-0.0851
-99.9990 ходу	-0.2712
-99.9990 хозяева	-0.2415
-3.9213 хозяин	-0.5529
-99.9990 хозяина	-0.2754
-3.2929 холмистая	-1.5561
-4.5233 холода	0.0014
-4.5233 холодное	-0.0283
-4.1254 холодным	-0.8435
-99.9990 холодом	-0.2746
-99.9990 холостым	-0.2755
-99.9990 холостяки	-0.2755
-99.9990 хомутами	-0.2755
-99.9990 хорошее	-0.2755
-3.1809 хорошо	-1.4169
-99.9990 хоругви	-0.2750
-3.5456 хотел	-0.7700
-4.5233 хотела	-0.0319
-4.5233 хотели	-0.2751
-3.7452 хотелось	-0.8773
-4.2223 хотите	-0.7442
-4.1254 хоть	-0.1574
-3.0840 хотя	-1.3175
-99.9990 хохлами	-0.2744
-3.9793 хочет	-1.1743
-3.9213 хочу	-0.7520
-3.2116 хребтом	-1.5995
-99.9990 худенькая	-0.2755
-4.3472 художник	-0.2664
-3.9213 хуже	-0.5371
-4.1254 цвет	-0.8449
-3.2803 цвета	-1.7932
-4.5233 цветов	-0.2415
-99.9990 цветом	-0.2753
-3.2446 целует	-1.6016
-3.9793 целый	-1.1785
-4.0462 цель	-0.9026
-4.1254 целью	-0.8111
-4.1254 цену	-0.8318
-3.2446 цепи	-1.5940
-4.3472 чайных	-0.0993
-4.5233 час	-0.2754
-3.7452 часа	-0.6151
-3.1523 часов	-1.9221
-4.1254 часто	-0.0374
-3.2929 частой	-1.5561
-4.5233 часть	-0.2754
-99.9990 частью	-0.2755
-4.0462 часы	-0.8691
-3.2011 чахлой	-1.6432
-4.5233 чашек	-0.0310
-4.5233 чашку	-0.2755
-2.9323 чаще	-1.9067
-4.5233 чаю	-0.2408
-3.4626 чего	-0.9082
-4.0462 чей	-0.9017
-3.2803 чек	-1.5680
-3.1254 человек	-0.9959
-4.1254 человека	-0.2743
-3.1616 человеком	-1.6472
-3.3330 человеческий	-1.5183
-4.5233 человеческих	-0.0325
-99.9990 челюсть	-0.2755
-2.9670 чем	-0.8556
-4.2223 чемодан	-0.1210
-99.9990 чемоданом	-0.2755
-4.0462 чему	-0.8691
-99.9990 черви	-0.2415
-99.9990 червоточина	-0.2755
-99.9990 червь	-0.2754
-99.9990 червяка	-0.2611
-2.4478 через	-2.6584
-3.3330 череп	-1.5041
-99.9990 чернослив	-0.2725
-99.9990 черною	-0.2739
-4.5233 черные	-0.0326
-3.9793 черными	-1.1783
-99.9990 черт	-0.2749
-3.2929 чертах	-1.5547
-3.3192 чертежами	-1.5182
-99.9990 черты	-0.2755
-4.5233 честь	-0.2755
-99.9990 четвероногую	-0.2755
-3.1616 чёрной	-1.6809
-4.5233 чин	-0.2707
-99.9990 чиновника	-0.2415
-4.5233 чиновники	-0.2606
-99.9990 чиновников	-0.2611
-99.9990 числятся	-0.2622
-3.2446 чистое	-1.6018
-3.2681 читала	-1.5795
-99.9990 читатель	-0.2755
-4.1254 читать	-0.8111
-3.9793 чичиков	-0.2697
-99.9990 чичикова	-0.2611
-99.9990 чичикову	-0.2739
-4.1254 чрезвычайно	-0.2751
-99.9990 чрезвычайною	-0.2755
-2.1819 что	-0.8128
-4.3472 чтоб	-0.0904
-3.2333 чтобы	-0.6265
-4.5233 чтото	-0.2749
-3.1711 чувствовал	-1.9442
-99.9990 чувствовалось	-0.2726
-4.0462 чувствую	-0.8691
-3.2446 чудовище	-1.5681
-99.9990 чудом	-0.2755
-4.5233 чужим	0.0014
-3.8244 чуть	-1.2702
-99.9990 чьи	-0.2755
-3.3058 шагал	-1.5439
-4.1254 шагов	-0.8436
-99.9990 шагу	-0.2755
-3.2446 шапки	-1.6004
-3.2223 шарик	-1.5893
-99.9990 шаркнувши	-0.2755
-4.5233 шарлотта	-0.2755
-99.9990 швед	-0.2755
-3.2116 шевелить	-1.6332
-3.2562 шевеля	-1.8550
-99.9990 шее	-0.2755
-99.9990 шеи	-0.2755
-3.9213 шепотом	-0.6518
-4.5233 шептались	-0.2753
-99.9990 шерсти	-0.2755
-4.5233 шерстяную	-0.0326
-3.2011 шести	-1.6429
-2.8899 шесть	-1.9534
-4.5233 шестьдесят	-0.2414
-99.9990 шинель	-0.2415
-3.1809 широкие	-1.3505
-99.9990 широким	-0.2755
-3.3058 широко	-1.5101
-3.2446 широкоплечий	-1.6017
-99.9990 шкатулках	-0.2755
-4.0462 школу	-1.0866
-4.1254 шла	-0.8111
-2.7274 шли	-2.1088
-99.9990 шнуре	-0.2755
-4.0462 шофер	-1.0855
-99.9990 штабскапитаны	-0.2755
-3.3058 штанов	-1.5101
-4.1254 штука	-0.8422
-99.9990 штучными	-0.2755
-3.2011 штык	-1.6387
-99.9990 шума	-0.2622
-99.9990 щекам	-0.2415
-99.9990 щеки	-0.2415
-3.2929 щели	-1.5561
-99.9990 ществовать	-0.2755
-3.2562 щетинистые	-1.5908
-3.2446 щёки	-1.5876
-99.9990 щи	-0.2713
-3.1809 щиколотку	-1.6483
-99.9990 щуривший	-0.2415
-99.9990 щух	-0.2415
-4.2223 э	-0.2754
-99.9990 эволюции	-0.2415
-3.3192 эдак	-1.4975
-3.3192 эй	-1.5313
-3.1616 экваториальной	-1.6809
-4.5233 экипаж	-0.2755
-99.9990 экипаже	-0.2738
-4.5233 экипажу	-0.0321
-99.9990 эластической	-0.2755
-3.3192 электрическая	-1.5313
-3.1809 электричество	-1.6610
-99.9990 эмблема	-0.2755
-4.5233 эн	-0.2755
-99.9990 эпохи	-0.2752
-99.9990 эскадронами	-0.2754
-99.9990 эскадроны	-0.2755
-3.1431 эта	-1.6984
-99.9990 этажа	-0.2755
-3.8701 эти	-0.5351
-3.9793 этим	-1.1446
-99.9990 этими	-0.2755
-3.9793 этих	-0.8772
-2.4317 это	-0.7992
-2.5691 этого	-1.8952
-2.6908 этой	-1.7217
-2.8512 этом	-1.7488
-99.9990 этому	-0.2755
-3.5939 этот	-0.7157
-2.9105 эту	-1.7218
-99.9990 юноша	-0.2754
-2.3058 я	-0.7936
-4.3472 явился	-0.0981
-4.5233 явно	-0.0326
-99.9990 языках	-0.2622
-99.9990 языки	-0.2751
-99.9990 языком	-0.2751
-3.3058 яйца	-1.5439
-3.2011 яйцеобразный	-1.6424
-4.5233 якобы	-0.0325
-99.9990 яму	-0.2748
-2.9213 ярко	-1.9186
-3.1523 ясно	-1.6895
-3.2223 ясный	-1.6230
-3.2116 ящериц	-1.6329
-3.3058 ящики	-1.5434
-1.1231 <s>	-1.2542
-1.1232 </s>	-3.6672

\2-grams:
-2.3575 а больше -0.3087
-2.8691 а была -0.3169
-2.3575 а были -0.3159
-1.1263 а в -0.9192
-2.3575 а важнее 1.3535
-2.3575 а воздушные -0.0431
-2.8691 а вот -0.0084
-1.2512 а все -1.0776
-0.9154 а где -1.0776
-2.8691 а другая -0.0021
-2.3575 а другое -0.2643
-2.3575 а еще -0.2984
-2.3575 а зубр -0.3048
-2.3575 а иногда -0.2977
-2.3575 а к -0.3184
-2.3575 а лакей -0.2860
-2.3575 а ленивые 1.2612
-2.3575 а лондон -0.0431
-2.8691 а лучше 0.1669
-2.3575 а между -0.3174
-1.0294 а может -0.4155
-2.8691 а мы -0.0087
-2.3575 а на -0.3185
-2.3575 а не -0.3185
-2.8691 а он -0.3180
-2.3575 а после -0.3147
-2.3575 а потом -0.3156
-2.8691 а почему -0.0060
-2.3575 а председатель -0.2023
-1.3304 а просто -0.6377
-2.3575 а пустынные 1.2377
-2.3575 а сам -0.3059
-2.3575 а сегодня -0.2977
-2.8691 а скорее -0.0431
-1.3304 а способны 0.0792
-2.3575 а сын -0.2643
-1.2512 а то -0.7645
-1.1843 а уж -0.5304
-2.3575 а холостым -0.0431
-2.3575 а черты -0.0431
-1.4273 а что -0.0015
-2.3575 а широкие 1.0336
-2.8691 а я -0.3057
-0.0669 аббатство как -0.7680
-0.0119 аванс шесть -1.3345
-0.3282 австралии </s> 3.3827
-0.3282 австралийская звезда -0.0431
-0.0105 ад и -1.6041
-0.3282 азербайджанский молодой -0.2643
-0.3282 азии и -0.3179
-0.3282 активно опорожняясь -0.0431
-0.0098 алексей иванович -0.2817
-0.3282 американец лауреат -0.0431
-0.0116 американской газеты 0.0116
-0.3282 америки азии -0.0431
-0.6292 англии это -0.3183
-0.6292 англии </s> 3.3827
-0.3282 анекдоты ему -0.3170
-0.3282 анну и -0.3185
-0.3282 аногу старая 0.8855
-0.3282 антоша канелис -0.2023
-0.0122 апельсинового но -1.4361
-0.2798 аппарат был -1.7456
-0.5809 аппарат прорезывал 0.0102
-0.6856 аппарат так -1.4106
-0.0126 аппараты наблюдения 0.0126
-0.3282 аристократических предках -0.0431
-0.3282 армянский художник -0.2446
-0.3282 архитектору </s> 3.3827
-0.0116 арчибальд скайлс -1.2672
-0.0091 астрономов постоянно 0.0091
-1.1408 атаку </s> 3.6921
-0.0091 атлантическом океане 0.0091
-0.3282 ауэрбах чьи -0.0431
-0.0091 африки в -1.6629
-0.0093 ах боже 0.0093
-0.3282 ахали </s> 3.3827
-0.6292 б один -0.3161
-0.6292 б случилось -0.2996
-1.9409 багровые п -0.0431
-0.0107 багровые полосы 0.0107
-0.3282 бакенбарды или -0.3164
-0.0126 баки ящики 0.0126
-0.3282 бала коляска -0.0431
-0.0122 балки лесов -1.3062
-0.3282 баранками </s> 3.3827
-0.3282 барином хлебосолом -0.0431
-0.3282 барского плеча -0.2023
-0.6292 бархатные знамена -0.0431
-0.6292 бархатные и -0.3175
-0.0126 барышни было -1.4533
-1.1408 бегал по -0.0089
-0.3282 бежала туда -0.3048
-0.0100 бежали из -1.5910
-0.3282 бежать </s> 3.3827
-1.3649 без всякого 0.0669
-2.9828 без дела -0.0079
-2.9828 без кожи -0.0077
-2.4712 без окна -0.3163
-2.4712 без памяти -0.0431
-0.5520 без пояса 0.0110
-2.4712 без приятности -0.0431
-1.4440 без слов -0.4649
-2.9828 без того -0.3127
-1.3649 без толку -0.7280
-2.4712 без часов -0.3143
-0.5520 без шапки 0.0110
-0.6115 без штанов 0.0126
-0.0091 безвоздушном пространстве -1.3756
-1.1408 бездна чайных 0.0123
-0.0091 бездны он -1.6364
-0.0105 безнадёжное одиночество 0.0105
-0.3282 безобразили а -0.3180
-0.3282 безоглядность присуща -0.0431
-0.3282 безошибочно </s> 3.3827
-0.0119 безумном городе -0.6425
-0.3282 белой кожи -0.3138
-1.1408 белом сияющем -0.0431
-0.3282 белых канифасовых -0.0431
-0.0130 берега до -1.4357
-0.6292 берегу те 1.0794
-0.6292 берегу </s> 3.3827
-0.3282 березы </s> 3.3827
-0.0091 берлин </s> 2.0291
-0.3282 берлине продержав -0.0431
-0.0669 беру на -0.7761
-0.6292 бесконечно много -0.3012
-0.6292 бесконечно широким -0.0431
-0.3282 беспокоящим глаза -0.3143
-0.3282 беспорядочное бессмысленное -0.0431
-0.3282 беспредметно появилось -0.0431
-0.3282 бессмысленное составляло -0.0431
-0.3282 бизонов вида -0.0431
-0.3282 била в -0.3180
-1.1408 били меня -0.0086
-0.0116 биться в -1.5610
-0.3282 благовидные весьма -0.2996
-0.3282 благодать божия -0.0431
-0.0095 бледный свет 0.2659
-0.3282 блеск от -0.3179
-0.3282 блеска они -0.3075
-0.0134 блеснуло золото 0.0134
-0.3282 блестели у -0.3179
-0.0130 ближайшей кущи 0.0130
-1.3169 ближе один 0.0068
-0.8053 ближе чем -0.3158
-0.3282 близ города -0.3136
-0.6292 блин и -0.3185
-0.6292 блин который -0.3077
-0.6292 блюда как -0.3067
-0.6292 блюда они -0.3177
-0.6292 бог их -0.3161
-0.6292 бог послал -0.0431
-0.3282 богатым летом -0.0431
-0.3282 богатыри </s> 3.3827
-0.3282 богом покой -0.2023
-0.6292 богу если -0.3129
-0.6292 богу и -0.3185
-0.0093 боже мой -1.3244
-0.3282 божия </s> 3.3827
-0.3282 бойкий профессор -0.2923
-1.1408 бойко подносом 0.0234
-0.3282 бокалами от -0.3179
-2.7892 более к -0.0090
-2.2776 более опытный -0.0431
-2.2776 более потемневших -0.0431
-0.2773 более сложно 0.0091
-2.2776 более согласиться -0.0431
-2.2776 более туземными -0.0431
-0.4053 более тусклого 0.0122
-2.2776 более чем -0.3158
-0.3282 болезней в -0.3185
-0.3282 болезням кукурузы -0.0431
-0.3282 больных а -0.3167
-1.6504 больше в -0.3176
-0.4771 больше денег 0.2688
-1.6504 больше закругленные -0.0431
-2.1620 больше меня 0.0259
-2.1620 больше ничего 0.1973
-1.6504 больше по -0.3178
-0.5441 больше чем -0.7419
-1.6504 больше </s> 3.3827
-1.1408 большее было -0.0089
-0.3282 большей частью -0.0431
-0.3282 большею точностию -0.2446
-0.6292 большинство лишь -0.3087
-0.6292 большинство подходили -0.2446
-1.0271 большой добряк -0.2023
-1.0271 большой и -0.3116
-1.0271 большой ли -0.3161
-1.0271 большой похвалы -0.0431
-1.0271 большой сударь -0.0431
-0.3282 большою охотою -0.0431
-0.8451 большую игру 0.0580
-0.0774 большую монетную 0.0105
-2.0184 большую часть -0.2023
-1.0271 бора тоже -0.3155
-0.0969 бора </s> 3.0992
-0.3282 бородавки </s> 3.3827
-0.3282 бородою </s> 3.3827
-0.3282 бостончик кто -0.3035
-0.0116 босую молодую 0.0116
-0.3282 ботинки с -0.3183
-0.3282 бочку причем -0.0431
-1.8398 брат конечно -0.0012
-0.0969 брат </s> 2.7981
-0.0414 брата </s> 2.7012
-0.0792 брату </s> 3.0023
-2.5473 братья и -0.0091
-0.0174 братья убиты 0.0088
-0.6292 бричка подъехала -0.0431
-0.6292 бричка </s> 3.3827
-0.6292 бричке придумывая -0.0431
-0.6292 бричке сидел -0.3159
-0.3282 бровями и -0.3185
-0.3282 бронзовым пистолетом -0.0431
-0.0792 бросил ты -0.6706
-1.1408 бросилась мне -0.0085
-1.1408 бросить его -0.0089
-0.3282 брусничного цвета -0.3129
-0.3282 бубен </s> 3.3827
-0.0100 бубнили сбивались 0.0100
-0.3282 будем ли -0.3161
-1.0731 будет жить -0.5563
-2.6910 будет идти -0.0081
-0.1792 будет не -1.9630
-1.0062 будет нетрудно 0.0580
-2.6910 будет продать 0.9451
-2.1794 будет проще -0.0431
-1.0731 будет семью -0.7175
-1.1408 будете это -0.0089
-1.1408 будешь делать 0.4058
-0.3282 будочников а -0.2848
-1.2824 будто бы -0.3150
-1.7940 будто ждал 0.0068
-0.1761 будто этот -0.6021
-1.4418 буду жить -0.0050
-1.4418 буду стоять 0.0234
-0.0580 будут </s> 2.8561
-0.0669 будущее было -0.6999
-0.3282 буклями ни -0.3084
-0.3282 булавкою с -0.3183
-0.3282 булыжник </s> 3.3827
-0.3282 бумагу жареная -0.2023
-0.3282 бумажке половой -0.2757
-0.3282 бумажки по -0.3178
-0.3282 бурной и -0.3185
-0.0130 бурому праху 0.0130
-0.0102 бурь в -1.6150
-0.0098 буфер </s> 2.0578
-2.0916 бы беспредметно -0.0431
-1.0645 бы выразить -0.4649
-2.0916 бы вырастает -0.0431
-2.0916 бы говорил -0.3026
-0.9853 бы говорить -0.4956
-2.6032 бы думать 0.0068
-2.0916 бы еще -0.3176
-2.0916 бы и -0.3185
-2.0916 бы издали -0.2446
-2.6032 бы как -0.0089
-2.6032 бы лучше 0.2919
-2.0916 бы на -0.3184
-2.0916 бы он -0.3102
-2.0916 бы подобные -0.0431
-2.6032 бы подумать -0.0431
-2.0916 бы получить -0.2023
-2.0916 бы сделал -0.2757
-0.9853 бы сегодня -0.3802
-2.0916 бы сейчас -0.3140
-2.0916 бы сказал -0.3001
-0.9183 бы собираясь 0.0580
-2.6032 бы собственно 0.0014
-0.9853 бы совершить 0.0669
-2.0916 бы странно -0.2643
-2.6032 бы тебя -0.0066
-2.6032 бы тогда -0.0050
-0.0580 бывает в -0.8437
-1.2313 бывает тут -0.2217
-0.1091 бывал здесь -0.7737
-1.7940 бывал похож 0.0234
-0.0669 бывало </s> 2.9231
-1.7940 бывают гостиницы 0.1813
-0.1761 бывают ли -0.7164
-1.2824 бывают эти -0.2977
-1.5563 был а -0.8025
-2.7296 был большой -0.2757
-3.2412 был бы -0.0081
-2.7296 был визитам -0.0431
-2.7296 был встречен -0.0431
-2.7296 был выкрашен -0.0431
-2.7296 был дан -0.0431
-1.7024 был и -1.0164
-2.7296 был известного 0.2835
-2.7296 был как -0.3183
-2.7296 был конечно -0.2923
-2.7296 был корифей -0.0431
-1.7024 был крепкий 0.0792
-1.6232 был ли -0.7456
-3.2412 был момент 0.0068
-2.7296 был на -0.3184
-0.7679 был не -1.9234
-2.7296 был небольшой -0.3137
-2.7296 был немногословен -0.0431
-2.7296 был ни -0.3174
-0.8829 был освещён 0.0130
-2.7296 был от -0.3179
-2.7296 был очень -0.3164
-0.7782 был построен 0.0102
-2.7296 был представлен -0.0431
-0.8573 был принцип 0.0122
-3.2412 был с -0.3180
-2.7296 был сообщен -0.0431
-2.7296 был сопровожден -0.0431
-2.7296 был страшный -0.0431
-2.7296 был схвачен -0.0431
-2.7296 был сын -0.2643
-2.7296 был так -0.3172
-2.7296 был тем -0.3037
-0.7579 был тонок -0.2817
-2.7296 был у -0.3179
-2.7296 был швед -0.0431
-2.7296 был </s> 3.3827
-0.5092 была видна 0.0116
-2.7066 была дама 0.5845
-2.7066 была ли -0.2568
-2.7066 была манишка -0.0431
-2.7066 была набычена -0.0431
-2.7066 была не -0.3169
-3.2182 была нимфа 0.0123
-1.9013 была она -0.0645
-2.7066 была очень -0.3164
-0.9160 была привязана -0.0284
-0.8343 была приотворена 0.0122
-0.8343 была ракета 0.0122
-2.7066 была та -0.2923
-1.6002 была такая -0.4357
-2.7066 была тоже -0.2984
-0.7449 была трава 0.0100
-2.7066 была эмблема -0.0431
-3.2182 была я -0.0090
-2.7066 была </s> 3.3827
-2.2203 были бородавки -0.0431
-2.7319 были братья -0.0079
-0.2793 были видны 0.0000
-2.7319 были вместе 0.0014
-2.2203 были двух -0.3037
-2.2203 были его -0.3178
-1.1139 были ему -0.7404
-2.2203 были еще -0.3155
-1.1139 были же -0.7693
-1.4150 были знаменитости -0.1300
-2.2203 были изысканность -0.0431
-2.2203 были или -0.3164
-2.7319 были иные -0.0084
-2.2203 были лавочки -0.0431
-2.2203 были одногодки -0.0431
-2.7319 были очень -0.0085
-2.2203 были полные -0.2023
-2.2203 были почетные -0.0431
-2.2203 были просто -0.3132
-2.2203 были такие -0.3082
-2.2203 были такого -0.1267
-2.2203 были хорошо -0.3140
-1.8341 было бы -0.1312
-3.2759 было быть -0.0087
-0.7830 было в -1.6440
-3.2759 было важно 0.7690
-0.7549 было видеть -1.3557
-1.8341 было видно 0.0167
-2.7643 было внесено -0.0431
-3.2759 было восемнадцать 0.0234
-2.7643 было впереди -0.0431
-2.7643 было выяснить -0.0431
-2.7643 было давно -0.3161
-1.5911 было до -0.8288
-1.5911 было жарко 0.0580
-3.2759 было залито -0.0431
-3.2759 было идти -0.0081
-2.7643 было изрезано -0.0431
-2.7643 было именно -0.3152
-2.7643 было ко 0.5845
-2.7643 было лет -0.3175
-2.7643 было ли -0.3161
-2.7643 было лицо -0.3173
-3.2759 было мне -0.0085
-1.5911 было мучительно -0.7766
-1.5331 было не -0.3010
-2.7643 было невозможно -0.0431
-2.7643 было необходимо -0.0431
-0.7830 было необычайно 0.0095
-3.2759 было ни -0.0088
-3.2759 было ничего -0.0075
-2.7643 было отличить -0.0431
-0.7830 было потушено 0.0095
-2.7643 было против 0.3804
-2.7643 было рассмотреть -0.0431
-3.2759 было состояние 0.0234
-3.2759 было то 0.0044
-1.6580 было только -1.0704
-3.2759 было трудно 0.0068
-3.2759 было упомянуто 0.0234
-2.7643 было что -0.3181
-1.5911 было </s> 2.8561
-0.0669 быстро и -0.7673
-2.9297 быть вы -0.0070
-2.9297 быть где 0.0044
-2.4181 быть дел -0.0431
-0.4367 быть дела -0.4491
-2.4181 быть из -0.2688
-0.4178 быть может -1.3093
-1.2448 быть не -0.8406
-2.9297 быть они 0.0019
-1.2448 быть потому 0.1326
-2.9297 быть просто -0.0075
-2.4181 быть самим -0.0431
-2.4181 быть свое -0.2757
-2.4181 быть так -0.1425
-2.9297 быть у -0.0089
-2.9297 быть </s> 3.6921
-0.3282 бычье упорство -0.0431
-0.3064 бьётся трепещет 0.0107
-0.3064 бьётся чаще -1.3064
-3.6788 в англии -0.2023
-4.1904 в атаку 0.0234
-1.6785 в атлантическом 0.0091
-1.6785 в безвоздушном 0.0091
-3.6788 в белых -0.0431
-1.6785 в берлин 0.0091
-3.6788 в берлине -0.0431
-4.1904 в бричке -0.0431
-1.8066 в ведёрке 0.0122
-1.7379 в вечной 0.0105
-2.5055 в виду 0.0580
-1.7072 в виски 0.0098
-3.6788 в воде -0.0431
-3.6788 в вольном -0.0431
-3.6788 в ворота -0.2446
-2.5055 в воскресенье 0.0580
-3.6788 в гимнастерках -0.0431
-1.8066 в гладких 0.0122
-2.8735 в глаза -0.0844
-4.1904 в глубине 0.0234
-1.8192 в голове 0.0126
-3.6788 в город -0.3012
-2.6517 в городе -0.2930
-3.6788 в госте -0.0431
-2.5725 в гостиную 0.0669
-1.8192 в грязной 0.0126
-3.6788 в губернаторский -0.2023
-3.6788 в губернских -0.0431
-1.7709 в гуще 0.0113
-3.6788 в дальний -0.0431
-3.6788 в два -0.3037
-4.1904 в действительности 0.0234
-3.6788 в день -0.2446
-4.1904 в деревне 0.0234
-1.6604 в деревню -0.0343
-3.6788 в длинном -0.0431
-4.1904 в доме -0.0077
-3.6788 в дороге -0.0431
-2.5055 в другой -0.6146
-2.8735 в другом -0.0672
-3.6788 в другую -0.2953
-2.5055 в душе 0.0580
-2.8735 в его -0.0890
-1.7709 в её -1.2897
