#############################################################################
## Copyright (c) 1996, Carnegie Mellon University, Cambridge University,
## Ronald Rosenfeld and Philip Clarkson
## Version 3, Copyright (c) 2006, Carnegie Mellon University 
## Contributors includes Wen Xu, Ananlada Chotimongkol, 
## David Huggins-Daines, Arthur Chan and Alan Black 
#############################################################################
=============================================================================
===============  This file was produced by the CMU-Cambridge  ===============
===============     Statistical Language Modeling Toolkit     ===============
=============================================================================
This is a 3-gram language model, based on a vocabulary of 3455 words,
  which begins "а", "аббатство", "аванс"...
This is a CLOSED-vocabulary model
  (OOVs eliminated from training data and are forbidden in test data)
Good-Turing discounting was applied.
1-gram frequency of frequency : 1567 
2-gram frequency of frequency : 4230 1100 99 189 642 345 65 
3-gram frequency of frequency : 5199 1413 41 211 834 437 34 
1-gram discounting ratios : 0.00 
2-gram discounting ratios : 0.48 0.07 
3-gram discounting ratios : 0.53 0.02 
This file is in the ARPA-standard format introduced by Doug Paul.

p(wd3|wd1,wd2)= if(trigram exists)           p_3(wd1,wd2,wd3)
                else if(bigram w1,w2 exists) bo_wt_2(w1,w2)*p(wd3|wd2)
                else                         p(wd3|w2)

p(wd2|wd1)= if(bigram exists) p_2(wd1,wd2)
            else              bo_wt_1(wd1)*p_1(wd2)

All probs and back-off weights (bo_wt) are given in log10 form.

Data formats:

Beginning of data mark: \data\
ngram 1=nr            # number of 1-grams
ngram 2=nr            # number of 2-grams
ngram 3=nr            # number of 3-grams

\1-grams:
p_1     wd_1 bo_wt_1
\2-grams:
p_2     wd_1 wd_2 bo_wt_2
\3-grams:
p_3     wd_1 wd_2 wd_3 

end of data mark: \end\

\data\
ngram 1=3455
ngram 2=7989
ngram 3=9515

\1-grams:
-2.8143 а	-0.5070
-4.1239 аббатство	-0.8435
-3.2788 аванс	-1.5676
-99.9990 австралии	-0.2532
-99.9990 австралийская	-0.2872
-3.2208 ад	-1.6100
-99.9990 азербайджанский	-0.2872
-99.9990 азии	-0.2740
-3.1894 алексей	-1.6529
-99.9990 американец	-0.2872
-3.2666 американской	-1.5795
-99.9990 америки	-0.2872
-4.5219 англии	-0.2515
-99.9990 анекдоты	-0.2864
-99.9990 анну	-0.2740
-99.9990 аногу	-0.2870
-99.9990 антоша	-0.2872
-3.2914 апельсинового	-1.5553
-2.6298 аппарат	-2.2013
-3.3044 аппараты	-1.5439
-99.9990 аристократических	-0.2872
-99.9990 армянский	-0.2872
-99.9990 архитектору	-0.2532
-3.2666 арчибальд	-1.5793
-3.1601 астрономов	-1.6809
-4.5219 атаку	0.0026
-3.1601 атлантическом	-1.6809
-99.9990 ауэрбах	-0.2872
-3.1601 африки	-1.6668
-3.1697 ах	-1.6718
-99.9990 ахали	-0.2532
-4.5219 б	-0.2867
-3.2318 багровые	-1.8890
-99.9990 бакенбарды	-0.2866
-3.3044 баки	-1.5439
-99.9990 бала	-0.2872
-3.2914 балки	-1.5558
-99.9990 баранками	-0.2532
-99.9990 барином	-0.2872
-99.9990 барского	-0.2872
-4.5219 бархатные	-0.2740
-3.3044 барышни	-1.5423
-4.5219 бегал	-0.0297
-99.9990 бежала	-0.2871
-3.1997 бежали	-1.6405
-99.9990 бежать	-0.2532
-2.6991 без	-1.2565
-3.1601 безвоздушном	-1.6806
-4.5219 бездна	-0.0314
-3.1601 бездны	-1.6770
-3.2208 безнадёжное	-1.6230
-99.9990 безобразили	-0.2866
-99.9990 безоглядность	-0.2872
-99.9990 безошибочно	-0.2532
-3.2788 безумном	-1.5679
-99.9990 белой	-0.2870
-4.5219 белом	-0.0314
-99.9990 белых	-0.2872
-3.3178 берега	-1.5303
-4.5219 берегу	-0.2529
-99.9990 березы	-0.2532
-3.1601 берлин	-1.6472
-99.9990 берлине	-0.2872
-4.1239 беру	-0.8370
-4.5219 бесконечно	-0.2871
-99.9990 беспокоящим	-0.2869
-99.9990 беспорядочное	-0.2872
-99.9990 беспредметно	-0.2872
-99.9990 бессмысленное	-0.2872
-99.9990 бизонов	-0.2872
-99.9990 била	-0.2728
-4.5219 били	-0.0307
-3.2666 биться	-1.5653
-99.9990 благовидные	-0.2872
-99.9990 благодать	-0.2872
-3.1795 бледный	-1.6622
-99.9990 блеск	-0.2854
-99.9990 блеска	-0.2857
-3.3315 блеснуло	-1.5183
-99.9990 блестели	-0.2854
-3.3178 ближайшей	-1.5313
-4.3458 ближе	-0.1001
-99.9990 близ	-0.2870
-4.5219 блин	-0.2739
-4.5219 блюда	-0.2841
-4.5219 бог	-0.2867
-99.9990 богатым	-0.2872
-99.9990 богатыри	-0.2532
-99.9990 богом	-0.2872
-4.5219 богу	-0.2738
-3.1697 боже	-1.6716
-99.9990 божия	-0.2532
-99.9990 бойкий	-0.2872
-4.5219 бойко	-0.0314
-99.9990 бокалами	-0.2854
-2.8884 более	-1.3472
-99.9990 болезней	-0.2728
-99.9990 болезням	-0.2872
-99.9990 больных	-0.2866
-3.5442 больше	-0.5067
-4.5219 большее	-0.0296
-99.9990 большей	-0.2872
-99.9990 большею	-0.2872
-4.5219 большинство	-0.2871
-4.1239 большой	-0.2734
-99.9990 большою	-0.2872
-3.1508 большую	-1.9771
-4.2208 бора	-0.9518
-99.9990 бородавки	-0.2532
-99.9990 бородою	-0.2532
-99.9990 бостончик	-0.2867
-3.2666 босую	-1.5795
-99.9990 ботинки	-0.2830
-3.8687 брат	-0.6963
-3.8687 брата	-1.0074
-4.2208 брату	-0.7442
-3.1239 братья	-1.4243
-4.5219 бричка	-0.2532
-4.5219 бричке	-0.2867
-99.9990 бровями	-0.2740
-99.9990 бронзовым	-0.2872
-4.2208 бросил	-0.7777
-4.5219 бросилась	-0.0308
-4.5219 бросить	-0.0296
-99.9990 брусничного	-0.2870
-99.9990 бубен	-0.2532
-3.1997 бубнили	-1.6432
-99.9990 будем	-0.2867
-2.9904 будет	-1.2185
-4.5219 будете	-0.0298
-4.5219 будешь	-0.0313
-99.9990 будочников	-0.2866
-3.9198 будто	-0.5778
-4.2208 буду	-0.0313
-4.0448 будут	-0.8691
-4.1239 будущее	-0.8434
-99.9990 буклями	-0.2861
-99.9990 булавкою	-0.2830
-99.9990 булыжник	-0.2532
-99.9990 бумагу	-0.2872
-99.9990 бумажке	-0.2872
-99.9990 бумажки	-0.2855
-99.9990 бурной	-0.2740
-3.3178 бурому	-1.5313
-3.2101 бурь	-1.6190
-3.1894 буфер	-1.6192
-3.0986 бы	-0.4271
-3.9778 бывает	-1.1757
-3.9198 бывал	-0.6842
-4.1239 бывало	-0.8111
-3.9198 бывают	-0.5776
-2.4337 был	-1.0419
-2.4537 была	-1.3838
-2.9537 были	-0.7121
-2.4013 было	-0.8777
-4.1239 быстро	-0.8319
-2.7474 быть	-0.9020
-99.9990 бычье	-0.2872
-2.9308 бьётся	-1.9077
-1.4854 в	-1.3403
-3.1697 важнее	-1.6718
-3.1795 важнейшие	-1.6625
-4.2208 важно	-0.7442
-4.5219 важное	0.0026
-3.0670 вам	-1.0631
-3.2431 варёную	-1.6018
-3.2666 вас	-1.0415
-99.9990 ваше	-0.2872
-4.5219 вашего	-0.0313
-4.5219 ваши	-0.0313
-3.2431 вашу	-1.8890
-4.0448 вверх	-1.1299
-99.9990 вверху	-0.2854
-3.1601 вглядывался	-1.6668
-99.9990 вглядываясь	-0.2728
-99.9990 вдали	-0.2532
-3.8229 вдруг	-0.4097
-2.9537 ведь	-1.1561
-3.2914 ведёрке	-1.5561
-4.5219 вежливым	-0.2532
-4.0448 везде	-0.1490
-99.9990 везших	-0.2867
-4.2208 век	-0.7780
-3.2431 веки	-1.5681
-4.3458 веку	-0.0671
-4.3458 вел	-0.0669
-4.1239 вела	-0.8449
-99.9990 велел	-0.2872
-99.9990 вельможами	-0.2872
-99.9990 веревками	-0.2740
-4.5219 верил	-0.0303
-99.9990 верили	-0.2872
-4.1239 верить	-1.0295
-4.5219 верно	-0.2868
-4.2208 вернулась	-0.0313
-4.0448 вернуть	-1.1317
-4.2208 вернуться	0.0052
-4.5219 вероятно	-0.2844
-99.9990 верст	-0.2854
-99.9990 вертелся	-0.2867
-99.9990 вертлявым	-0.2860
-99.9990 верхний	-0.2856
-99.9990 верхнюю	-0.2532
-3.0595 верёвочки	-1.7814
-99.9990 весом	-0.2872
-4.5219 вести	-0.0312
-3.2208 вестибюль	-1.6100
-3.1327 весь	-1.5085
-3.7815 весьма	-0.1939
-3.2101 весёлая	-1.6331
-3.2101 весёлыми	-1.6332
-3.1697 ветер	-1.3915
-99.9990 ветра	-0.2740
-4.5219 вечеринке	-0.2532
-99.9990 вечеринку	-0.2532
-3.1508 вечеру	-1.6893
-3.2208 вечной	-1.6230
-99.9990 вечною	-0.2872
-99.9990 вечный	-0.2872
-4.5219 вещей	-0.0266
-4.5219 вещи	-0.0314
-4.2208 вещь	-0.7442
-99.9990 взад	-0.2740
-3.9778 взгляд	-0.8705
-3.2914 взгляды	-1.5561
-4.1239 взглянув	-0.8370
-4.0448 взглянул	-0.8950
-3.9198 взглянуть	-0.9784
-99.9990 вздор	-0.2866
-99.9990 вздохнул	-0.2740
-3.3605 взлохмаченная	-1.4910
-3.2208 взошёл	-1.6152
-4.5219 взявши	-0.2684
-99.9990 взял	-0.2869
-3.8687 взяла	-0.4271
-4.5219 взять	-0.0271
-3.9198 вид	-0.9514
-99.9990 вида	-0.2871
-99.9990 видали	-0.2856
-3.5676 видел	-1.0946
-99.9990 видели	-0.2844
-2.8834 видеть	-1.9245
-3.2547 видимо	-0.9923
-2.9537 видна	-2.1647
-4.1239 видно	-0.0333
-3.2318 видны	-1.6018
-3.9778 виду	-1.1563
-99.9990 видывал	-0.2872
-99.9990 видывано	-0.2869
-4.5219 вижу	-0.0311
-99.9990 визит	-0.2868
-99.9990 визитам	-0.2532
-99.9990 визитных	-0.2872
-99.9990 визитов	-0.2830
-99.9990 визиты	-0.2872
-99.9990 виляют	-0.2871
-99.9990 висела	-0.2855
-4.5219 висели	-0.0310
-99.9990 висит	-0.2872
-3.1894 виски	-1.6522
-99.9990 вист	-0.2872
-99.9990 виста	-0.2532
-4.5219 висящих	-0.0314
-99.9990 витал	-0.2728
-99.9990 вице	-0.2872
-99.9990 вицегубернатором	-0.2740
-99.9990 вишь	-0.2868
-3.1997 вкратце	-1.6432
-99.9990 вкусом	-0.2872
-99.9990 властителями	-0.2830
-99.9990 влетают	-0.2872
-99.9990 влетели	-0.2872
-3.2547 влетит	-1.5766
-99.9990 вложена	-0.2728
-4.0448 вместе	-0.4699
-3.9778 вместо	-0.8877
-99.9990 внесен	-0.2856
-99.9990 внесено	-0.2872
-99.9990 внесены	-0.2867
-99.9990 внесли	-0.2872
-99.9990 внизу	-0.2867
-99.9990 внимание	-0.2872
-99.9990 внимания	-0.2532
-3.9778 внимательно	-0.8546
-99.9990 внимательность	-0.2848
-4.5219 вновь	-0.0313
-99.9990 внутренности	-0.2862
-3.2318 внутренность	-1.6098
-2.9537 внутри	-1.8850
-3.3178 внутрь	-1.5310
-2.8406 во	-1.2733
-4.5219 вовсе	-0.2821
-99.9990 воде	-0.2532
-4.5219 водится	-0.2824
-99.9990 воду	-0.2532
-3.2788 водя	-1.5665
-4.1239 военной	-0.8451
-4.1239 возвращались	-0.8451
-3.1417 воздух	-1.7059
-99.9990 воздухом	-0.2872
-99.9990 воздушно	-0.2740
-99.9990 воздушные	-0.2872
-99.9990 возились	-0.2871
-99.9990 возиться	-0.2872
-4.1239 возле	-1.0650
-99.9990 возможно	-0.2830
-3.1997 возможном	-1.6432
-99.9990 возможность	-0.2532
-99.9990 возмущенно	-0.2532
-4.1239 войне	-0.8111
-99.9990 войны	-0.2532
-4.5219 войти	-0.0298
-99.9990 вокруг	-0.2532
-99.9990 вол	-0.2872
-3.2788 волнистых	-1.8433
-99.9990 володи	-0.2872
-3.2788 волос	-1.8081
-4.5219 волосами	-0.2389
-99.9990 волоска	-0.2740
-4.5219 волосы	-0.2854
-99.9990 вольном	-0.2872
-4.3458 вон	-0.0866
-99.9990 воображении	-0.2532
-4.1239 вообразить	-0.8403
-3.6188 вообще	-1.5303
-3.3178 вопрос	-1.5313
-4.5219 вопроса	0.0026
-99.9990 вопросов	-0.2872
-99.9990 вопросы	-0.2532
-3.0236 ворона	-1.7787
-3.2318 ворот	-1.6123
-4.3458 ворота	-0.1006
-4.1239 воротник	-0.8435
-4.5219 восемнадцатого	-0.0313
-4.5219 восемнадцать	0.0026
-3.8229 восемь	-1.1127
-3.1508 восемьдесят	-1.6562
-99.9990 восклицания	-0.2872
-4.0448 воскресенье	-0.9030
-3.1601 востоку	-1.6794
-3.1997 восьми	-1.6392
-99.9990 восьмого	-0.2872
-2.9537 вот	-1.0561
-99.9990 вошедши	-0.2728
-3.2101 вошли	-1.6088
-3.9198 впервые	-0.6845
-99.9990 вперед	-0.2855
-99.9990 впереди	-0.2740
-3.2431 вперёд	-1.6018
-99.9990 вполне	-0.2872
-4.0448 впоследствии	-0.9022
-4.1239 вправду	-0.8451
-3.7090 впрочем	-0.1425
-99.9990 вразбитную	-0.2862
-99.9990 врачебной	-0.2872
-4.5219 времена	-0.0308
-4.3458 времени	-0.2696
-3.1508 время	-1.2387
-4.5219 врознь	0.0026
-99.9990 вряд	-0.2867
-2.6615 все	-0.9054
-99.9990 всевобуча	-0.2728
-3.7437 всегда	-0.1823
-3.1153 всего	-1.0301
-4.5219 всей	-0.2872
-3.2318 вселенной	-1.5788
-4.2208 всем	-0.2871
-99.9990 всеми	-0.2872
-99.9990 всему	-0.2871
-99.9990 всеобщее	-0.2872
-99.9990 всеобщие	-0.2532
-4.1239 всерьез	-0.8111
-3.5925 всех	-0.3634
-99.9990 вскользь	-0.2844
-4.5219 вскоре	-0.0310
-3.9778 вслед	-0.9018
-99.9990 вслух	-0.2830
-4.1239 вспоминал	-1.0638
-4.1239 вспомнил	-0.8451
-4.1239 вспомнить	-0.8408
-3.3044 вспыхнул	-1.5439
-99.9990 вставали	-0.2859
-4.1239 встал	-0.8451
-4.3458 встретил	-0.1010
-99.9990 встретился	-0.2872
-99.9990 встречал	-0.2872
-99.9990 встречен	-0.2872
-4.1239 встречи	-0.8438
-99.9990 встряхивал	-0.2872
-99.9990 встряхнул	-0.2872
-99.9990 всунули	-0.2872
-3.9198 всю	-0.5776
-3.8687 всякий	-0.4923
-4.1239 всякого	-0.8451
-3.9198 всяком	-1.1903
-99.9990 всё	-0.2856
-3.3044 всём	-1.5439
-4.1239 вторая	-0.8451
-3.3044 второго	-1.5439
-3.2666 второй	-1.5795
-3.1795 втянули	-1.6610
-99.9990 входа	-0.2532
-3.2788 входил	-1.5680
-4.1239 входит	-0.8307
-99.9990 въезд	-0.2855
-99.9990 въезжаешь	-0.2856
-99.9990 въехал	-0.2792
-99.9990 въехала	-0.2872
-3.4079 вы	-0.4869
-3.2101 выбегали	-1.6332
-99.9990 выбежал	-0.2872
-99.9990 выбритые	-0.2872
-99.9990 выводиться	-0.2872
-3.2318 выглядывала	-1.6047
-99.9990 выглядывающими	-0.2856
-3.2431 выдать	-1.6018
-99.9990 выждав	-0.2871
-99.9990 выживаемости	-0.2872
-99.9990 вызвали	-0.2872
-99.9990 выкладками	-0.2532
-3.2101 выключил	-1.6332
-99.9990 выкрашен	-0.2872
-99.9990 выкрашенные	-0.2872
-99.9990 выкушал	-0.2872
-99.9990 вылезавшие	-0.2532
-99.9990 вылезшие	-0.2843
-99.9990 выпрямливался	-0.2872
-99.9990 выражена	-0.2872
-4.0448 выражения	-1.0976
-99.9990 вырази	-0.2872
-99.9990 выразил	-0.2792
-3.8687 выразить	-1.0783
-99.9990 вырастает	-0.2728
-99.9990 вырывались	-0.2872
-99.9990 выслушивал	-0.2869
-99.9990 высмаркивался	-0.2872
-4.5219 высокие	-0.0181
-3.2208 высокую	-1.6230
-3.1997 высоты	-1.6302
-3.3178 высохшие	-1.5313
-99.9990 высочество	-0.2856
-3.3178 вытащил	-1.5313
-99.9990 вытер	-0.2872
-99.9990 вытирал	-0.2869
-99.9990 вытребовать	-0.2854
-3.2666 вытягивая	-1.5793
-4.1239 выхода	-1.0282
-99.9990 выходки	-0.2740
-99.9990 выходя	-0.2830
-4.2208 выше	-0.1386
-3.8687 вышел	-1.0420
-99.9990 вышивал	-0.2872
-99.9990 вышины	-0.2871
-4.5219 вышла	-0.0310
-99.9990 вышли	-0.2728
-99.9990 выщекатурен	-0.2740
-99.9990 выщипнул	-0.2872
-99.9990 выяснить	-0.2867
-3.1894 вязли	-1.6515
-3.1508 вёрст	-1.6894
-3.2547 газеты	-1.8328
-99.9990 галерее	-0.2872
-3.2914 гвоздиками	-1.5561
-2.6298 где	-1.4793
-99.9990 генетики	-0.2872
-3.1601 геометрически	-1.6809
-99.9990 германии	-0.2532
-99.9990 героические	-0.2866
-99.9990 гимнастерках	-0.2872
-99.9990 гитлеровской	-0.2872
-99.9990 главный	-0.2872
-4.1239 главным	-0.8450
-3.2914 гладких	-1.5561
-99.9990 гладко	-0.2872
-99.9990 гладкое	-0.2872
-3.1795 глаз	-1.6042
-3.1601 глаза	-1.0862
-4.1239 глазах	-0.8111
-99.9990 глазки	-0.2872
-2.9253 глазков	-1.8796
-99.9990 глазом	-0.2863
-4.5219 глубине	-0.0296
-99.9990 глубины	-0.2532
-3.2914 глубокие	-1.5558
-4.5219 глубоко	-0.2872
-3.1894 глядел	-1.6354
-3.2101 глядели	-1.6254
-99.9990 глядь	-0.2830
-4.5219 глядя	-0.0169
-99.9990 глядят	-0.2872
-4.0448 глянул	-0.8950
-3.3044 гневно	-1.5308
-3.2318 говор	-1.6120
-4.1239 говори	-0.8443
-3.7437 говорил	-0.7620
-3.8229 говорила	-1.1124
-3.9198 говорили	-0.9057
-3.5925 говорит	-1.2737
-3.5007 говорить	-0.6954
-3.9778 говорю	-0.5994
-4.1239 говоря	-1.0642
-4.0448 говорят	-1.1322
-4.3458 года	-0.0652
-99.9990 году	-0.2532
-3.9778 годы	-0.8455
-99.9990 голландец	-0.2859
-3.2208 голова	-1.8937
-3.2914 голове	-1.5393
-3.1508 головой	-1.6647
-99.9990 головою	-0.2532
-4.2208 голову	-0.1066
-99.9990 головы	-0.2740
-3.3458 голос	-1.1065
-3.9778 гораздо	-0.6321
-3.3178 горела	-1.5313
-3.3178 горелому	-1.5313
-99.9990 горизонте	-0.2869
-3.7815 город	-0.7303
-3.2318 города	-1.1406
-99.9990 городам	-0.2872
-99.9990 городах	-0.2862
-3.2208 городе	-1.1614
-99.9990 городским	-0.2872
-99.9990 городских	-0.2872
-99.9990 городской	-0.2872
-99.9990 городскому	-0.2872
-3.2914 горошком	-1.8181
-99.9990 горькие	-0.2872
-99.9990 горячек	-0.2872
-4.1239 господа	-0.8451
-99.9990 господами	-0.2872
-3.6768 господин	-0.5537
-99.9990 господина	-0.2872
-99.9990 госте	-0.2824
-99.9990 гостиница	-0.2857
-99.9990 гостинице	-0.2532
-3.9778 гостиницы	-0.6635
-4.1239 гостиную	-0.8451
-4.5219 гость	-0.2389
-99.9990 государю	-0.2872
-99.9990 готов	-0.2856
-99.9990 готовый	-0.2848
-4.5219 грек	-0.2872
-99.9990 грива	-0.2855
-99.9990 громкая	-0.2872
-3.8687 громко	-0.5854
-99.9990 грубость	-0.2532
-3.1697 грудь	-1.3588
-4.5219 грудями	-0.2526
-99.9990 группа	-0.2872
-99.9990 группами	-0.2872
-3.1508 группы	-1.9319
-4.2208 грустно	-0.7442
-99.9990 грязноватых	-0.2859
-3.3044 грязной	-1.5439
-4.1239 губ	-0.8442
-3.2547 губами	-1.8187
-4.5219 губернатор	-0.2866
-99.9990 губернатора	-0.2871
-99.9990 губернатором	-0.2871
-4.5219 губернаторский	-0.2871
-99.9990 губернаторской	-0.2872
-4.5219 губернатору	-0.2868
-99.9990 губернаторше	-0.2532
-99.9990 губернии	-0.2872
-99.9990 губернию	-0.2872
-99.9990 губернским	-0.2872
-99.9990 губернских	-0.2872
-99.9990 губернского	-0.2870
-4.5219 губу	-0.2830
-2.6586 гусев	-2.1643
-3.1795 гусеву	-1.6625
-99.9990 густафсон	-0.2532
-99.9990 густая	-0.2872
-4.1239 густо	-0.8446
-99.9990 густой	-0.2872
-4.5219 густыми	-0.2872
-3.2547 гуще	-1.5908
-2.9841 да	-1.8279
-2.9144 давно	-2.1561
-99.9990 дает	-0.2872
-2.9968 даже	-0.7580
-4.1239 дал	-0.8449
-4.1239 далеко	-0.0327
-99.9990 дальнем	-0.2872
-99.9990 дальний	-0.2872
-3.9778 дальше	-0.6312
-4.3458 дам	-0.2730
-4.0448 дама	-0.8691
-99.9990 дамам	-0.2863
-99.9990 дамских	-0.2872
-4.3458 дамы	-0.0666
-99.9990 дан	-0.2872
-4.5219 дают	-0.0290
-3.6768 два	-0.1442
-99.9990 двадцать	-0.2872
-4.0448 дважды	-0.8691
-3.2208 две	-1.5982
-3.2318 двенадцати	-1.6116
-4.5219 дверей	-0.0314
-99.9990 двери	-0.2532
-3.2914 дверца	-1.5419
-4.1239 дверцу	-0.8450
-3.1894 дверь	-1.6131
-99.9990 дверью	-0.2728
-3.2788 двести	-1.5680
-3.2101 двигатель	-1.5995
-2.9364 движения	-1.8896
-99.9990 движениями	-0.2872
-99.9990 движется	-0.2872
-3.2914 движущего	-1.5561
-99.9990 двинулся	-0.2728
-99.9990 двое	-0.2859
-99.9990 двойку	-0.2532
-3.1894 двойная	-1.6529
-99.9990 двор	-0.2871
-99.9990 дворце	-0.2872
-99.9990 двумя	-0.2872
-3.7437 двух	-1.3993
-4.0448 девочка	-0.8691
-4.1239 девчонка	-0.8111
-4.3458 девятьсот	-0.1011
-4.0448 действительно	-1.1317
-4.5219 действительности	0.0026
-4.1239 действовать	-0.8111
-4.5219 действует	0.0026
-99.9990 дел	-0.2866
-3.1508 дела	-1.2709
-4.5219 делает	-0.2855
-4.3458 делается	-0.0671
-4.2208 делал	-0.1005
-99.9990 делало	-0.2872
-3.7437 делать	-0.4517
-4.5219 делают	-0.0300
-3.9778 делая	-0.9542
-4.2208 деле	0.0078
-99.9990 деликатно	-0.2872
-99.9990 делит	-0.2855
-3.6188 дело	-0.9260
-99.9990 деловая	-0.2872
-99.9990 дельному	-0.2532
-99.9990 демикотонном	-0.2872
-3.7815 денег	-1.0799
-4.3458 день	-0.2872
-3.2431 деньгами	-1.5888
-4.0448 деньгах	-0.8691
-3.1697 деньги	-1.6427
-99.9990 дерева	-0.2830
-99.9990 деревенька	-0.2868
-4.5219 деревне	-0.0314
-3.1327 деревню	-1.9519
-3.3178 деревьев	-1.5290
-3.2666 деревьям	-1.5795
-99.9990 деревянной	-0.2872
-3.3605 держал	-1.4912
-4.0448 держала	-0.9031
-99.9990 держался	-0.2830
-99.9990 держит	-0.2872
-4.0448 дескать	-0.9030
-99.9990 десять	-0.2872
-99.9990 детей	-0.2532
-4.2208 дети	-0.1337
-99.9990 деятельность	-0.2872
-99.9990 джузеппе	-0.2872
-99.9990 диван	-0.2872
-99.9990 диковатость	-0.2532
-99.9990 длинна	-0.2728
-99.9990 длинном	-0.2872
-99.9990 длиннорукий	-0.2532
-3.1417 длинные	-1.9771
-99.9990 длинный	-0.2740
-99.9990 длинными	-0.2872
-2.8017 для	-1.1106
-99.9990 дне	-0.2872
-4.5219 дня	-0.2775
-99.9990 дням	-0.2872
-2.5581 до	-1.5526
-4.5219 добраться	0.0026
-4.5219 добржанский	-0.2532
-99.9990 добро	-0.2872
-99.9990 доброй	-0.2843
-99.9990 добряк	-0.2740
-4.3458 довольно	-0.2870
-4.1239 доедет	-0.0363
-99.9990 доклады	-0.2872
-4.0448 доктор	-0.9031
-99.9990 докучными	-0.2872
-4.5219 долг	-0.2532
-3.0905 долго	-1.5651
-3.7815 должен	-0.0465
-3.9198 должна	-0.6819
-3.8687 должно	-0.6821
-99.9990 должное	-0.2532
-3.8229 должны	-1.1134
-4.1239 дом	-0.2507
-2.9716 дома	-1.8127
-99.9990 домах	-0.2532
-99.9990 домашнюю	-0.2872
-3.2101 доме	-1.3196
-3.2318 домов	-1.6122
-4.3458 домой	-0.0835
-4.0448 донесся	-0.9031
-99.9990 допытывался	-0.2854
-99.9990 дороге	-0.2532
-99.9990 дороги	-0.2872
-99.9990 дорогое	-0.2865
-99.9990 дорогой	-0.2532
-3.2318 досками	-1.6125
-3.9778 достаточно	-0.6327
-4.5219 достоин	-0.0309
-99.9990 достоинство	-0.2872
-99.9990 достойны	-0.2872
-99.9990 дохода	-0.2740
-99.9990 дочь	-0.2532
-99.9990 драках	-0.2830
-99.9990 древний	-0.2872
-3.9778 друг	-1.1861
-4.3458 друга	-0.6650
-3.9198 другая	-0.3832
-4.5219 другие	-0.2872
-4.5219 другим	-0.2872
-4.1239 других	-0.8448
-3.9778 другого	-0.5754
-4.2208 другое	-0.1067
-3.6468 другой	-0.6016
-3.7815 другом	-0.6692
-3.3178 другому	-1.1083
-3.9198 другую	-0.7297
-4.1239 друзья	-0.8111
-99.9990 дуба	-0.2867
-99.9990 думаете	-0.2532
-3.7090 думаешь	-0.7644
-3.7815 думал	-1.3634
-4.5219 думала	0.0026
-3.2101 думали	-1.6306
-4.2208 думать	0.0026
-3.7090 думаю	-0.5069
-4.5219 думают	-0.0308
-99.9990 дурной	-0.2872
-99.9990 духа	-0.2532
-4.3458 душ	-0.6020
-4.1239 душа	-0.8111
-4.0448 душе	-0.9014
-4.3458 души	-0.6650
-99.9990 душу	-0.2844
-99.9990 дыбом	-0.2872
-99.9990 дыма	-0.2740
-3.1894 дышалось	-1.6526
-99.9990 европе	-0.2863
-99.9990 европы	-0.2872
-2.3932 его	-0.8562
-3.3178 едва	-1.5299
-4.5219 единственное	-0.0313
-3.2431 единственные	-1.6018
-4.1239 единственный	-0.8421
-4.1239 еду	-0.8447
-4.5219 еды	-0.0271
-3.0670 ее	-0.5838
-4.5219 ездить	-0.0309
-99.9990 ездят	-0.2872
-3.4250 ей	-0.5956
-2.7191 ему	-0.9799
-3.3044 если	-0.3791
-4.1239 естественно	-0.8445
-2.9038 есть	-1.1523
-4.0448 ехал	-0.9030
-3.1417 ехать	-1.6986
-3.0376 еще	-0.6458
-4.1239 ею	-0.8451
-2.9478 её	-1.8774
-3.6768 ж	-0.8119
-3.1601 жадно	-1.6809
-99.9990 жал	-0.2864
-3.2431 жалованье	-1.6018
-99.9990 жаль	-0.2844
-99.9990 жандарма	-0.2872
-4.5219 жареная	-0.2872
-4.0448 жарко	-0.8691
-99.9990 жаркого	-0.2872
-99.9990 жатву	-0.2872
-4.2208 ждал	-0.0266
-3.2788 ждановскую	-1.5680
-3.2318 ждать	-1.8883
-3.9778 ждет	-0.6316
-2.3711 же	-0.9376
-3.9198 желал	-0.6827
-4.0448 желание	-0.9013
-4.1239 желаю	-0.8447
-99.9990 желая	-0.2872
-4.1239 железный	-0.8449
-99.9990 желтая	-0.2872
-99.9990 желтою	-0.2872
-4.2208 жена	0.0027
-99.9990 женатым	-0.2872
-3.9778 женился	-0.6119
-99.9990 женские	-0.2872
-4.0448 женский	-0.9029
-4.1239 женщин	-0.8448
-3.1239 женщина	-1.1431
-3.2666 женщину	-1.5653
-3.2666 женщины	-1.5756
-4.5219 жены	-0.2868
-99.9990 жестких	-0.2872
-3.3178 жестяном	-1.5313
-4.1239 жив	-0.8408
-4.3458 живет	-0.2368
-4.5219 живое	-0.2721
-3.2318 живоносного	-1.6125
-3.2101 животные	-1.6332
-99.9990 живу	-0.2863
-99.9990 живые	-0.2872
-99.9990 живым	-0.2740
-3.8687 жизни	-0.9522
-3.9778 жизнь	-0.0576
-4.0448 жила	-0.5395
-3.2318 жили	-1.5983
-99.9990 жительства	-0.2532
-3.7090 жить	-0.7623
-3.2318 жёлтой	-1.6125
-99.9990 з	-0.2872
-2.5176 за	-1.2244
-99.9990 забавно	-0.2872
-99.9990 забирался	-0.2872
-4.5219 заботились	-0.0285
-3.2547 забранные	-1.5908
-3.1417 заброшена	-1.6650
-3.2318 заброшенном	-1.6125
-3.5925 забыл	-0.4536
-4.5219 забыла	-0.0285
-3.3178 заваленном	-1.5313
-3.2788 завела	-1.5680
-99.9990 завернутая	-0.2728
-2.8735 завтра	-1.9326
-99.9990 загривком	-0.2532
-99.9990 задние	-0.2866
-99.9990 задубили	-0.2532
-99.9990 зажег	-0.2867
-99.9990 зажмурить	-0.2869
-3.2318 заката	-1.5995
-3.2318 заколоченные	-1.6125
-4.1239 законы	-0.8111
-99.9990 закопченный	-0.2872
-3.3178 закричал	-1.5272
-99.9990 закругленные	-0.2740
-99.9990 закружился	-0.2872
-3.2431 закрытые	-1.6018
-99.9990 закутываться	-0.2866
-99.9990 зал	-0.2872
-99.9990 зала	-0.2532
-4.5219 залито	-0.2532
-99.9990 заложенной	-0.2728
-99.9990 заложившив	-0.2872
-99.9990 залосненные	-0.2872
-3.2101 залу	-1.8759
-99.9990 залы	-0.2872
-99.9990 замаслившимся	-0.2856
-4.5219 заметил	-0.2814
-4.5219 заметила	-0.0303
-99.9990 заметили	-0.2870
-99.9990 заметною	-0.2872
-4.5219 замечает	0.0026
-4.5219 замечания	-0.2872
-99.9990 замечателен	-0.2844
-99.9990 замирал	-0.2867
-99.9990 занимали	-0.2872
-99.9990 занимались	-0.2872
-99.9990 занимают	-0.2872
-3.3757 заногу	-1.4769
-99.9990 заняли	-0.2872
-99.9990 заняло	-0.2830
-99.9990 занятию	-0.2872
-3.1601 запад	-1.6794
-3.1601 западу	-1.6680
-3.9778 запах	-1.1562
-99.9990 запаха	-0.2872
-99.9990 записку	-0.2866
-99.9990 заповеднике	-0.2857
-99.9990 запоминаются	-0.2871
-4.1239 запомнил	-0.8111
-3.2318 зарабатываю	-1.5788
-4.5219 заранее	-0.0308
-3.2547 заросли	-1.5908
-4.3458 засвидетельствовать	-0.1011
-99.9990 заслуживши	-0.2872
-99.9990 заснул	-0.2871
-4.5219 заставил	-0.0314
-99.9990 заставить	-0.2870
-99.9990 заставленною	-0.2872
-4.1239 заставляет	-0.8450
-99.9990 заставы	-0.2792
-99.9990 застегнутая	-0.2872
-3.7815 затем	-1.3998
-99.9990 зато	-0.2728
-99.9990 затрещит	-0.2866
-99.9990 затылке	-0.2532
-99.9990 захлюпал	-0.2872
-4.0448 зачем	-0.9009
-99.9990 зачесанные	-0.2872
-3.2208 зашагал	-1.6217
-99.9990 заявил	-0.2830
-99.9990 звал	-0.2855
-99.9990 звезда	-0.2872
-99.9990 звезде	-0.2871
-4.5219 звенели	-0.0313
-99.9990 звонки	-0.2872
-4.5219 звук	-0.2872
-4.5219 звука	0.0026
-99.9990 звучал	-0.2856
-3.1697 звёзд	-1.6381
-3.2914 звёздную	-1.5561
-3.0305 здесь	-0.9279
-99.9990 здравствует	-0.2872
-99.9990 зевать	-0.2740
-99.9990 зеленого	-0.2872
-99.9990 зеленый	-0.2872
-3.2788 зеленью	-1.5550
-4.1239 зелёный	-0.8451
-3.1795 земле	-1.9386
-3.2101 земли	-1.5995
-3.1697 землю	-1.6640
-3.1417 земля	-1.6987
-3.1795 земную	-1.6625
-99.9990 зеркалом	-0.2872
-99.9990 зловещие	-0.2532
-99.9990 знаем	-0.2866
-3.7437 знает	-0.8827
-4.0448 знаете	-0.9002
-4.2208 знаешь	-0.7766
-99.9990 знакомили	-0.2859
-99.9990 знакомились	-0.2740
-99.9990 знакомо	-0.2872
-99.9990 знакомого	-0.2792
-99.9990 знакомства	-0.2870
-4.0448 знакомы	-0.9030
-99.9990 знакомые	-0.2872
-3.7090 знал	-0.7619
-4.2208 знали	-0.9366
-99.9990 знамена	-0.2872
-99.9990 знаменитостей	-0.2871
-4.2208 знаменитости	-0.2728
-3.9198 знать	-0.5773
-4.5219 значит	-0.0313
-99.9990 значительного	-0.2872
-99.9990 значительной	-0.2532
-99.9990 значительных	-0.2872
-3.6188 знаю	-0.6216
-3.9778 знают	-0.5993
-4.2208 зовут	-0.7442
-3.2914 зовёт	-1.5561
-3.3315 золото	-1.4845
-99.9990 зорко	-0.2532
-3.2318 зрелища	-1.6125
-3.1997 зубами	-1.6416
-3.3315 зубах	-1.5168
-3.7090 зубр	-0.3797
-3.8687 зубра	-0.0790
-99.9990 зубрами	-0.2854
-99.9990 зубре	-0.2872
-99.9990 зубров	-0.2872
-4.5219 зубрость	0.0026
-4.2208 зубру	-0.1067
-3.2101 зубчатым	-1.6332
-1.5223 и	-1.1530
-4.1239 ибо	-0.2791
-99.9990 иванова	-0.2851
-3.1697 иванович	-1.3928
-4.3458 игра	-0.0671
-99.9990 играл	-0.2532
-4.0448 игру	-0.9009
-4.5219 игры	-0.2532
-4.5219 идет	-0.2838
-3.0670 идти	-1.1627
-2.1697 из	-1.7976
-99.9990 избегал	-0.2871
-99.9990 избрать	-0.2872
-99.9990 известная	-0.2872
-3.9778 известно	-0.6299
-4.2208 известного	-0.8552
-99.9990 известную	-0.2872
-99.9990 извнутри	-0.2872
-99.9990 изволили	-0.2872
-4.3458 издали	-0.0664
-99.9990 изза	-0.2872
-99.9990 изменился	-0.2866
-99.9990 изображен	-0.2866
-4.5219 изображена	-0.0298
-4.2208 изредка	-0.7781
-99.9990 изрезано	-0.2872
-99.9990 изречения	-0.2872
-99.9990 изучали	-0.2872
-99.9990 изысканность	-0.2740
-2.8735 или	-0.7574
-3.8229 им	-0.4471
-99.9990 имевший	-0.2869
-99.9990 имеет	-0.2872
-4.0448 имел	-0.5801
-3.9778 имела	-0.6333
-4.3458 имели	-0.0995
-4.5219 имело	-0.0313
-4.5219 именем	-0.0313
-99.9990 имения	-0.2866
-3.0595 именно	-1.0995
-4.2208 иметь	-0.7442
-4.0448 имею	-0.8887
-99.9990 имеющего	-0.2872
-99.9990 имеющие	-0.2872
-4.5219 ими	-0.0295
-4.3458 имя	-0.0879
-4.5219 иначе	0.0026
-3.3178 инженера	-1.5313
-3.8229 иногда	-0.8037
-4.1239 иного	-0.8451
-99.9990 иной	-0.2867
-99.9990 инспектору	-0.2872
-99.9990 институтам	-0.2872
-3.3044 инструментов	-1.5308
-4.1239 интерес	-1.0640
-4.0448 интересно	-1.0952
-99.9990 интересовались	-0.2532
-3.7815 интересует	-1.0799
-99.9990 интересующийся	-0.2872
-2.9091 иные	-1.3530
-99.9990 иных	-0.2867
-99.9990 искал	-0.2872
-3.2208 искателем	-1.6224
-4.0448 исключением	-0.9031
-3.2666 искоркой	-1.5458
-99.9990 искренним	-0.2532
-99.9990 искрой	-0.2872
-4.5219 искусно	-0.2863
-99.9990 искусств	-0.2872
-99.9990 испивать	-0.2871
-99.9990 исподлобья	-0.2872
-99.9990 исполинского	-0.2872
-99.9990 исполнить	-0.2862
-4.5219 испытал	-0.0313
-4.5219 истертым	-0.0314
-99.9990 историей	-0.2872
-99.9990 истории	-0.2872
-99.9990 исторических	-0.2872
-99.9990 исторического	-0.2872
-99.9990 источили	-0.2855
-3.1997 истребить	-1.6095
-99.9990 истребленного	-0.2869
-4.1239 исчез	-0.8111
-99.9990 италии	-0.2855
-99.9990 итальянски	-0.2532
-2.9253 их	-0.8271
-99.9990 ищет	-0.2532
-99.9990 июльского	-0.2872
-2.2582 к	-1.4367
-4.5219 кабака	-0.0313
-4.5219 кабинете	-0.0298
-99.9990 кадре	-0.2872
-4.5219 каждого	-0.2532
-99.9990 каждом	-0.2872
-99.9990 каждому	-0.2532
-99.9990 каждую	-0.2872
-4.5219 каждый	-0.0313
-99.9990 кажется	-0.2532
-4.5219 казалась	-0.0314
-3.1894 казались	-1.6625
-2.8687 казалось	-1.6329
-4.5219 казань	-0.2810
-99.9990 казенными	-0.2872
-2.4355 как	-0.7833
-99.9990 какая	-0.2869
-2.8784 какие	-1.2733
-4.5219 какието	-0.2872
-99.9990 каким	-0.2858
-4.2208 какими	-0.7767
-99.9990 какимито	-0.2872
-4.5219 каких	-0.2872
-99.9990 какихто	-0.2872
-3.9778 какого	-1.1897
-3.7090 какое	-1.4310
-3.6188 какой	-0.6661
-99.9990 каком	-0.2872
-99.9990 както	-0.2872
-4.0448 какую	-1.1305
-3.1997 каменных	-1.9204
-99.9990 камина	-0.2872
-2.9308 каналы	-1.9080
-4.5219 канелис	-0.2856
-99.9990 канифасовых	-0.2872
-99.9990 капустой	-0.2872
-99.9990 карельской	-0.2872
-3.2666 карие	-1.5665
-4.1239 кармане	-0.8111
-99.9990 карт	-0.2532
-99.9990 картинах	-0.2872
-4.5219 картине	-0.0314
-99.9990 картину	-0.2532
-4.5219 картины	-0.0307
-99.9990 карточек	-0.2872
-99.9990 карточки	-0.2871
-3.2431 картошку	-1.6018
-99.9990 карту	-0.2792
-4.5219 картуз	-0.2739
-99.9990 карты	-0.2532
-3.1894 катей	-1.6529
-3.2547 кати	-1.5868
-99.9990 катились	-0.2855
-3.1697 катюшиной	-1.6718
-3.2208 катя	-1.5893
-3.2101 квадратные	-1.6332
-3.7815 квартире	-1.1418
-3.1997 квартиру	-1.3495
-3.8687 кем	-0.7900
-99.9990 кивал	-0.2872
-3.3178 кивнул	-1.5309
-3.2547 кидались	-1.5766
-4.1239 километров	-0.8111
-99.9990 кинохроники	-0.2872
-4.1239 кинул	-0.8451
-3.1894 кинулся	-1.6508
-99.9990 кипение	-0.2830
-99.9990 кирпич	-0.2740
-99.9990 кирпичиках	-0.2532
-3.2914 кирпично	-1.5561
-3.3044 кислородные	-1.5439
-99.9990 кистью	-0.2872
-99.9990 клад	-0.2854
-3.1697 кладу	-1.6640
-99.9990 кланялись	-0.2872
-4.2208 класса	-0.7442
-99.9990 классики	-0.2866
-4.5219 клеенкам	-0.0314
-99.9990 клетки	-0.2872
-3.2547 клубки	-1.5571
-3.2318 клубы	-1.6125
-99.9990 ключница	-0.2872
-3.2914 клёпкой	-1.5561
-3.3178 книгами	-1.5313
-4.1239 книгах	-0.8111
-4.0448 книги	-1.0983
-99.9990 книжные	-0.2872
-3.9778 ко	-0.9025
-3.3178 кобуру	-1.5313
-2.6706 когда	-1.1513
-99.9990 когдато	-0.2862
-4.3458 кого	-0.2847
-99.9990 когото	-0.2872
-4.1239 кое	-0.0697
-3.3044 кожаного	-1.5439
-3.1997 кожи	-1.2207
-99.9990 козырьки	-0.2872
-4.5219 коленях	0.0026
-4.5219 колесо	-0.2530
-99.9990 коллежский	-0.2872
-99.9990 колодки	-0.2740
-99.9990 колюче	-0.2740
-3.2666 колючую	-1.5792
-99.9990 коляска	-0.2830
-3.2318 комнате	-1.5983
-4.3458 комнату	-0.2823
-99.9990 комнаты	-0.2862
-99.9990 комодом	-0.2532
-99.9990 комплимент	-0.2872
-4.2208 кому	-0.1379
-4.1239 конгресса	-0.2849
-99.9990 конгрессе	-0.2872
-3.3605 конец	-1.4910
-3.9198 конечно	-0.0987
-4.5219 конурке	-0.2829
-3.3178 конусе	-1.4975
-4.0448 конца	-1.0983
-4.3458 конце	-0.1008
-3.2788 концом	-1.5680
-3.3605 концу	-1.4910
-99.9990 кончился	-0.2532
-99.9990 конюшню	-0.2872
-99.9990 координатор	-0.2740
-99.9990 копченая	-0.2872
-3.2788 корзинку	-1.5640
-99.9990 корифеи	-0.2872
-99.9990 корифей	-0.2740
-3.2666 коричневую	-1.5795
-99.9990 король	-0.2872
-99.9990 коротких	-0.2532
-3.2666 корреспондент	-1.5795
-3.2914 корточках	-1.5559
-3.1795 кору	-1.6625
-99.9990 косвенных	-0.2872
-99.9990 косились	-0.2740
-4.5219 косынку	-0.2871
-99.9990 косынок	-0.2532
-99.9990 которая	-0.2872
-3.7815 которого	-0.4835
-4.0448 которое	-0.0979
-4.2208 которой	-0.2809
-4.5219 котором	-0.0313
-99.9990 которому	-0.2872
-4.5219 которую	-0.2684
-3.7437 которые	-0.1819
-3.5925 который	-0.7111
-99.9990 которым	-0.2856
-4.5219 которыми	-0.2872
-4.1239 которых	-0.1632
-99.9990 кофею	-0.2740
-4.0448 крайней	-0.9031
-4.5219 красавец	-0.0304
-99.9990 красе	-0.2532
-99.9990 красивая	-0.2872
-99.9990 краска	-0.2792
-4.5219 красками	-0.0313
-4.5219 краской	-0.2532
-99.9990 краскою	-0.2872
-99.9990 красная	-0.2872
-99.9990 красноармейцев	-0.2532
-4.5219 красноармейцы	-0.2376
-99.9990 красного	-0.2872
-4.5219 красной	-0.2872
-3.2914 красный	-1.5561
-4.5219 красным	-0.2856
-99.9990 края	-0.2824
-99.9990 крепкие	-0.2856
-4.2208 крепкий	-0.7781
-4.5219 крепко	-0.2532
-99.9990 кресле	-0.2867
-3.1894 крестом	-1.6192
-4.2208 крестьян	-0.1258
-99.9990 крики	-0.2872
-3.2101 крикнуть	-1.6310
-99.9990 кричали	-0.2862
-4.5219 кричит	0.0026
-4.0448 кровати	-0.8691
-99.9990 кровать	-0.2872
-4.1239 крови	-0.8449
-3.1894 кровь	-1.6388
-4.5219 кроме	-0.2864
-3.1894 круглая	-1.6529
-3.2318 круглое	-1.6125
-99.9990 круглые	-0.2532
-4.0448 кругом	-0.9030
-99.9990 кружение	-0.2856
-99.9990 крупными	-0.2870
-4.0448 крутой	-0.9029
-99.9990 крылышками	-0.2866
-99.9990 кстати	-0.2728
-2.8884 кто	-0.8586
-3.8229 куда	-0.1113
-99.9990 кудрявочерные	-0.2532
-99.9990 кукурузы	-0.2855
-99.9990 купеческими	-0.2872
-99.9990 купленный	-0.2792
-3.2547 купола	-1.5571
-99.9990 купцы	-0.2855
-99.9990 курица	-0.2532
-99.9990 курьеров	-0.2532
-99.9990 курьерских	-0.2863
-99.9990 куски	-0.2862
-4.5219 кухню	0.0026
-4.3458 кучами	-0.1004
-3.2914 куче	-1.8311
-4.5219 кучер	-0.0314
-3.1997 кучки	-1.6432
-3.3178 кущи	-1.5313
-99.9990 лабораториям	-0.2872
-99.9990 лавочек	-0.2866
-99.9990 лавочки	-0.2830
-4.2208 ладно	-0.7781
-4.5219 лакей	-0.0314
-99.9990 лакейским	-0.2872
-99.9990 лакированные	-0.2532
-4.5219 лакомые	-0.2872
-99.9990 лаконически	-0.2532
-99.9990 ламп	-0.2740
-3.3178 лампочка	-1.5170
-99.9990 лапки	-0.2872
-3.2547 лапчатой	-1.5908
-99.9990 ларчик	-0.2872
-99.9990 лауреат	-0.2872
-99.9990 лацканах	-0.2532
-99.9990 левым	-0.2872
-99.9990 легенд	-0.2869
-99.9990 легендам	-0.2866
-99.9990 легенды	-0.2872
-99.9990 легкие	-0.2872
-4.0448 легким	-1.0983
-2.8784 легко	-1.9398
-4.0448 легче	-0.8691
-4.1239 лед	-0.8111
-3.1508 ледяную	-1.6899
-3.1601 лежавший	-1.6732
-99.9990 лежал	-0.2830
-3.1997 лежали	-1.6354
-3.1894 лежащей	-1.6388
-4.1239 лежит	-0.8451
-4.0448 лейтенант	-0.9030
-3.2666 ленивые	-1.5795
-3.2208 лесенку	-1.6230
-2.9198 лесов	-1.9186
-99.9990 лестницы	-0.2872
-99.9990 лестное	-0.2872
-99.9990 лестные	-0.2872
-2.5628 лет	-1.5886
-99.9990 лета	-0.2863
-99.9990 летает	-0.2872
-3.1601 летел	-1.6732
-3.2101 летела	-1.6287
-3.2914 лететь	-1.5534
-99.9990 летом	-0.2740
-2.9253 ли	-0.8752
-99.9990 либо	-0.2872
-99.9990 лидеры	-0.2872
-2.8591 линий	-1.9769
-4.1239 линию	-0.8447
-99.9990 лихих	-0.2872
-99.9990 лихорадок	-0.2872
-99.9990 лиц	-0.2863
-4.3458 лица	-0.2853
-99.9990 лицах	-0.2872
-4.5219 лице	-0.2872
-3.1508 лицо	-0.9754
-99.9990 лицом	-0.2863
-4.1239 лицу	-0.8111
-99.9990 лишком	-0.2871
-3.5676 лишь	-0.6930
-2.9716 лоб	-1.8546
-3.1795 ловким	-1.6495
-99.9990 ловко	-0.2872
-4.1239 ложь	-0.8409
-99.9990 ломбард	-0.2854
-99.9990 лондон	-0.2872
-99.9990 лоскутке	-0.2872
-2.2535 лось	-2.5604
-3.3178 лося	-1.5310
-99.9990 лохматилась	-0.2532
-99.9990 лошадей	-0.2866
-3.2431 лупить	-1.6018
-3.2788 луч	-1.5680
-3.1997 лучи	-1.6095
-3.5925 лучше	-1.0058
-3.1997 льды	-1.6095
-3.1697 любви	-1.6381
-99.9990 любезного	-0.2872
-99.9990 любил	-0.2872
-4.5219 любила	-0.0307
-99.9990 любимого	-0.2855
-3.9778 любит	-0.5994
-99.9990 любителями	-0.2872
-4.0448 любить	-0.9030
-99.9990 любишь	-0.2532
-3.8229 люблю	-1.0799
-4.1239 любовь	-0.8450
-99.9990 любознательность	-0.2862
-99.9990 любопытно	-0.2859
-99.9990 любопытный	-0.2872
-4.5219 любопытство	0.0026
-99.9990 любят	-0.2792
-3.1239 людей	-1.9689
-3.9778 люди	-0.4879
-3.2318 люка	-1.5788
-4.5219 люстра	-0.0310
-3.2101 лёгкими	-1.6332
-99.9990 м	-0.2872
-3.2101 магнитных	-1.6332
-99.9990 майкл	-0.2872
-99.9990 малейшие	-0.2872
-99.9990 маленькие	-0.2872
-3.2431 маленький	-1.6123
-99.9990 маленькой	-0.2872
-3.0521 мало	-2.0771
-4.3458 малый	-0.2519
-2.9904 мальчик	-2.1174
-4.0448 мальчика	-0.8691
-99.9990 манер	-0.2872
-4.5219 манилов	-0.2736
-99.9990 маниловым	-0.2740
-99.9990 манишка	-0.2872
-99.9990 манишку	-0.2872
-2.7056 марс	-2.1164
-3.1601 марса	-1.6472
-3.1697 марсе	-1.6718
-99.9990 маршала	-0.2866
-99.9990 масляной	-0.2872
-4.5219 масляными	-0.0314
-3.1894 массивной	-1.6526
-99.9990 масти	-0.2728
-99.9990 материи	-0.2872
-3.1601 материк	-1.6809
-99.9990 матерую	-0.2872
-3.1417 матерью	-1.6987
-3.8229 мать	-0.4318
-99.9990 махину	-0.2872
-3.1417 махновщина	-1.6987
-3.2318 маша	-1.6125
-4.1239 машина	-0.8450
-4.5219 машине	-0.0271
-3.1601 машиной	-1.6770
-4.5219 машины	0.0026
-99.9990 мая	-0.2872
-99.9990 меди	-0.2740
-3.2101 медленно	-1.6315
-3.2318 медные	-1.6125
-3.0986 между	-1.1460
-3.1697 междузвёздном	-1.6715
-99.9990 международных	-0.2872
-99.9990 мелкую	-0.2872
-99.9990 мелькавших	-0.2532
-4.5219 мелькали	-0.0181
-3.1894 менее	-1.9295
-2.8361 меня	-0.8411
-4.5219 меняется	-0.2866
-3.1601 меняющиеся	-1.6809
-4.0448 мере	-0.8983
-4.5219 меру	-0.0313
-99.9990 мест	-0.2866
-4.2208 места	-0.7771
-99.9990 местами	-0.2830
-4.5219 месте	0.0026
-4.5219 место	-0.2865
-4.0448 месяц	-0.9021
-4.1239 месяцев	-0.8111
-3.2914 металлическая	-1.5521
-2.8935 метров	-2.1768
-3.1795 механизм	-1.6623
-3.2914 механизма	-1.5547
-99.9990 механизме	-0.2872
-99.9990 мешку	-0.2830
-99.9990 милостиво	-0.2872
-3.2666 мимо	-1.5795
-99.9990 миновали	-0.2872
-99.9990 минувших	-0.2872
-3.2208 минули	-1.6230
-3.2914 минуту	-1.8307
-4.3458 минуты	-0.2832
-99.9990 мир	-0.2872
-3.9198 мира	-1.1563
-3.1697 мириады	-1.9497
-3.1697 миров	-1.6381
-99.9990 мифы	-0.2872
-3.2101 младенцами	-1.5995
-2.9038 мне	-0.6122
-99.9990 многие	-0.2872
-3.7437 много	-0.2233
-3.2208 многоугольную	-1.6230
-3.2318 многоэтажных	-1.6125
-99.9990 множество	-0.2872
-4.5219 множеством	-0.0314
-99.9990 множится	-0.2871
-3.6188 мной	-0.9573
-3.3458 мог	-0.8630
-3.1795 могла	-1.2769
-2.8834 могли	-1.9483
-3.8229 могу	-0.5054
-99.9990 могут	-0.2872
-99.9990 могучая	-0.2855
-99.9990 моде	-0.2532
-99.9990 моду	-0.2843
-4.0448 мое	-0.5754
-4.5219 моего	-0.0314
-4.1239 можем	-0.8111
-2.9253 может	-1.7110
-3.2547 можете	-1.3099
-4.0448 можешь	-0.9025
-2.8186 можно	-1.5214
-99.9990 мозги	-0.2830
-3.6768 мои	-0.7424
-3.8229 моих	-1.1138
-2.9091 мой	-1.9286
-3.9778 мол	-0.6334
-99.9990 молод	-0.2532
-99.9990 молоденьких	-0.2872
-4.2208 молодой	-0.1063
-3.2666 молодую	-1.5795
-4.1239 молодые	-0.1628
-99.9990 молот	-0.2866
-4.3458 молчал	-0.0796
-99.9990 молчаливого	-0.2872
-99.9990 молчаливость	-0.2871
-99.9990 молчаливый	-0.2740
-3.2101 молчании	-1.6315
-99.9990 молчать	-0.2830
-4.2208 момент	-0.0304
-3.2208 монетную	-1.6225
-99.9990 монталенти	-0.2871
-4.5219 морском	-0.0314
-99.9990 морщинами	-0.2872
-99.9990 морщины	-0.2824
-3.2431 моря	-1.5681
-99.9990 москве	-0.2872
-99.9990 москву	-0.2866
-3.1601 москвы	-1.6668
-99.9990 московский	-0.2872
-99.9990 мохнатым	-0.2872
-99.9990 мошенник	-0.2532
-4.0448 моя	-0.0265
-3.2208 моё	-1.6230
-99.9990 мудрых	-0.2872
-4.5219 муж	-0.0181
-3.2788 мужеством	-1.5677
-99.9990 мужик	-0.2866
-4.5219 мужика	-0.0314
-3.1417 мужикам	-1.6987
-99.9990 мужчин	-0.2532
-4.5219 мужчина	-0.0313
-4.1239 мужчину	-0.8451
-99.9990 мужчины	-0.2868
-99.9990 музея	-0.2872
-99.9990 мутация	-0.2869
-99.9990 мух	-0.2532
-4.5219 мухи	-0.0233
-99.9990 муху	-0.2869
-3.1697 мучительно	-1.6465
-2.7023 мы	-1.0844
-99.9990 мылом	-0.2869
-4.1239 мыслей	-0.8451
-4.1239 мысль	-0.8111
-4.0448 мыслями	-0.8691
-4.5219 мыслях	-0.0303
-99.9990 мыслящую	-0.2872
-3.2101 мышь	-1.6332
-3.2101 мягкой	-1.6202
-1.7358 на	-1.2771
-3.1997 набережной	-1.6432
-3.2788 набережную	-1.5342
-99.9990 набивают	-0.2868
-3.3044 наблюдения	-1.5308
-99.9990 набок	-0.2871
-99.9990 набычена	-0.2872
-4.1239 наверно	-0.8444
-4.3458 наверное	-0.0947
-99.9990 наверняка	-0.2868
-4.1239 навсегда	-0.8111
-4.5219 навстречу	0.0026
-99.9990 нагнувши	-0.2830
-3.3315 нагнулся	-1.5053
-2.4285 над	-1.8698
-99.9990 надежд	-0.2872
-4.5219 надежды	-0.2775
-99.9990 надежно	-0.2740
-99.9990 надел	-0.2532
-4.5219 надеялся	0.0026
-3.2666 надо	-1.8506
-99.9990 надобностям	-0.2532
-3.1417 надоедать	-1.6650
-3.1417 надоело	-1.6898
-99.9990 надписи	-0.2532
-3.1894 назад	-1.4385
-4.5219 названия	-0.2857
-99.9990 назвать	-0.2872
-99.9990 назначают	-0.2872
-4.3458 называют	-0.2727
-99.9990 наибольшее	-0.2872
-99.9990 наилучшей	-0.2872
-99.9990 найти	-0.2872
-4.1239 наказание	-0.8111
-3.2208 накинул	-1.6230
-99.9990 наклонением	-0.2872
-4.2208 наконец	-0.2532
-99.9990 накрыв	-0.2869
-99.9990 накрытыми	-0.2872
-99.9990 накупившими	-0.2867
-3.8229 нам	-0.0221
-99.9990 намекнул	-0.2872
-4.5219 написал	-0.2774
-3.3044 направлению	-1.5417
-99.9990 направления	-0.2872
-4.5219 напротив	-0.2867
-99.9990 нарочно	-0.2872
-99.9990 наружного	-0.2872
-99.9990 наружности	-0.2532
-99.9990 наружный	-0.2872
-3.5007 нас	-1.0762
-99.9990 наследники	-0.2872
-99.9990 наследственности	-0.2728
-99.9990 наставлениями	-0.2856
-4.5219 настолько	-0.0285
-4.1239 настоящее	-0.8451
-4.2208 настроение	-0.7442
-99.9990 наступил	-0.2792
-4.0448 наступление	-0.8691
-4.5219 насчет	-0.2872
-99.9990 насыщенные	-0.2872
-99.9990 натуральности	-0.2863
-99.9990 натуре	-0.2830
-99.9990 натуры	-0.2872
-99.9990 наук	-0.2857
-99.9990 науки	-0.2872
-99.9990 наукой	-0.2532
-3.3044 находились	-1.5439
-99.9990 находится	-0.2868
-99.9990 находчивоострый	-0.2871
-99.9990 находятся	-0.2867
-99.9990 начав	-0.2872
-3.1795 начал	-1.9454
-4.1239 начала	-0.8319
-99.9990 начале	-0.2872
-99.9990 начались	-0.2872
-99.9990 начало	-0.2872
-4.5219 начался	-0.0312
-4.5219 начальника	-0.2856
-99.9990 начинать	-0.2532
-99.9990 начинают	-0.2872
-4.0448 начиная	-0.9030
-99.9990 начисто	-0.2872
-4.0448 наш	-0.8312
-4.5219 наша	-0.0314
-4.3458 нашел	-0.0977
-99.9990 нашими	-0.2872
-99.9990 наших	-0.2872
-99.9990 нашли	-0.2532
-99.9990 нашлось	-0.2872
-99.9990 нашумевшие	-0.2872
-3.2208 нашёл	-1.6230
-1.9602 не	-0.9224
-3.2788 небольшая	-1.8433
-99.9990 небольшим	-0.2872
-99.9990 небольшого	-0.2872
-3.2101 небольшой	-1.9102
-99.9990 небрежно	-0.2872
-4.5219 неважно	-0.0308
-3.3044 неве	-1.5439
-99.9990 невероятнее	-0.2871
-99.9990 невзначай	-0.2872
-99.9990 невинное	-0.2872
-99.9990 невозможно	-0.2532
-99.9990 невозможные	-0.2532
-4.3458 невольно	-0.2872
-3.1997 него	-0.8160
-4.1239 негодяйка	-0.8111
-99.9990 недавно	-0.2872
-99.9990 недаром	-0.2857
-99.9990 неделей	-0.2872
-3.2431 недолго	-1.6018
-3.6768 нее	-0.2210
-99.9990 нежели	-0.2872
-99.9990 неживого	-0.2532
-3.2318 нежилыми	-1.6117
-4.3458 незначащий	-0.1011
-4.5219 неизвестно	-0.2711
-4.1239 неизменно	-0.8451
-99.9990 неизменным	-0.2532
-3.0825 ней	-1.1961
-99.9990 некогда	-0.2872
-4.2208 некоторые	-0.1368
-3.7090 нельзя	-0.6826
-3.7090 нем	-0.5789
-4.2208 немало	-0.7442
-4.3458 немного	-0.2872
-99.9990 немногословен	-0.2830
-99.9990 немолодая	-0.2872
-3.1795 нему	-1.1666
-3.9778 немцев	-1.1549
-99.9990 ненадежно	-0.2872
-99.9990 ненаучного	-0.2872
-99.9990 необходимо	-0.2869
-3.2318 необыкновенного	-1.6125
-99.9990 необыкновенную	-0.2872
-3.1894 необычайно	-1.6526
-99.9990 неожиданный	-0.2872
-99.9990 непосвященные	-0.2872
-99.9990 непосредственно	-0.2859
-3.1601 непостигаемые	-1.6807
-99.9990 непостижимая	-0.2872
-4.5219 непременно	-0.0313
-99.9990 непременный	-0.2872
-99.9990 неприрученность	-0.2872
-99.9990 неприятелей	-0.2872
-4.5219 нервы	-0.0313
-3.1697 нерождённых	-1.6715
-99.9990 нескладный	-0.2872
-99.9990 нескольких	-0.2872
-2.6411 несколько	-1.4409
-4.5219 несомненно	-0.2532
-3.1697 нет	-1.0230
-4.0448 нетрудно	-0.8691
-99.9990 неудачи	-0.2532
-3.6188 неужели	-1.5628
-99.9990 неуклюжим	-0.2792
-4.5219 нечего	-0.0309
-4.3458 нечто	-0.1011
-3.3178 неширокие	-1.5310
-4.5219 нею	-0.2531
-3.2547 неё	-1.5895
-2.5976 ни	-0.8450
-3.5007 нибудь	-1.3518
-4.5219 нигде	-0.0303
-99.9990 нижнею	-0.2872
-99.9990 нижний	-0.2824
-99.9990 нижнюю	-0.2872
-99.9990 низенький	-0.2869
-99.9990 низенького	-0.2872
-99.9990 низко	-0.2872
-3.1997 низкое	-1.6432
-4.5219 никак	-0.0266
-4.1239 никаких	-0.8433
-99.9990 никакого	-0.2872
-3.0448 никогда	-1.4962
-4.0448 никого	-1.1320
-4.5219 никому	-0.0266
-3.9198 никто	-1.1854
-4.2208 нильса	-0.6989
-3.5219 ним	-0.8822
-4.3458 ними	-0.2532
-4.5219 нимфа	-0.0271
-99.9990 ниспосланный	-0.2864
-2.7365 них	-1.3910
-3.2914 ничего	-0.8980
-99.9990 ничем	-0.2872
-3.9778 ничто	-0.6189
-99.9990 ничтожнейших	-0.2872
-2.6439 но	-0.7929
-99.9990 нобелевской	-0.2872
-99.9990 новом	-0.2872
-4.2208 новые	-0.2739
-99.9990 новыми	-0.2872
-4.5219 новых	-0.2872
-3.2101 ног	-1.6332
-2.9253 ноги	-1.8655
-3.3315 ногой	-1.5156
-99.9990 ногою	-0.2872
-4.5219 ногу	-0.2532
-99.9990 ножки	-0.2866
-4.0448 номер	-0.8451
-3.1894 нос	-1.6273
-4.0448 носил	-1.1322
-99.9990 носили	-0.2861
-4.5219 носились	-0.0314
-4.5219 носом	0.0026
-99.9990 носу	-0.2871
-3.1508 носятся	-1.4113
-3.2547 ночевал	-1.5571
-3.6768 ночь	-0.8976
-99.9990 нравилась	-0.2872
-99.9990 нравится	-0.2532
-2.9904 ну	-1.2998
-4.5219 нужна	0.0026
-3.6188 нужно	-0.4968
-99.9990 нужное	-0.2872
-99.9990 нумер	-0.2862
-99.9990 нынешнее	-0.2869
-3.9198 нынче	-0.6349
-3.2914 нём	-1.5548
-2.8591 о	-1.0094
-3.0595 об	-2.0572
-4.5219 оба	-0.0314
-99.9990 обделывать	-0.2869
-99.9990 обдуманно	-0.2740
-99.9990 обе	-0.2872
-4.5219 обед	-0.2866
-99.9990 обеда	-0.2871
-3.2431 обеспечить	-1.6018
-99.9990 обещавшие	-0.2872
-4.5219 обещаний	-0.2532
-99.9990 облак	-0.2866
-2.9091 облака	-1.9275
-99.9990 областях	-0.2855
-99.9990 обломки	-0.2867
-99.9990 обмотками	-0.2872
-3.2431 обмотках	-1.5681
-99.9990 обнял	-0.2872
-99.9990 обняла	-0.2855
-99.9990 обо	-0.2871
-3.1508 обоз	-1.6899
-99.9990 оборотился	-0.2869
-99.9990 обороты	-0.2532
-3.9198 образом	-0.7593
-99.9990 обстоятельно	-0.2740
-3.3178 обсыпавшиеся	-1.5313
-99.9990 обсыпают	-0.2872
-99.9990 обутою	-0.2728
-99.9990 обходительными	-0.2740
-99.9990 общего	-0.2854
-4.5219 общества	-0.2532
-4.3458 обществе	-0.0669
-99.9990 общество	-0.2740
-99.9990 общие	-0.2872
-99.9990 общими	-0.2872
-3.2914 общих	-1.5561
-99.9990 общую	-0.2870
-99.9990 объединяло	-0.2872
-3.2914 объявление	-1.5557
-2.9537 объявлением	-1.8860
-3.9778 объяснить	-1.1887
-99.9990 объяснять	-0.2844
-99.9990 обыкновению	-0.2872
-99.9990 обычаю	-0.2792
-99.9990 обычная	-0.2872
-99.9990 обычные	-0.2728
-99.9990 овалы	-0.2872
-3.3178 огибали	-1.5313
-3.3044 оглянул	-1.5439
-3.2547 огненные	-1.5908
-3.2318 огня	-1.6125
-3.1508 оголённую	-1.6899
-3.2318 огромном	-1.6108
-4.5219 огромными	-0.0314
-99.9990 огурец	-0.2872
-99.9990 одевшись	-0.2740
-3.2431 одежде	-1.6018
-99.9990 оделись	-0.2866
-99.9990 одеты	-0.2740
-4.5219 одеяло	0.0026
-2.9253 один	-1.5463
-3.2208 одиночество	-1.6230
-3.1327 одна	-1.0784
-4.1239 однако	-0.4291
-3.1508 одни	-1.6542
-99.9990 одним	-0.2843
-3.9778 одно	-0.5265
-3.7815 одного	-1.0655
-99.9990 одногодки	-0.2532
-3.1601 одной	-0.9468
-99.9990 одном	-0.2830
-4.0448 одну	-0.5622
-4.5219 одобрительно	-0.2858
-99.9990 одушевленное	-0.2532
-99.9990 оживленных	-0.2856
-3.2788 ожидал	-1.5679
-4.5219 ожидании	0.0026
-3.2318 ожидающей	-1.6125
-3.2101 ожила	-1.6330
-99.9990 озаренным	-0.2872
-99.9990 оказал	-0.2872
-4.5219 оказалась	-0.2867
-4.0448 оказалось	-1.1323
-3.1327 оказался	-1.7157
-3.9778 океан	-1.1517
-3.1601 океане	-1.6472
-3.2547 океаны	-1.5571
-2.8784 окна	-1.9312
-4.5219 окне	-0.2872
-99.9990 окном	-0.2532
-4.3458 около	-0.2872
-3.2914 окон	-1.5223
-99.9990 окончании	-0.2872
-3.2547 окоченелый	-1.5908
-3.1894 окружала	-1.6529
-3.2431 окунул	-1.5876
-99.9990 олку	-0.2868
-99.9990 олосы	-0.2870
-2.0107 он	-0.8889
-2.6270 она	-0.8318
-2.4650 они	-1.3159
-99.9990 оправдались	-0.2854
-3.1997 определил	-1.6406
-3.2666 опрятном	-1.5795
-3.2101 опускался	-1.6332
-99.9990 опустив	-0.2872
-4.1239 опыт	-0.8111
-4.1239 опять	-0.2867
-3.2101 оранжевые	-1.6292
-99.9990 организмов	-0.2532
-99.9990 оробел	-0.2740
-99.9990 ороны	-0.2869
-4.1239 оружие	-0.8370
-99.9990 оря	-0.2532
-99.9990 ос	-0.2859
-99.9990 осведомились	-0.2532
-4.5219 осведомился	-0.2850
-99.9990 освещен	-0.2872
-99.9990 освещением	-0.2843
-3.3178 освещён	-1.5299
-3.2318 освещённая	-1.6125
-3.2101 освещённые	-1.6329
-3.1697 оседают	-1.6640
-3.1894 осенний	-1.6529
-3.1697 осколки	-1.6718
-3.2788 ослепительный	-1.5680
-99.9990 осматривал	-0.2871
-99.9990 осмотреться	-0.2856
-99.9990 основательность	-0.2872
-99.9990 особ	-0.2872
-3.9198 особенно	-0.5758
-4.5219 особенным	-0.2532
-4.5219 особливо	-0.2728
-99.9990 оспы	-0.2740
-99.9990 оставалась	-0.2872
-3.8229 оставалось	-1.3657
-4.3458 оставался	-0.2721
-4.5219 оставить	-0.0298
-99.9990 оставляет	-0.2872
-99.9990 остается	-0.2861
-4.3458 осталось	-0.0669
-4.0448 останется	-0.9031
-4.1239 остановились	-0.8111
-3.2208 остановился	-1.3429
-4.0448 осторожно	-1.1323
-99.9990 остряка	-0.2740
-3.1795 остывающих	-1.6625
-99.9990 остывших	-0.2869
-2.3681 от	-1.6361
-3.2318 отверстие	-1.6125
-2.9716 отверстия	-1.8688
-99.9990 отвести	-0.2870
-4.2208 ответил	0.0027
-4.5219 ответить	-0.0304
-4.5219 отвечает	-0.0303
-4.1239 отвечал	-0.1624
-99.9990 отвечающую	-0.2872
-4.5219 отдать	-0.2740
-99.9990 отдела	-0.2532
-99.9990 отдохнувши	-0.2830
-3.0595 отец	-1.7880
-4.5219 отказаться	0.0026
-3.1795 отклонил	-1.6625
-3.1327 открыл	-1.9941
-99.9990 открытия	-0.2872
-99.9990 открытым	-0.2532
-3.9198 откуда	-0.8750
-99.9990 откупщика	-0.2854
-99.9990 отличает	-0.2872
-99.9990 отличить	-0.2867
-4.5219 относившиеся	-0.0313
-4.1239 относится	-0.8427
-99.9990 относящие	-0.2872
-99.9990 отношение	-0.2532
-3.1508 отобьём	-1.6770
-99.9990 отозвавши	-0.2871
-3.2318 оторвался	-1.6109
-4.1239 отправился	-0.2618
-99.9990 отрицательно	-0.2872
-99.9990 отставные	-0.2872
-3.2914 отсюда	-1.5548
-4.3458 оттого	-0.1005
-99.9990 оттопырив	-0.2872
-4.1239 отца	-0.8370
-99.9990 отцовское	-0.2872
-4.1239 отцом	-0.8111
-99.9990 отчаянных	-0.2872
-4.0448 отчего	-0.9012
-99.9990 отчество	-0.2532
-3.2788 отыскал	-1.5680
-4.1239 офицеры	-0.8451
-99.9990 охотою	-0.2872
-99.9990 очаровать	-0.2867
-2.8834 очень	-0.9925
-99.9990 очередь	-0.2848
-99.9990 очутился	-0.2866
-99.9990 ошибкою	-0.2871
-4.0448 ощутил	-0.9031
-99.9990 п	-0.2872
-4.5219 павел	-0.0311
-3.1894 падаем	-1.6192
-4.2208 палаты	-0.2847
-4.5219 пальмы	0.0026
-3.2208 пальто	-1.6100
-4.1239 пальцев	-0.8111
-99.9990 памяти	-0.2830
-99.9990 памятные	-0.2865
-99.9990 память	-0.2868
-99.9990 панталонах	-0.2872
-4.0448 папа	-0.8691
-4.5219 парад	-0.2856
-99.9990 парень	-0.2532
-99.9990 пару	-0.2872
-99.9990 пары	-0.2872
-3.1997 паслись	-1.6427
-99.9990 патриарха	-0.2830
-3.2666 паук	-1.5795
-99.9990 паша	-0.2872
-99.9990 первого	-0.2872
-3.9778 первый	-0.9025
-99.9990 первым	-0.2855
-99.9990 первых	-0.2872
-99.9990 перебирается	-0.2740
-99.9990 переводе	-0.2792
-2.9308 перед	-1.5823
-4.5219 передавали	-0.2792
-99.9990 передней	-0.2867
-4.5219 передние	-0.2872
-4.5219 передо	-0.0313
-99.9990 перекрестили	-0.2857
-3.2318 переливался	-1.6125
-2.8591 перелёт	-1.9602
-3.1997 перелёта	-1.6432
-99.9990 перемен	-0.2740
-99.9990 перемолвился	-0.2855
-3.3178 перепрыгивали	-1.5299
-3.1997 переулков	-1.6432
-99.9990 переходили	-0.2830
-99.9990 пером	-0.2532
-3.3044 песку	-1.5436
-3.2788 петербурга	-1.5550
-99.9990 петербурге	-0.2532
-3.2208 петербургом	-1.6100
-99.9990 петербургский	-0.2872
-99.9990 петербургских	-0.2532
-4.5219 петрушка	-0.2869
-4.5219 петя	-0.0310
-99.9990 пиво	-0.2740
-99.9990 пикендрас	-0.2532
-99.9990 пикенция	-0.2866
-99.9990 пили	-0.2872
-99.9990 пирожком	-0.2872
-99.9990 пирожок	-0.2871
-4.5219 писанные	-0.0314
-4.2208 писать	-0.7781
-99.9990 пистолетом	-0.2532
-4.5219 письмо	0.0026
-4.0448 пить	-0.8691
-99.9990 пичу	-0.2532
-99.9990 пичук	-0.2532
-99.9990 пичура	-0.2740
-4.0448 плакать	-0.8691
-3.2788 план	-1.5680
-3.1697 планет	-1.6718
-4.1239 планы	-0.8111
-3.2666 платье	-1.5788
-99.9990 платьев	-0.2856
-3.9778 плачет	-0.5994
-4.5219 плеча	-0.2532
-4.1239 плечо	-0.8111
-99.9990 плоским	-0.2856
-4.5219 плохо	-0.2872
-99.9990 площадь	-0.2532
-99.9990 плутовские	-0.2872
-2.4063 по	-1.0888
-3.2666 побежал	-1.5768
-99.9990 побери	-0.2532
-3.2914 поблескивала	-1.5561
-99.9990 побывал	-0.2532
-99.9990 повальных	-0.2872
-99.9990 поведения	-0.2872
-99.9990 повел	-0.2872
-99.9990 повернуться	-0.2740
-3.2914 поверхность	-1.5561
-99.9990 повесил	-0.2869
-99.9990 поводу	-0.2532
-3.1601 погиб	-1.6809
-3.1697 погибших	-1.6718
-3.3044 поглощения	-1.5439
-3.1997 поглядывали	-1.6354
-99.9990 поговаривали	-0.2868
-99.9990 поговорить	-0.2830
-4.1239 погода	-0.8436
-99.9990 погодных	-0.2872
-2.7090 под	-1.5320
-99.9990 подавались	-0.2870
-4.3458 подавалось	-0.6857
-3.1697 подавая	-1.6713
-4.3458 подать	-0.2868
-3.2431 подвёртки	-1.5681
-99.9990 поделаешь	-0.2872
-99.9990 подержанном	-0.2872
-99.9990 подлец	-0.2867
-99.9990 подложивши	-0.2869
-99.9990 подмигивавшим	-0.2872
-3.2666 поднимая	-1.5795
-99.9990 подносил	-0.2872
-4.5219 подносом	0.0026
-3.2208 поднявшийся	-1.6220
-3.2318 поднявшихся	-1.5978
-99.9990 поднял	-0.2869
-2.9421 подняла	-1.8931
-4.5219 поднялся	-0.0314
-99.9990 поднятые	-0.2872
-99.9990 подобием	-0.2872
-99.9990 подобная	-0.2872
-99.9990 подобно	-0.2872
-99.9990 подобного	-0.2740
-99.9990 подобное	-0.2532
-99.9990 подобные	-0.2872
-3.9778 подошел	-0.8869
-99.9990 подперши	-0.2867
-99.9990 подполковники	-0.2872
-99.9990 подпускают	-0.2848
-99.9990 подробности	-0.2532
-99.9990 подробностях	-0.2872
-99.9990 подседали	-0.2848
-99.9990 подслеповатостию	-0.2872
-99.9990 подстрижены	-0.2866
-99.9990 подтвердились	-0.2532
-4.5219 подумать	-0.2501
-3.3044 подушки	-1.5434
-99.9990 подушку	-0.2872
-4.3458 подходили	-0.2844
-4.1239 подходит	-0.8111
-3.2431 подштаники	-1.6018
-99.9990 подъездом	-0.2871
-99.9990 подъехала	-0.2848
-99.9990 подымающих	-0.2872
-4.1239 пожал	-0.8450
-99.9990 пожаловать	-0.2848
-4.2208 пожалуй	-0.7734
-99.9990 пожатием	-0.2872
-99.9990 пожилой	-0.2872
-99.9990 пожилым	-0.2872
-99.9990 пожимали	-0.2869
-99.9990 пожитки	-0.2872
-4.1239 позади	-0.8450
-99.9990 позволить	-0.2869
-99.9990 позволял	-0.2869
-99.9990 поздно	-0.2866
-99.9990 познакомился	-0.2830
-99.9990 поиному	-0.2868
-99.9990 поистасканный	-0.2532
-99.9990 пойдем	-0.2872
-3.9778 пойдет	-1.1899
-3.3044 пойму	-1.5429
-3.7815 пойти	-1.3647
-99.9990 пока	-0.2872
-3.1795 показал	-1.6625
-99.9990 показали	-0.2728
-4.5219 показалось	-0.0285
-4.0448 показать	-0.5751
-99.9990 показывавший	-0.2844
-99.9990 показывала	-0.2867
-99.9990 показывать	-0.2532
-3.1894 покалывало	-1.6529
-4.2208 покамест	-0.8884
-3.3178 покатился	-1.7715
-4.0448 покачал	-0.9028
-99.9990 поклоном	-0.2857
-4.5219 покой	-0.2515
-99.9990 покойную	-0.2872
-99.9990 поколение	-0.2859
-99.9990 поколением	-0.2872
-99.9990 покрыл	-0.2872
-99.9990 покрыть	-0.2870
-99.9990 покушавшихся	-0.2868
-99.9990 покушать	-0.2728
-99.9990 покушеньями	-0.2792
-3.2208 полгода	-1.6230
-99.9990 ползает	-0.2871
-99.9990 полицеймейстера	-0.2854
-99.9990 полицеймейстеру	-0.2868
-99.9990 полицию	-0.2532
-4.1239 полиция	-0.8451
-99.9990 полицмейстер	-0.2856
-4.2208 полно	-0.7776
-99.9990 полное	-0.2872
-99.9990 полной	-0.2872
-4.5219 полные	-0.2740
-4.1239 половина	-0.8111
-3.2318 половинки	-1.6125
-3.1997 половиной	-1.6429
-4.1239 половины	-0.8450
-4.5219 полового	0.0026
-4.1239 половой	-0.1637
-99.9990 половым	-0.2856
-4.5219 положение	-0.2848
-99.9990 положении	-0.2872
-99.9990 положенные	-0.2871
-4.1239 положив	-0.8447
-4.5219 положил	-0.0169
-4.1239 положила	-0.8451
-3.2431 полосы	-1.6018
-99.9990 полотенце	-0.2872
-3.1601 полукружий	-1.6809
-99.9990 получают	-0.2872
-99.9990 получился	-0.2532
-4.5219 получить	-0.2527
-3.3044 полые	-1.5439
-99.9990 пользу	-0.2871
-99.9990 пользуясь	-0.2872
-99.9990 польстить	-0.2872
-3.1795 полюсы	-1.6288
-3.2101 полях	-1.6332
-4.5219 помахивая	-0.0314
-3.1417 померли	-1.6986
-99.9990 помещался	-0.2872
-99.9990 помещение	-0.2871
-4.5219 помещик	-0.2855
-99.9990 помещиках	-0.2532
-4.5219 помещики	-0.2872
-4.5219 помещиком	-0.2532
-4.3458 помнил	-0.1004
-99.9990 помнила	-0.2872
-99.9990 помнился	-0.2872
-99.9990 помнишь	-0.2863
-4.1239 помню	-0.8422
-99.9990 помог	-0.2871
-99.9990 помоему	-0.2872
-4.5219 поможет	-0.0305
-3.9198 помочь	-0.6502
-3.2101 понемногу	-1.6332
-3.9778 понимает	-1.1554
-99.9990 понимаешь	-0.2844
-4.5219 понимал	-0.0285
-4.2208 понимаю	-0.7781
-99.9990 понравилось	-0.2872
-3.9778 понял	-0.5977
-99.9990 поняла	-0.2844
-3.9198 понять	-0.9216
-99.9990 попадья	-0.2870
-99.9990 попал	-0.2532
-3.1327 попали	-1.7077
-4.0448 попасть	-0.8887
-3.1997 поперечнике	-1.6095
-99.9990 попросить	-0.2870
-3.1601 пор	-0.8460
-3.2914 пороге	-1.5558
-99.9990 породистую	-0.2872
-99.9990 портрет	-0.2872
-99.9990 портрете	-0.2872
-99.9990 портреты	-0.2872
-99.9990 пору	-0.2872
-99.9990 поручениям	-0.2866
-99.9990 посвящен	-0.2856
-4.3458 посетителей	-0.0664
-99.9990 послал	-0.2532
-3.1153 после	-0.9519
-4.5219 последнее	-0.0314
-99.9990 последние	-0.2872
-4.5219 последний	-0.0308
-99.9990 последних	-0.2867
-3.7815 последняя	-1.1460
-99.9990 послеобеденного	-0.2872
-99.9990 послуживши	-0.2872
-4.0448 послушай	-0.9026
-99.9990 посматривали	-0.2865
-99.9990 посмотрел	-0.2872
-4.0448 посмотреть	-0.8183
-99.9990 постигали	-0.2857
-3.1601 постоянно	-1.6809
-3.2101 построен	-1.6305
-99.9990 поступки	-0.2872
-4.1239 поступок	-0.8111
-99.9990 потемневшие	-0.2872
-99.9990 потемневших	-0.2854
-4.5219 потереть	-0.2869
-99.9990 поток	-0.2532
-99.9990 потолок	-0.2872
-3.0100 потом	-1.0417
-3.5442 потому	-1.0057
-3.1795 потушено	-1.6495
-99.9990 пофранцузски	-0.2740
-99.9990 пофыркивал	-0.2872
-99.9990 похвалы	-0.2872
-99.9990 походили	-0.2792
-4.5219 похож	-0.0233
-99.9990 похоже	-0.2855
-3.2101 похожие	-1.6254
-99.9990 похожим	-0.2792
-99.9990 похожих	-0.2792
-4.2208 поцеловал	-0.7778
-3.1894 почве	-1.6192
-99.9990 почел	-0.2859
-3.5676 почему	-0.6164
-99.9990 почесать	-0.2872
-99.9990 почетные	-0.2872
-4.3458 почтение	-0.2532
-99.9990 почтением	-0.2854
-99.9990 почтенных	-0.2869
-99.9990 почтет	-0.2859
-3.7090 почти	-0.9502
-99.9990 почтительнее	-0.2740
-4.5219 почтмейстера	-0.2532
-4.5219 почувствовал	0.0026
-4.1239 почувствовать	-0.8111
-3.2431 пошатнётся	-1.6016
-4.0448 пошел	-0.1724
-3.2431 пошла	-1.2133
-99.9990 пошли	-0.2862
-99.9990 пошутить	-0.2856
-3.3044 пошёл	-1.5424
-3.1601 поэтому	-1.6699
-99.9990 появилось	-0.2872
-3.2431 пояса	-1.5876
-4.5219 права	0.0026
-3.8687 правда	-1.2910
-99.9990 правду	-0.2872
-99.9990 правило	-0.2824
-99.9990 правильно	-0.2532
-3.1601 правильные	-1.6809
-99.9990 правительства	-0.2871
-4.5219 право	0.0026
-3.3315 праха	-1.5183
-3.3178 праху	-1.5313
-99.9990 превосходительство	-0.2532
-99.9990 предаются	-0.2872
-99.9990 предках	-0.2740
-3.2431 предложил	-1.6018
-4.0448 предполагал	-0.9002
-99.9990 предположить	-0.2532
-99.9990 председателем	-0.2872
-4.5219 председатель	-0.2872
-4.3458 председателя	-0.0879
-4.5219 представил	-0.0296
-99.9990 представитель	-0.2872
-4.3458 представить	-0.0965
-99.9990 представлен	-0.2848
-99.9990 представлял	-0.2869
-4.5219 предстоит	-0.0313
-99.9990 предстояло	-0.2870
-3.1997 предупредил	-1.6429
-4.2208 прежде	-0.1404
-99.9990 прежним	-0.2863
-99.9990 президент	-0.2872
-4.1239 прекрасно	-0.8450
-99.9990 прекрасной	-0.2740
-99.9990 прекрасный	-0.2869
-99.9990 прекратились	-0.2856
-99.9990 премии	-0.2872
-99.9990 преминуло	-0.2872
-99.9990 претерпел	-0.2792
-4.5219 при	-0.2872
-99.9990 приблизился	-0.2872
-3.1795 приборы	-1.6618
-99.9990 прибывши	-0.2728
-99.9990 привезенных	-0.2848
-99.9990 приветствовали	-0.2855
-99.9990 приветы	-0.2532
-99.9990 привилегию	-0.2872
-3.3178 привычной	-1.5313
-3.3605 привязана	-1.7642
-99.9990 приглашение	-0.2872
-99.9990 приговаривал	-0.2866
-99.9990 приговаривая	-0.2870
-3.1697 пригожусь	-1.6717
-99.9990 приготовление	-0.2848
-99.9990 приготовляет	-0.2872
-3.2431 приготовь	-1.6018
-99.9990 придержал	-0.2872
-4.2208 придется	-0.0308
-99.9990 придумывая	-0.2872
-99.9990 приездом	-0.2728
-99.9990 приезжает	-0.2728
-99.9990 приезжего	-0.2872
-99.9990 приезжем	-0.2872
-3.9778 приезжий	-0.2854
-4.5219 прием	-0.2850
-99.9990 приемах	-0.2872
-3.9778 приехал	-0.8887
-99.9990 приехала	-0.2843
-4.5219 признался	-0.0310
-99.9990 признаться	-0.2532
-4.5219 приказал	-0.2872
-3.2914 приколоченное	-1.5561
-99.9990 прикосновение	-0.2848
-4.5219 приладил	-0.2506
-99.9990 прилегши	-0.2872
-99.9990 прилететь	-0.2830
-99.9990 прилизаны	-0.2532
-99.9990 приличный	-0.2865
-99.9990 приличными	-0.2872
-4.5219 пример	-0.0298
-99.9990 принесенному	-0.2872
-4.0448 принести	-0.9015
-4.5219 принимал	-0.2861
-4.0448 принимать	-1.0981
-4.1239 принц	-0.8111
-3.2914 принцип	-1.5561
-99.9990 принял	-0.2830
-99.9990 принялся	-0.2872
-99.9990 приобрело	-0.2872
-3.2914 приотворена	-1.5482
-99.9990 приписывались	-0.2872
-99.9990 природу	-0.2856
-99.9990 природы	-0.2871
-99.9990 присоединился	-0.2848
-99.9990 присутствие	-0.2872
-99.9990 присутствует	-0.2872
-99.9990 присуща	-0.2855
-99.9990 притащить	-0.2871
-99.9990 притиснули	-0.2871
-3.1894 притягиваемся	-1.6529
-99.9990 приходили	-0.2872
-4.5219 причину	0.0026
-99.9990 пришел	-0.2872
-4.5219 пришлось	-0.0313
-3.3044 прищурясь	-1.5439
-99.9990 приятно	-0.2872
-99.9990 приятности	-0.2532
-4.3458 про	-0.1010
-4.0448 проблема	-0.8887
-4.5219 проверить	-0.0313
-3.3044 провизии	-1.5101
-4.5219 проворно	-0.2830
-3.9778 продать	-0.9202
-99.9990 продержав	-0.2855
-4.5219 продолжал	-0.0314
-3.2431 продуктами	-1.5681
-99.9990 проезжающего	-0.2532
-99.9990 проезжающие	-0.2872
-99.9990 проезжающий	-0.2871
-4.5219 проезжающих	-0.2376
-4.0448 прозвучал	-0.9028
-99.9990 произвел	-0.2728
-99.9990 произнес	-0.2865
-4.5219 произнесла	-0.0296
-99.9990 произносил	-0.2872
-4.5219 произошло	-0.0169
-99.9990 происходили	-0.2728
-99.9990 происходило	-0.2872
-99.9990 происходящего	-0.2532
-4.0448 пройдет	-0.5271
-99.9990 пройтись	-0.2872
-99.9990 проку	-0.2872
-99.9990 прокурор	-0.2872
-4.5219 прокурора	-0.2487
-3.3315 проломанный	-1.5183
-2.9144 проникал	-1.9083
-99.9990 пропадали	-0.2792
-4.1239 пропасть	-0.8111
-99.9990 пропустил	-0.2861
-99.9990 пропустить	-0.2870
-3.2101 прорезывал	-1.6329
-4.5219 просвещенной	-0.2872
-99.9990 просил	-0.2872
-99.9990 простейшего	-0.2872
-4.1239 простите	-0.8429
-3.2788 просто	-0.4982
-99.9990 простое	-0.2872
-99.9990 просторном	-0.2872
-2.8639 пространстве	-1.9723
-99.9990 проступает	-0.2872
-99.9990 просьбе	-0.2872
-3.8687 против	-0.7297
-99.9990 противников	-0.2830
-3.1894 противоположные	-1.9304
-99.9990 протискивался	-0.2848
-99.9990 протянувши	-0.2872
-3.9778 профессор	-0.8892
-99.9990 профиль	-0.2872
-3.2666 проходя	-1.5795
-3.2914 прохожих	-1.5431
-99.9990 прочая	-0.2869
-4.5219 прочесть	0.0026
-4.5219 прочие	-0.2872
-99.9990 прочитал	-0.2855
-4.3458 прочих	-0.0671
-99.9990 прошептал	-0.2864
-99.9990 прошло	-0.2830
-99.9990 прошлого	-0.2872
-4.5219 прошу	-0.2872
-99.9990 проще	-0.2532
-99.9990 прощения	-0.2872
-3.3178 прудики	-1.4975
-4.5219 прыгали	-0.0181
-3.2788 прядь	-1.5561
-4.3458 прямо	-0.1007
-3.2788 прямой	-1.5680
-99.9990 прямые	-0.2740
-3.9778 птиц	-0.5907
-99.9990 публику	-0.2532
-3.1997 пуля	-1.6424
-99.9990 пулярка	-0.2872
-3.1997 пустившее	-1.6319
-4.5219 пустил	-0.0296
-99.9990 пусто	-0.2872
-3.2788 пустые	-1.5420
-3.2914 пустынные	-1.5561
-3.2914 пустыню	-1.5223
-3.2208 пустырь	-1.6152
-4.5219 пусть	-0.0314
-3.1601 путешествие	-1.6732
-4.1239 пути	-0.8433
-3.3315 пхнул	-1.5183
-3.2666 пыльцу	-1.5665
-99.9990 пытались	-0.2872
-99.9990 пятились	-0.2854
-99.9990 пятнадцать	-0.2872
-3.9198 пять	-0.7623
-3.1601 работаю	-1.6807
-99.9990 работой	-0.2532
-3.0034 рабочий	-1.8254
-99.9990 рабочих	-0.2740
-3.2914 равнина	-1.5559
-3.2101 равниной	-1.6202
-3.1508 равнину	-1.6562
-3.1327 рад	-1.7127
-3.9778 ради	-0.6326
-99.9990 радости	-0.2872
-4.5219 радужных	-0.0314
-2.8834 раз	-0.9335
-4.1239 раза	-0.7294
-3.1795 разбил	-1.6625
-99.9990 разбирал	-0.2855
-3.2318 разбитые	-1.6122
-99.9990 разбросанных	-0.2855
-3.1601 разбросано	-1.6788
-3.9778 разве	-0.6284
-4.5219 развелся	0.0026
-3.2788 развернул	-1.5680
-99.9990 развивается	-0.2872
-99.9990 разглядывая	-0.2728
-99.9990 разговаривали	-0.2869
-4.5219 разговор	-0.2722
-4.5219 разговорах	-0.0271
-3.2101 разговоры	-1.5950
-3.7815 раздался	-1.1461
-99.9990 различимые	-0.2532
-3.2431 разломил	-1.6018
-99.9990 разлученных	-0.2869
-99.9990 размера	-0.2872
-3.2914 размешивал	-1.5419
-99.9990 размотавши	-0.2872
-99.9990 размотал	-0.2830
-99.9990 размышления	-0.2872
-4.5219 разницы	-0.0285
-99.9990 разновозрастную	-0.2872
-99.9990 разноликую	-0.2872
-99.9990 разноязычную	-0.2872
-99.9990 разноязычный	-0.2872
-3.2208 разные	-1.8997
-99.9990 разным	-0.2872
-4.5219 разных	-0.2872
-4.3458 разогретое	-0.0528
-3.2431 разум	-1.6018
-4.5219 разумеется	-0.2869
-99.9990 разыскивали	-0.2872
-99.9990 рай	-0.2872
-3.2914 ракета	-1.5223
-99.9990 рано	-0.2532
-3.7090 раньше	-0.8977
-99.9990 раскаленность	-0.2863
-99.9990 раскланивался	-0.2862
-99.9990 раскованнее	-0.2532
-3.2318 раскрытые	-1.6125
-99.9990 распростро	-0.2872
-3.2208 распростёртое	-1.6088
-99.9990 рассеянно	-0.2872
-4.2208 расскажу	-0.7772
-3.1997 рассказал	-1.6426
-4.5219 рассказать	-0.0313
-99.9990 рассказывать	-0.2872
-99.9990 рассматривал	-0.2872
-4.0448 рассмеялся	-0.8898
-99.9990 рассмотреть	-0.2871
-4.2208 расспросил	-0.2824
-99.9990 расставлял	-0.2867
-99.9990 расставляющим	-0.2872
-99.9990 расстались	-0.2532
-3.3178 расстегнул	-1.5313
-99.9990 рассудительного	-0.2740
-3.1894 рассыпающей	-1.6529
-99.9990 растет	-0.2792
-4.1239 расходы	-0.8429
-99.9990 расцеловала	-0.2532
-4.2208 ребенка	-0.7442
-3.8687 ребенок	-1.0074
-3.3178 револьвер	-1.5313
-3.2101 ревя	-1.6202
-99.9990 редактор	-0.2872
-99.9990 редко	-0.2872
-3.1508 резкие	-1.6899
-99.9990 ренный	-0.2872
-3.1894 реостатам	-1.6529
-99.9990 рессорная	-0.2870
-99.9990 речист	-0.2862
-3.7815 решил	-0.7688
-99.9990 решительно	-0.2740
-3.1997 риске	-1.6095
-99.9990 рисовал	-0.2855
-4.1239 ровно	-0.8451
-99.9990 род	-0.2532
-3.9198 рода	-0.1020
-4.1239 родился	-0.8319
-99.9990 родители	-0.2740
-4.5219 родной	-0.0313
-99.9990 родов	-0.2532
-99.9990 роль	-0.2872
-3.2318 ромбами	-1.6125
-3.2318 роскошном	-1.6125
-3.2431 рослый	-1.6018
-99.9990 россии	-0.2867
-99.9990 россию	-0.2872
-99.9990 россказни	-0.2872
-4.5219 рот	-0.0314
-3.2431 рубахе	-1.6012
-3.3044 рубашке	-1.5438
-3.2431 рубашки	-1.6018
-99.9990 рубит	-0.2740
-99.9990 рубля	-0.2728
-99.9990 рук	-0.2869
-4.1239 рукам	-0.8111
-4.2208 руками	-0.1406
-3.8229 руках	-1.1005
-3.3458 руке	-1.7740
-3.8229 руки	-0.5719
-99.9990 рукой	-0.2830
-99.9990 рукопожатий	-0.2830
-4.5219 рукою	-0.2872
-3.0825 руку	-1.6998
-99.9990 руси	-0.2872
-4.5219 русские	-0.0314
-99.9990 русский	-0.2532
-99.9990 русским	-0.2872
-4.3458 русских	-0.0671
-99.9990 русскому	-0.2872
-99.9990 руч	-0.2532
-99.9990 рыба	-0.2728
-99.9990 рычал	-0.2858
-99.9990 рябоват	-0.2870
-3.7437 рядом	-1.3944
-3.2101 рёбрами	-1.6202
-2.0147 с	-1.1965
-3.2101 садимся	-1.6332
-99.9990 салфеткой	-0.2728
-2.8186 сам	-1.3605
-4.5219 сама	-0.0309
-99.9990 самая	-0.2872
-4.0448 сами	-1.1323
-99.9990 самим	-0.2872
-99.9990 самих	-0.2855
-4.5219 самовар	-0.2481
-99.9990 самовара	-0.2870
-99.9990 самоваром	-0.2843
-4.1239 самое	-0.1660
-4.0448 самой	-1.1307
-4.3458 самом	-0.1011
-99.9990 самоуве	-0.2872
-99.9990 самсьм	-0.2872
-99.9990 самшест	-0.2740
-99.9990 самый	-0.2872
-4.5219 сановникам	0.0026
-99.9990 сановников	-0.2872
-99.9990 сапог	-0.2871
-99.9990 сапожные	-0.2872
-3.3178 сарай	-1.5313
-2.9596 сарая	-1.8411
-99.9990 сахар	-0.2740
-99.9990 сахарной	-0.2870
-99.9990 сберегаемым	-0.2865
-3.1997 сбивались	-1.6290
-99.9990 сбитенщик	-0.2532
-99.9990 сборищ	-0.2532
-4.2208 свежий	-0.7781
-99.9990 сверкали	-0.2872
-2.9091 свет	-2.1925
-4.1239 свете	-0.0373
-4.5219 светом	-0.0314
-99.9990 светский	-0.2872
-99.9990 свечей	-0.2872
-99.9990 свободнее	-0.2872
-4.5219 свободной	-0.0314
-3.2547 сводчатого	-1.5908
-3.1601 сводящие	-1.6770
-4.1239 свое	-0.1657
-4.2208 своей	-0.2869
-4.1239 своем	-0.2532
-3.7437 свои	-1.1322
-99.9990 своим	-0.2872
-4.3458 своими	-0.6020
-4.3458 своих	-0.2871
-4.5219 свой	-0.2872
-3.5676 свою	-0.7428
-99.9990 связанные	-0.2830
-4.1239 святой	-0.8111
-99.9990 священнейший	-0.2872
-3.1894 свёрнутая	-1.6388
-4.2208 сделал	-0.1395
-4.5219 сделали	-0.0313
-99.9990 сделанных	-0.2872
-3.8229 сделать	-0.5451
-3.0670 себе	-0.9607
-3.2666 себя	-0.7430
-3.8687 сего	-0.5746
-3.8687 сегодня	-0.5036
-99.9990 сегодняшние	-0.2872
-99.9990 седая	-0.2872
-4.5219 седой	-0.0307
-3.1894 сейчас	-1.4266
-4.5219 секрет	0.0026
-3.1795 сел	-1.9247
-4.5219 села	-0.0310
-99.9990 сели	-0.2859
-4.5219 селифан	-0.2872
-99.9990 село	-0.2868
-3.1697 семена	-1.6718
-2.8544 семь	-1.9512
-99.9990 семьдесят	-0.2532
-3.1894 семью	-1.6489
-3.1795 сердце	-1.6712
-99.9990 серебряную	-0.2872
-3.2666 серо	-1.5795
-4.0448 серой	-0.8989
-4.1239 серьезно	-0.8111
-99.9990 серьезного	-0.2740
-4.5219 сестра	-0.0301
-4.5219 сестры	0.0026
-2.9091 сеть	-1.9285
-4.0448 сзади	-0.9031
-4.5219 сигару	0.0026
-4.5219 сидевшему	-0.0169
-2.9478 сидел	-1.6770
-4.0448 сидела	-0.5734
-4.5219 сидеть	-0.0305
-99.9990 сидит	-0.2872
-3.8229 сил	-1.0452
-4.5219 силах	0.0026
-99.9990 силе	-0.2740
-4.5219 силу	-0.0312
-99.9990 сильно	-0.2872
-99.9990 сильную	-0.2872
-99.9990 сильных	-0.2872
-99.9990 сими	-0.2532
-99.9990 симпозиуме	-0.2872
-99.9990 синюю	-0.2872
-3.2666 ситцевом	-1.5795
-3.1795 сих	-1.6529
-4.5219 сияющем	-0.2532
-99.9990 сияющие	-0.2872
-4.0448 скажем	-0.9030
-99.9990 скажу	-0.2532
-99.9990 сказавши	-0.2872
-2.9841 сказал	-1.1656
-4.5219 сказала	0.0026
-99.9990 сказали	-0.2532
-3.3757 сказать	-0.8727
-99.9990 сказочные	-0.2872
-2.9716 скайлс	-1.8688
-2.9478 скайльс	-1.8914
-3.3178 скайльса	-1.5311
-3.1508 скал	-1.6887
-3.3044 сквере	-1.5438
-2.4518 сквозь	-2.6674
-99.9990 скинул	-0.2830
-4.5219 складам	-0.2872
-3.2547 скользили	-1.5908
-4.2208 сколько	-0.1041
-4.5219 скорее	-0.2872
-99.9990 скорей	-0.2532
-4.5219 скоро	-0.2811
-4.1239 скоростью	-0.8451
-99.9990 скроен	-0.2856
-99.9990 скромностию	-0.2740
-3.9778 скучно	-0.2830
-4.5219 слабо	-0.0314
-4.0448 слабый	-0.9030
-4.5219 слава	-0.2740
-99.9990 славным	-0.2872
-99.9990 сладкие	-0.2856
-99.9990 сладкий	-0.2872
-4.1239 следов	-0.8111
-4.5219 следствием	-0.0302
-3.9198 следует	-0.5286
-99.9990 следующее	-0.2872
-99.9990 следующий	-0.2872
-3.1997 следы	-1.9204
-99.9990 следя	-0.2872
-99.9990 следят	-0.2866
-99.9990 слезы	-0.2872
-99.9990 слетевший	-0.2854
-4.5219 слетят	0.0026
-99.9990 сличали	-0.2855
-3.5219 слишком	-0.6733
-3.8687 слов	-1.0791
-3.9778 слова	-0.5994
-99.9990 словам	-0.2855
-99.9990 словно	-0.2872
-3.6188 слово	-0.9611
-4.1239 словом	-0.9805
-99.9990 слоеный	-0.2872
-99.9990 слоеным	-0.2872
-3.1601 сложно	-1.6808
-99.9990 сложность	-0.2872
-99.9990 слуга	-0.2872
-4.1239 слуги	-0.2522
-4.5219 слугою	-0.2526
-4.5219 слугу	-0.0308
-99.9990 служат	-0.2871
-99.9990 службе	-0.2859
-99.9990 службу	-0.2872
-3.9778 случае	-1.1860
-4.5219 случается	-0.2791
-4.2208 случай	0.0027
-4.5219 случайно	-0.0313
-99.9990 случаях	-0.2872
-3.8687 случилось	-1.2743
-3.5925 слышал	-1.5366
-3.9778 слышала	-0.6324
-4.5219 слышали	-0.0310
-4.1239 слышать	-0.8446
-4.5219 слышишь	-0.0181
-99.9990 смело	-0.2856
-3.2431 смены	-1.6018
-3.2431 смерти	-1.8780
-3.9778 смерть	-0.5982
-3.1795 сметливым	-1.6625
-99.9990 смешили	-0.2872
-99.9990 смеялся	-0.2856
-99.9990 смогу	-0.2868
-99.9990 смоль	-0.2872
-3.3044 сморщился	-1.5101
-4.5219 смотрели	0.0026
-3.8687 смотреть	-1.0451
-3.9198 смотрит	-0.5428
-99.9990 смутно	-0.2532
-99.9990 смущенно	-0.2872
-4.5219 смысл	0.0026
-4.5219 смысла	0.0026
-99.9990 сна	-0.2830
-99.9990 снабжая	-0.2872
-4.1239 снаружи	-0.8448
-3.2101 сначала	-1.6332
-99.9990 снизу	-0.2872
-4.2208 снова	-0.7781
-99.9990 сновали	-0.2872
-99.9990 снятой	-0.2872
-3.0376 со	-1.1579
-99.9990 соавтор	-0.2532
-4.5219 собакевич	-0.2862
-99.9990 собакевичем	-0.2871
-99.9990 собирая	-0.2871
-4.0448 собираясь	-0.8989
-4.2208 собой	-0.1067
-99.9990 собою	-0.2532
-99.9990 собравшись	-0.2872
-4.5219 собрался	-0.0313
-4.0448 собственно	-0.1002
-99.9990 собственной	-0.2532
-4.0448 собственный	-1.1322
-4.5219 событий	-0.0304
-3.2318 события	-1.5788
-4.1239 совершенно	-0.2869
-99.9990 совершенства	-0.2872
-4.1239 совершить	-0.8450
-99.9990 советник	-0.2872
-99.9990 советники	-0.2868
-99.9990 совету	-0.2872
-3.3757 совсем	-0.7806
-99.9990 согласить	-0.2532
-99.9990 согласиться	-0.2872
-99.9990 содержал	-0.2872
-3.2431 солдат	-1.5876
-3.3044 солдата	-1.5439
-99.9990 соленый	-0.2740
-99.9990 солидное	-0.2740
-3.2788 солнца	-1.5342
-3.1997 солнце	-1.6432
-99.9990 солнцем	-0.2872
-3.2431 соль	-1.5940
-99.9990 сообщен	-0.2740
-4.5219 сообщения	-0.2862
-99.9990 соответствовало	-0.2872
-4.5219 сопровождал	-0.2870
-99.9990 сопровожден	-0.2872
-4.0448 сорок	-1.1322
-99.9990 сосед	-0.2872
-99.9990 соседнее	-0.2872
-99.9990 соседстве	-0.2830
-99.9990 сосиски	-0.2830
-99.9990 сосредоточенность	-0.2532
-99.9990 составляли	-0.2872
-99.9990 составляло	-0.2869
-4.1239 состоит	-0.8447
-4.5219 состояние	0.0026
-4.1239 состоянии	-1.0652
-99.9990 сотни	-0.2872
-4.5219 сотня	-0.0313
-99.9990 сотрудниц	-0.2872
-3.2101 сотрясаясь	-1.6332
-99.9990 сохранил	-0.2871
-4.5219 сохранить	-0.0314
-99.9990 сохранял	-0.2867
-99.9990 сохраняя	-0.2871
-99.9990 сошлись	-0.2863
-99.9990 союз	-0.2872
-4.5219 спальне	0.0026
-99.9990 спальни	-0.2824
-3.2547 спальню	-1.5900
-99.9990 спас	-0.2860
-4.5219 спасибо	-0.0308
-99.9990 спинами	-0.2872
-99.9990 спинкою	-0.2872
-4.1239 спиной	-0.8111
-99.9990 спину	-0.2872
-3.1894 спираль	-1.6529
-99.9990 спокойно	-0.2872
-99.9990 спокойный	-0.2869
-3.2788 спокойным	-1.5680
-4.5219 спокойствие	-0.0313
-4.3458 спорил	-0.2855
-99.9990 спорили	-0.2856
-3.6768 способен	-0.5907
-4.5219 способность	-0.0313
-4.2208 способны	-0.7776
-99.9990 спохватывались	-0.2872
-4.1239 справа	-0.8111
-3.8229 спрашивал	-1.3567
-99.9990 спрашивали	-0.2872
-4.5219 спросил	0.0026
-4.0448 спросила	-0.9021
-4.5219 спросить	-0.0233
-99.9990 спускают	-0.2855
-99.9990 спускаясь	-0.2532
-4.5219 спустя	0.0026
-99.9990 спутаешь	-0.2532
-3.5925 сразу	-0.6482
-99.9990 среди	-0.2872
-99.9990 средней	-0.2872
-99.9990 средних	-0.2860
-4.0448 средства	-0.8691
-99.9990 ст	-0.2872
-3.2101 стал	-0.9951
-2.8735 стала	-1.9632
-2.8784 стали	-1.3826
-3.8229 стало	-0.5787
-4.5219 стар	-0.2862
-99.9990 старались	-0.2872
-3.3315 старая	-1.4912
-99.9990 стараясь	-0.2824
-99.9990 старили	-0.2855
-99.9990 старинного	-0.2872
-99.9990 старухи	-0.2740
-99.9990 старшим	-0.2869
-99.9990 статейка	-0.2532
-99.9990 статские	-0.2872
-3.2547 стеклом	-1.5906
-4.5219 стеклышек	-0.2531
-3.2914 стенах	-1.5561
-4.3458 стене	-0.2813
-4.5219 стену	-0.0314
-99.9990 стены	-0.2872
-99.9990 степени	-0.2844
-4.2208 стихи	-0.7776
-4.2208 стоит	-0.9366
-3.2914 стокгольме	-1.5223
-99.9990 стол	-0.2740
-99.9990 стола	-0.2865
-4.5219 столами	-0.2865
-99.9990 столиком	-0.2854
-4.1239 столовой	-0.8111
-3.3178 столом	-1.5313
-3.1997 столу	-1.1378
-99.9990 сторон	-0.2872
-4.5219 сторона	-0.0314
-99.9990 сторонам	-0.2532
-99.9990 стороне	-0.2532
-2.8834 сторону	-1.4508
-3.1601 стороны	-1.1758
-4.5219 стоявшие	-0.0295
-3.2666 стоявшую	-1.5793
-3.8229 стоял	-1.1125
-4.5219 стояли	-0.0233
-4.3458 стояло	-0.0998
-99.9990 стоят	-0.2728
-4.5219 стоять	-0.0181
-99.9990 страна	-0.2872
-4.2208 странно	-0.1388
-3.2914 странные	-1.5561
-4.2208 страшно	-0.7775
-99.9990 страшный	-0.2532
-4.2208 стрелять	0.0045
-3.2788 строк	-1.5680
-4.5219 строю	-0.2872
-3.1894 стучала	-1.6529
-99.9990 стыда	-0.2532
-3.3044 стёганого	-1.5439
-3.2318 стёганой	-1.6125
-3.1795 стёкла	-1.6622
-99.9990 сударь	-0.2872
-99.9990 судить	-0.2532
-99.9990 судя	-0.2855
-99.9990 сумели	-0.2844
-3.2318 сумерек	-1.6125
-4.1239 сумерки	-0.8451
-4.0448 сумку	-0.8691
-4.5219 сунул	-0.0169
-99.9990 супруга	-0.2872
-3.2914 сурик	-1.5223
-99.9990 суровый	-0.2792
-99.9990 сутки	-0.2872
-99.9990 сутуловатый	-0.2872
-99.9990 сутулую	-0.2872
-3.1894 сух	-1.6192
-4.5219 существовали	-0.2872
-99.9990 существование	-0.2856
-3.2914 сферического	-1.5561
-4.5219 схваток	-0.2824
-99.9990 схвачен	-0.2864
-99.9990 сходилось	-0.2532
-4.5219 счастья	0.0026
-4.5219 считаю	0.0026
-99.9990 съезде	-0.2872
-99.9990 съездов	-0.2532
-4.3458 сын	-0.0528
-99.9990 сына	-0.2866
-4.5219 сюда	-0.2532
-4.5219 сюртуке	-0.2852
-4.5219 сядут	-0.2862
-99.9990 т	-0.2872
-3.9778 та	-0.8874
-4.2208 табак	-0.7442
-99.9990 табакерку	-0.2532
-99.9990 таинственное	-0.2872
-4.1239 тайна	-0.8451
-2.6586 так	-0.9441
-3.8229 такая	-0.4679
-99.9990 также	-0.2872
-4.0448 таки	-1.1320
-3.5925 такие	-1.2480
-4.3458 таким	-0.0992
-4.5219 такими	-0.0314
-3.5676 таких	-0.8592
-3.2914 таков	-1.5419
-3.7090 такого	-0.7649
-3.4805 такое	-0.7169
-3.5676 такой	-0.9461
-99.9990 такою	-0.2872
-4.0448 такси	-1.1310
-2.7895 там	-1.1417
-99.9990 тамбовский	-0.2872
-99.9990 танцующих	-0.2872
-99.9990 тараканами	-0.2872
-99.9990 твердо	-0.2868
-4.5219 твои	-0.0313
-3.8229 твоим	-1.1139
-3.1239 те	-1.6833
-3.4612 тебе	-0.8449
-3.4805 тебя	-0.7336
-3.2914 тела	-1.5223
-3.2208 телескопа	-1.6230
-4.0448 телефона	-1.0982
-3.7090 тем	-0.5251
-4.3458 темной	-0.0671
-99.9990 темнокрасных	-0.2872
-3.1508 тени	-1.6883
-2.3386 теперь	-1.4971
-99.9990 тер	-0.2872
-99.9990 термины	-0.2862
-99.9990 тертый	-0.2872
-99.9990 теряли	-0.2855
-4.0448 тетя	-0.8691
-4.3458 тех	-0.1005
-99.9990 течение	-0.2872
-3.5925 тихо	-1.2738
-3.1601 ткнул	-1.6809
-3.2666 ткнулся	-1.5653
-2.4885 то	-0.8007
-3.6768 тогда	-0.2636
-2.9904 того	-1.1433
-3.0305 тоже	-0.9746
-3.2666 той	-1.5795
-3.1069 толку	-1.7399
-3.2318 толпе	-1.6125
-4.5219 толст	-0.0303
-99.9990 толстого	-0.2872
-4.2208 толстые	-0.2848
-99.9990 толстый	-0.2532
-99.9990 толстым	-0.2532
-2.8017 только	-0.6993
-3.6768 том	-1.0133
-3.1997 тому	-1.6194
-4.5219 тон	-0.0305
-4.2208 тоненькие	-0.2871
-99.9990 тоненький	-0.2862
-99.9990 тоненьких	-0.2872
-99.9990 тоненького	-0.2728
-99.9990 тонкие	-0.2532
-99.9990 тонну	-0.2830
-3.1697 тонок	-1.6006
-99.9990 тоном	-0.2532
-99.9990 торговым	-0.2872
-99.9990 тостов	-0.2872
-3.8229 тот	-0.2680
-4.2208 тотчас	-0.0294
-3.1601 точек	-1.6680
-99.9990 точно	-0.2872
-4.3458 точностию	-0.2870
-99.9990 тощим	-0.2872
-3.1997 трава	-1.6420
-3.1997 траве	-1.6432
-99.9990 трактир	-0.2740
-4.3458 трактирах	-0.2532
-99.9990 трактире	-0.2872
-4.2208 трактирного	-0.6989
-99.9990 трактирным	-0.2872
-99.9990 требовалось	-0.2872
-99.9990 трепетной	-0.2863
-3.2318 трепещет	-1.6125
-99.9990 третьем	-0.2872
-99.9990 трехногую	-0.2872
-3.7090 три	-0.4199
-99.9990 тридцати	-0.2728
-4.3458 тридцать	-0.2866
-3.2788 тротуара	-1.5680
-99.9990 труба	-0.2532
-3.2788 трубки	-1.5680
-3.1601 трубкой	-1.6668
-4.0448 трубку	-1.0840
-99.9990 трубочного	-0.2872
-4.2208 трудно	-0.1406
-99.9990 труднопроизносимые	-0.2872
-3.2208 трудом	-1.8991
-3.2547 труп	-1.5908
-3.9778 ту	-0.9012
-99.9990 туалетом	-0.2532
-99.9990 туалету	-0.2532
-3.2101 тугоплавкой	-1.6329
-3.6768 туда	-0.9338
-99.9990 туземными	-0.2872
-99.9990 тулупчике	-0.2740
-99.9990 тульскою	-0.2872
-3.2914 тусклого	-1.5561
-3.2101 тусклой	-1.6332
-3.4612 тут	-0.8586
-3.2318 туч	-1.6125
-2.9656 ты	-0.9526
-4.1239 тысяч	-0.8451
-4.3458 тысяча	-0.6020
-3.2101 тысячи	-1.6331
-3.2547 тысячу	-1.5899
-3.2208 тьме	-1.5893
-99.9990 тью	-0.2872
-99.9990 тюлю	-0.2532
-99.9990 тюфяка	-0.2872
-99.9990 тяжелая	-0.2872
-3.1508 тянулись	-1.6886
-99.9990 тянулся	-0.2872
-3.2208 тёмный	-1.6230
-3.2208 тёплый	-1.6230
-2.3742 у	-1.2580
-99.9990 уайт	-0.2872
-99.9990 уайта	-0.2830
-99.9990 уайтом	-0.2872
-99.9990 убедительно	-0.2872
-4.0448 убедиться	-1.0952
-99.9990 убеждались	-0.2857
-99.9990 убийственных	-0.2872
-99.9990 убил	-0.2872
-4.1239 убили	-0.8445
-3.1417 убиты	-1.6987
-99.9990 убитым	-0.2740
-4.1239 убить	-0.8421
-99.9990 уважение	-0.2872
-99.9990 уважения	-0.2868
-3.3044 уверенно	-1.5308
-99.9990 увивались	-0.2872
-3.2547 увидел	-1.8663
-4.5219 увидела	0.0026
-99.9990 увидите	-0.2532
-99.9990 увы	-0.2872
-3.3044 углекислоты	-1.5439
-99.9990 углов	-0.2740
-99.9990 углу	-0.2728
-99.9990 угнетется	-0.2864
-99.9990 угодьями	-0.2872
-99.9990 угол	-0.2872
-99.9990 уголовниками	-0.2532
-99.9990 угольной	-0.2843
-99.9990 удается	-0.2870
-4.2208 удалось	-0.1399
-3.1601 удара	-1.6809
-99.9990 ударе	-0.2872
-99.9990 ударял	-0.2855
-99.9990 удивился	-0.2872
-99.9990 удивительно	-0.2863
-99.9990 удивленно	-0.2532
-99.9990 удобно	-0.2867
-99.9990 удовлетворен	-0.2872
-99.9990 удовольствие	-0.2740
-2.7622 уж	-1.5289
-4.1239 ужасно	-0.8441
-2.5307 уже	-1.0626
-4.1239 ужин	-0.8307
-99.9990 ужина	-0.2872
-99.9990 узенькую	-0.2872
-3.2914 узкие	-1.5547
-4.5219 узких	-0.2740
-99.9990 узнаваемый	-0.2872
-3.9778 узнал	-0.5994
-99.9990 узнали	-0.2728
-4.5219 узнать	-0.2723
-4.1239 узнаю	-0.8434
-4.1239 уйти	-0.8438
-99.9990 украшали	-0.2855
-99.9990 украшение	-0.2872
-99.9990 украшений	-0.2872
-3.2101 укреплён	-1.6332
-3.1997 улететь	-1.8864
-99.9990 улицам	-0.2872
-4.2208 улице	0.0078
-2.7660 улицу	-2.0316
-3.2914 улицы	-1.5561
-4.5219 улыбалась	0.0026
-4.5219 улыбаться	0.0026
-4.5219 улыбаясь	0.0026
-99.9990 улыбчивых	-0.2872
-3.1601 ума	-1.6809
-99.9990 умел	-0.2872
-3.1508 умерла	-1.9427
-99.9990 умеют	-0.2871
-99.9990 умеющий	-0.2870
-99.9990 умные	-0.2862
-3.2101 умылась	-1.5995
-99.9990 умыться	-0.2532
-99.9990 университетам	-0.2872
-3.1795 упал	-1.6625
-99.9990 уполномоченный	-0.2872
-99.9990 упомнить	-0.2532
-4.5219 упомянуто	-0.0313
-99.9990 упорство	-0.2872
-99.9990 употребляли	-0.2869
-99.9990 управлялись	-0.2740
-99.9990 управы	-0.2740
-99.9990 уровне	-0.2872
-99.9990 уронил	-0.2870
-4.5219 усам	0.0026
-3.1508 усами	-1.6647
-99.9990 усачом	-0.2872
-3.1997 условиях	-1.6432
-99.9990 услугам	-0.2872
-3.1417 успел	-0.9313
-99.9990 успокоиться	-0.2872
-99.9990 установившиеся	-0.2872
-99.9990 устроивается	-0.2872
-99.9990 устроиваться	-0.2728
-99.9990 устроиться	-0.2728
-99.9990 устройства	-0.2872
-99.9990 уступал	-0.2872
-99.9990 утаить	-0.2532
-3.3044 утомлённым	-1.5436
-4.1239 утра	-0.8111
-4.5219 утро	0.0026
-3.2547 ухо	-1.5263
-4.5219 уходила	-0.0300
-3.8229 уходит	-1.1126
-4.2208 уходить	-0.7442
-99.9990 участием	-0.2872
-99.9990 участника	-0.2532
-99.9990 ученика	-0.2872
-3.2788 учесть	-1.5538
-3.2318 учился	-1.6047
-99.9990 учителе	-0.2532
-99.9990 учтивыми	-0.2532
-99.9990 ушей	-0.2740
-4.5219 ушел	0.0026
-99.9990 ушла	-0.2792
-99.9990 фабриками	-0.2532
-99.9990 факты	-0.2855
-4.0448 фамилию	-1.0976
-99.9990 фамилия	-0.2740
-99.9990 фаринаде	-0.2728
-99.9990 фасад	-0.2872
-99.9990 федька	-0.2872
-3.2788 фельетонов	-1.5665
-3.2101 фермами	-1.5995
-99.9990 фиалки	-0.2532
-99.9990 фигура	-0.2864
-99.9990 фигуре	-0.2872
-99.9990 фигуры	-0.2830
-4.5219 физиономию	-0.2532
-99.9990 философа	-0.2872
-99.9990 финифью	-0.2532
-99.9990 фонарями	-0.2867
-99.9990 форейторские	-0.2872
-4.1239 форме	-0.8111
-99.9990 формы	-0.2532
-4.2208 фотографии	-0.0870
-4.2208 фотографию	-0.7442
-4.5219 фотография	-0.2862
-99.9990 фразы	-0.2872
-99.9990 фрак	-0.2824
-4.5219 фраке	-0.2830
-4.5219 фраки	-0.0314
-4.1239 франков	-0.8111
-99.9990 французы	-0.2532
-4.0448 фронт	-0.8691
-99.9990 фуражечки	-0.2872
-99.9990 фыркнув	-0.2872
-4.1239 характер	-0.8433
-99.9990 характера	-0.2740
-99.9990 хватало	-0.2872
-4.0448 хватит	-0.9030
-3.3178 хваткой	-1.5313
-99.9990 хлебосолом	-0.2740
-3.8687 хм	-1.2532
-99.9990 хмыкал	-0.2532
-4.1239 ходил	-0.8307
-4.3458 ходили	-0.0867
-99.9990 хозяева	-0.2532
-3.9198 хозяин	-0.5545
-99.9990 хозяина	-0.2872
-3.2914 холмистая	-1.5561
-4.5219 холода	0.0026
-4.5219 холодное	-0.0271
-4.1239 холодным	-0.8435
-99.9990 холостым	-0.2872
-99.9990 холостяки	-0.2872
-99.9990 хомутами	-0.2872
-99.9990 хорошее	-0.2872
-3.1795 хорошо	-1.4287
-99.9990 хоругви	-0.2868
-3.5442 хотел	-0.7747
-4.5219 хотела	-0.0307
-99.9990 хотели	-0.2869
-3.7437 хотелось	-0.8760
-4.2208 хотите	-0.7442
-4.1239 хоть	-0.1621
-3.0905 хотя	-1.3214
-99.9990 хохлами	-0.2861
-3.9778 хочет	-1.1860
-3.9198 хочу	-0.7637
-3.2101 хребтом	-1.5995
-99.9990 худенькая	-0.2872
-4.3458 художник	-0.2782
-3.9198 хуже	-0.5387
-4.1239 цвет	-0.8449
-3.2788 цвета	-1.8050
-4.5219 цветов	-0.2532
-99.9990 цветом	-0.2870
-3.2431 целует	-1.6016
-3.9778 целый	-1.1903
-4.0448 цель	-0.9026
-4.1239 целью	-0.8111
-4.1239 цену	-0.8319
-3.2431 цепи	-1.5940
-4.5219 чайных	-0.0314
-4.5219 час	-0.2872
-3.7437 часа	-0.6186
-3.1508 часов	-1.9338
-4.1239 часто	-0.0378
-3.2914 частой	-1.5561
-4.5219 часть	-0.2872
-99.9990 частью	-0.2872
-4.0448 часы	-0.8691
-3.1997 чахлой	-1.6432
-4.5219 чашек	-0.0298
-4.5219 чашку	-0.2872
-2.9308 чаще	-1.9067
-4.5219 чаю	-0.2526
-3.4612 чего	-0.9117
-4.0448 чей	-0.9017
-3.2788 чек	-1.5680
-3.1239 человек	-1.0022
-4.1239 человека	-0.2861
-3.1697 человеком	-1.6381
-3.3315 человеческий	-1.5183
-4.5219 человеческих	-0.0313
-99.9990 челюсть	-0.2872
-2.9656 чем	-0.8594
-4.2208 чемодан	-0.1244
-99.9990 чемоданом	-0.2872
-4.0448 чему	-0.8691
-99.9990 черви	-0.2532
-99.9990 червоточина	-0.2872
-99.9990 червь	-0.2872
-99.9990 червяка	-0.2728
-2.4463 через	-2.6701
-3.3315 череп	-1.5041
-99.9990 чернослив	-0.2843
-99.9990 черною	-0.2856
-4.5219 черные	-0.0314
-3.9778 черными	-1.1900
-99.9990 черт	-0.2866
-3.2914 чертах	-1.5547
-3.3178 чертежами	-1.5182
-99.9990 черты	-0.2872
-4.5219 честь	-0.2872
-99.9990 четвероногую	-0.2872
-4.5219 чин	-0.2824
-99.9990 чиновника	-0.2532
-4.5219 чиновники	-0.2724
-99.9990 чиновников	-0.2728
-99.9990 числятся	-0.2740
-3.2431 чистое	-1.6018
-3.2666 читала	-1.5795
-99.9990 читатель	-0.2872
-4.1239 читать	-0.8111
-3.9778 чичиков	-0.2815
-99.9990 чичикова	-0.2728
-99.9990 чичикову	-0.2856
-4.1239 чрезвычайно	-0.2868
-99.9990 чрезвычайною	-0.2872
-2.1804 что	-0.8157
-4.3458 чтоб	-0.0920
-3.2318 чтобы	-0.6305
-4.5219 чтото	-0.2867
-3.1697 чувствовал	-1.9559
-99.9990 чувствовалось	-0.2844
-4.0448 чувствую	-0.8691
-3.2431 чудовище	-1.5681
-99.9990 чудом	-0.2872
-4.5219 чужим	0.0026
-3.8229 чуть	-1.2819
-99.9990 чьи	-0.2872
-3.1601 чёрной	-1.6809
-3.3044 шагал	-1.5439
-4.1239 шагов	-0.8436
-99.9990 шагу	-0.2872
-3.2431 шапки	-1.6004
-3.2208 шарик	-1.5893
-99.9990 шаркнувши	-0.2872
-4.5219 шарлотта	-0.2872
-99.9990 швед	-0.2872
-3.2101 шевелить	-1.6332
-3.2666 шевеля	-1.5795
-99.9990 шее	-0.2872
-99.9990 шеи	-0.2872
-3.9198 шепотом	-0.6505
-99.9990 шептались	-0.2872
-99.9990 шерсти	-0.2872
-4.5219 шерстяную	-0.0314
-3.1997 шести	-1.6429
-2.8884 шесть	-1.9534
-4.5219 шестьдесят	-0.2532
-99.9990 шинель	-0.2532
-3.1795 широкие	-1.3493
-99.9990 широким	-0.2872
-3.3044 широко	-1.5101
-3.2431 широкоплечий	-1.6017
-99.9990 шкатулках	-0.2872
-4.0448 школу	-1.0983
-4.1239 шла	-0.8111
-2.7260 шли	-2.1088
-4.1239 шофер	-0.8111
-99.9990 штабскапитаны	-0.2872
-3.3044 штанов	-1.5101
-4.1239 штука	-0.8422
-99.9990 штучными	-0.2872
-3.1997 штык	-1.6387
-99.9990 шума	-0.2740
-99.9990 щекам	-0.2532
-99.9990 щеки	-0.2532
-3.2914 щели	-1.5561
-99.9990 ществовать	-0.2872
-3.2547 щетинистые	-1.5908
-99.9990 щи	-0.2830
-3.1894 щиколотку	-1.6388
-99.9990 щуривший	-0.2532
-99.9990 щух	-0.2532
-3.2431 щёки	-1.5876
-4.2208 э	-0.2872
-99.9990 эволюции	-0.2532
-3.3178 эдак	-1.4975
-3.3178 эй	-1.5313
-3.1601 экваториальной	-1.6809
-4.5219 экипаж	-0.2872
-99.9990 экипаже	-0.2855
-4.5219 экипажу	-0.0309
-99.9990 эластической	-0.2872
-3.3178 электрическая	-1.5313
-3.1795 электричество	-1.6610
-99.9990 эмблема	-0.2872
-4.5219 эн	-0.2872
-99.9990 эпохи	-0.2869
-99.9990 эскадронами	-0.2872
-99.9990 эскадроны	-0.2872
-3.1417 эта	-1.6984
-99.9990 этажа	-0.2872
-3.8687 эти	-0.5385
-3.9778 этим	-1.1563
-99.9990 этими	-0.2872
-3.9778 этих	-0.8889
-2.4320 это	-0.8054
-2.5676 этого	-1.8968
-2.6894 этой	-1.7335
-2.8498 этом	-1.7605
-99.9990 этому	-0.2872
-3.5925 этот	-0.7204
-2.9091 эту	-1.7335
-99.9990 юноша	-0.2871
-2.3044 я	-0.7948
-4.3458 явился	-0.0997
-4.5219 явно	-0.0314
-99.9990 языках	-0.2740
-99.9990 языки	-0.2869
-99.9990 языком	-0.2868
-3.3044 яйца	-1.5439
-3.1997 яйцеобразный	-1.6424
-4.5219 якобы	-0.0312
-2.9198 ярко	-1.9186
-3.1508 ясно	-1.6895
-3.2208 ясный	-1.6230
-3.2101 ящериц	-1.6329
-3.3044 ящики	-1.5434
-1.1232 <s>	-1.2690
-1.1232 </s>	-3.6657

\2-grams:
-2.3406 а больше -0.3201
-2.8812 а была -0.3285
-2.3406 а были -0.3275
-1.1222 а в -0.9309
-2.3406 а важнее 1.3419
-2.3406 а воздушные -0.0430
-2.8812 а вот -0.0082
-1.2472 а все -1.0892
-0.9114 а где -1.0774
-2.8812 а другая -0.0022
-2.3406 а другое -0.2742
-2.3406 а еще -0.3097
-2.3406 а зубр -0.3149
-2.3406 а иногда -0.3087
-2.3406 а к -0.3301
-2.3406 а лакей -0.2989
-2.3406 а ленивые 1.2496
-2.3406 а лондон -0.0430
-2.8812 а лучше 0.1672
-2.3406 а между -0.3291
-1.0253 а может -0.4189
-2.8812 а мы -0.0085
-2.3406 а на -0.3302
-2.3406 а не -0.3301
-2.8812 а он -0.3296
-2.3406 а после -0.3262
-2.3406 а потом -0.3271
-2.8812 а почему -0.0059
-2.3406 а председатель -0.2099
-1.3263 а просто -0.6377
-2.3406 а пустынные 1.2261
-2.3406 а сам -0.3175
-2.3406 а сегодня -0.3087
-2.8812 а скорее -0.0430
-1.3263 а способны 0.0792
-1.2472 а то -0.7645
-1.1802 а уж -0.5302
-2.3406 а холостым -0.0430
-2.3406 а черты -0.0430
-1.4232 а что -0.0012
-2.3406 а широкие 1.0220
-2.8812 а я -0.3174
-0.0669 аббатство как -0.7680
-0.0119 аванс шесть -1.3345
-0.3153 австралии </s> 3.3695
-0.3153 австралийская звезда -0.0430
-0.0105 ад и -1.6040
-0.3153 азербайджанский молодой -0.2742
-0.3153 азии и -0.3296
-0.0098 алексей иванович -0.2817
-0.3153 американец лауреат -0.0430
-0.0116 американской газеты 0.0116
-0.3153 америки азии -0.0430
-0.6163 англии это -0.3300
-0.6163 англии </s> 3.3695
-0.3153 анекдоты ему -0.3286
-0.3153 анну и -0.3301
-0.3153 аногу старая 0.8739
-0.3153 антоша канелис -0.2099
-0.0122 апельсинового но -1.4361
-0.2798 аппарат был -1.7456
-0.5809 аппарат прорезывал 0.0102
-0.6856 аппарат так -1.4098
-0.0126 аппараты наблюдения 0.0126
-0.3153 аристократических предках -0.0430
-0.3153 армянский художник -0.2538
-0.3153 архитектору </s> 3.3695
-0.0116 арчибальд скайлс -1.2672
-0.0091 астрономов постоянно 0.0091
-1.1569 атаку </s> 3.6908
-0.0091 атлантическом океане 0.0091
-0.3153 ауэрбах чьи -0.0430
-0.0091 африки в -1.6629
-0.0093 ах боже 0.0093
-0.3153 ахали </s> 3.3695
-0.6163 б один -0.3277
-0.6163 б случилось -0.3107
-1.9173 багровые п -0.0430
-0.0110 багровые полосы 0.0110
-0.3153 бакенбарды или -0.3279
-0.0126 баки ящики 0.0126
-0.3153 бала коляска -0.0430
-0.0122 балки лесов -1.3062
-0.3153 баранками </s> 3.3695
-0.3153 барином хлебосолом -0.0430
-0.3153 барского плеча -0.2099
-0.6163 бархатные знамена -0.0430
-0.6163 бархатные и -0.3292
-0.0126 барышни было -1.4529
-1.1569 бегал по -0.0087
-0.3153 бежала туда -0.3160
-0.0100 бежали из -1.5909
-0.3153 бежать </s> 3.3695
-1.3649 без всякого 0.0669
-2.9989 без дела -0.0077
-2.9989 без кожи -0.0075
-2.4583 без окна -0.3279
-2.4583 без памяти -0.0430
-0.5520 без пояса 0.0110
-2.4583 без приятности -0.0430
-1.4440 без слов -0.4649
-2.9989 без того -0.3242
-1.3649 без толку -0.7280
-2.4583 без часов -0.3258
-0.5520 без шапки 0.0110
-0.6115 без штанов 0.0126
-0.0091 безвоздушном пространстве -1.3711
-1.1569 бездна чайных 0.0224
-0.0091 бездны он -1.6363
-0.0105 безнадёжное одиночество 0.0105
-0.3153 безобразили а -0.3297
-0.3153 безоглядность присуща -0.0430
-0.3153 безошибочно </s> 3.3695
-0.0119 безумном городе -0.6425
-0.3153 белой кожи -0.3253
-1.1569 белом сияющем -0.0430
-0.3153 белых канифасовых -0.0430
-0.0130 берега до -1.4357
-0.6163 берегу те 1.0677
-0.6163 берегу </s> 3.3695
-0.3153 березы </s> 3.3695
-0.0091 берлин </s> 2.0277
-0.3153 берлине продержав -0.0430
-0.0669 беру на -0.7761
-0.6163 бесконечно много -0.3123
-0.6163 бесконечно широким -0.0430
-0.3153 беспокоящим глаза -0.3258
-0.3153 беспорядочное бессмысленное -0.0430
-0.3153 беспредметно появилось -0.0430
-0.3153 бессмысленное составляло -0.0430
-0.3153 бизонов вида -0.0430
-0.3153 била в -0.3296
-1.1569 били меня -0.0083
-0.0116 биться в -1.5610
-0.3153 благовидные весьма -0.3107
-0.3153 благодать божия -0.0430
-0.0095 бледный свет 0.2659
-0.3153 блеск от -0.3295
-0.3153 блеска они -0.3191
-0.0134 блеснуло золото 0.0134
-0.3153 блестели у -0.3295
-0.0130 ближайшей кущи 0.0130
-1.3330 ближе один 0.0073
-0.7924 ближе чем -0.3274
-0.3153 близ города -0.3249
-0.6163 блин и -0.3301
-0.6163 блин который -0.3190
-0.6163 блюда как -0.3183
-0.6163 блюда они -0.3293
-0.6163 бог их -0.3277
-0.6163 бог послал -0.0430
-0.3153 богатым летом -0.0430
-0.3153 богатыри </s> 3.3695
-0.3153 богом покой -0.2099
-0.6163 богу если -0.3243
-0.6163 богу и -0.3301
-0.0093 боже мой -1.3244
-0.3153 божия </s> 3.3695
-0.3153 бойкий профессор -0.3031
-1.1569 бойко подносом 0.0224
-0.3153 бокалами от -0.3295
-2.8003 более к -0.0088
-2.2598 более потемневших -0.0430
-0.2724 более сложно 0.0091
-2.2598 более согласиться -0.0430
-2.2598 более туземными -0.0430
-0.4004 более тусклого 0.0122
-2.2598 более чем -0.3274
-0.3153 болезней в -0.3302
-0.3153 болезням кукурузы -0.0430
-0.3153 больных а -0.3282
-1.6375 больше в -0.3293
-0.4771 больше денег 0.2688
-1.6375 больше закругленные -0.0430
-2.1781 больше меня 0.0262
-2.1781 больше ничего 0.1975
-1.6375 больше по -0.3294
-0.5441 больше чем -0.7419
-1.6375 больше </s> 3.3695
-1.1569 большее было -0.0087
-0.3153 большей частью -0.0430
-0.3153 большею точностию -0.2538
-0.6163 большинство лишь -0.3201
-0.6163 большинство подходили -0.2538
-1.0143 большой добряк -0.0430
-1.0143 большой и -0.3232
-1.0143 большой ли -0.3277
-1.0143 большой похвалы -0.0430
-1.0143 большой сударь -0.0430
-0.3153 большою охотою -0.0430
-0.8451 большую игру 0.0580
-0.0774 большую монетную 0.0105
-2.0055 большую часть -0.2099
-1.0143 бора тоже -0.3270
-0.0969 бора </s> 3.0977
-0.3153 бородавки </s> 3.3695
-0.3153 бородою </s> 3.3695
-0.3153 бостончик кто -0.3152
-0.0116 босую молодую 0.0116
-0.3153 ботинки с -0.3299
-1.8559 брат конечно -0.0013
-0.0969 брат </s> 2.7967
-0.0414 брата </s> 2.6998
-0.0792 брату </s> 3.0008
-2.5634 братья и -0.0089
-0.0174 братья убиты 0.0088
-0.6163 бричка подъехала -0.0430
-0.6163 бричка </s> 3.3695
-0.6163 бричке придумывая -0.0430
-0.6163 бричке сидел -0.3275
-0.3153 бровями и -0.3302
-0.3153 бронзовым пистолетом -0.0430
-0.0792 бросил ты -0.6702
-1.1569 бросилась мне -0.0082
-1.1569 бросить его -0.0087
-0.3153 брусничного цвета -0.3243
-0.3153 бубен </s> 3.3695
-0.0100 бубнили сбивались 0.0100
-0.3153 будем ли -0.3277
-1.0731 будет жить -0.5563
-2.7071 будет идти -0.0079
-0.1792 будет не -1.9746
-1.0062 будет нетрудно 0.0580
-2.7071 будет продать 0.9453
-2.1665 будет проще -0.0430
-1.0731 будет семью -0.7175
-1.1569 будете это -0.0087
-1.1569 будешь делать 0.4060
-0.3153 будочников а -0.2961
-1.2695 будто бы -0.3266
-1.8101 будто ждал 0.0065
-0.1761 будто этот -0.6021
-1.4579 буду жить -0.0049
-1.4579 буду стоять 0.0224
-0.0580 будут </s> 2.8547
-0.0669 будущее было -0.6996
-0.3153 буклями ни -0.3201
-0.3153 булавкою с -0.3299
-0.3153 булыжник </s> 3.3695
-0.3153 бумагу жареная -0.2099
-0.3153 бумажке половой -0.2860
-0.3153 бумажки по -0.3294
-0.3153 бурной и -0.3301
-0.0130 бурому праху 0.0130
-0.0102 бурь в -1.6150
-0.0098 буфер </s> 2.0563
-2.0787 бы беспредметно -0.0430
-1.0645 бы выразить -0.4649
-2.0787 бы вырастает -0.0430
-2.0787 бы говорил -0.3138
-0.9853 бы говорить -0.4956
-2.6193 бы думать 0.0065
-2.0787 бы еще -0.3293
-2.0787 бы и -0.3301
-2.0787 бы издали -0.2538
-2.6193 бы как -0.0087
-2.6193 бы лучше 0.2921
-2.0787 бы на -0.3301
-2.0787 бы он -0.3219
-2.0787 бы подобные -0.0430
-2.6193 бы подумать -0.0430
-2.0787 бы получить -0.2099
-2.0787 бы сделал -0.2742
-0.9853 бы сегодня -0.3802
-2.0787 бы сейчас -0.3255
-2.0787 бы сказал -0.3117
-0.9183 бы собираясь 0.0580
-2.6193 бы собственно 0.0013
-0.9853 бы совершить 0.0669
-2.0787 бы странно -0.2742
-2.6193 бы тебя -0.0065
-2.6193 бы тогда -0.0049
-0.0580 бывает в -0.8437
-1.2184 бывает тут -0.2333
-0.1091 бывал здесь -0.7737
-1.8101 бывал похож 0.0224
-0.0669 бывало </s> 2.9216
-1.8101 бывают гостиницы 0.1721
-0.1761 бывают ли -0.7164
-1.2695 бывают эти -0.3087
-1.5563 был а -0.8021
-2.7167 был большой -0.2860
-3.2573 был бы -0.0079
-2.7167 был визитам -0.0430
-2.7167 был встречен -0.0430
-2.7167 был выкрашен -0.0430
-2.7167 был дан -0.0430
-1.7024 был и -1.0280
-2.7167 был известного 0.2718
-2.7167 был как -0.3300
-2.7167 был конечно -0.3031
-2.7167 был корифей -0.0430
-1.7024 был крепкий 0.0792
-1.6232 был ли -0.7456
-3.2573 был момент 0.0065
-2.7167 был на -0.3301
-0.7679 был не -1.9350
-2.7167 был небольшой -0.3252
-2.7167 был немногословен -0.0430
-2.7167 был ни -0.3290
-0.8829 был освещён 0.0130
-2.7167 был от -0.3295
-2.7167 был очень -0.3280
-0.7782 был построен 0.0102
-2.7167 был представлен -0.0430
-0.8573 был принцип 0.0122
-3.2573 был с -0.3296
-2.7167 был сообщен -0.0430
-2.7167 был сопровожден -0.0430
-2.7167 был страшный -0.0430
-2.7167 был схвачен -0.0430
-2.7167 был сын -0.2538
-2.7167 был так -0.3288
-2.7167 был тем -0.3149
-0.7579 был тонок -0.2817
-2.7167 был у -0.3295
-2.7167 был швед -0.0430
-2.7167 был </s> 3.3695
-0.5092 была видна 0.0116
-2.6937 была дама 0.5729
-2.6937 была ли -0.2685
-2.6937 была манишка -0.0430
-2.6937 была набычена -0.0430
-2.6937 была не -0.3285
-3.2343 была нимфа 0.0224
-1.9013 была она -0.0664
-2.6937 была очень -0.3280
-0.9160 была привязана -0.0283
-0.8343 была приотворена 0.0122
-0.8343 была ракета 0.0122
-2.6937 была та -0.3031
-1.6002 была такая -0.4357
-2.6937 была тоже -0.3100
-0.7449 была трава 0.0100
-2.6937 была эмблема -0.0430
-3.2343 была я -0.0088
-2.6937 была </s> 3.3695
-2.2018 были бородавки -0.0430
-2.7424 были братья -0.0077
-0.2844 были видны 0.0000
-2.7424 были вместе 0.0013
-2.2018 были двух -0.3149
-2.2018 были его -0.3295
-1.1083 были ему -0.7401
-2.2018 были еще -0.3270
-1.1083 были же -0.7693
-1.4094 были знаменитости -0.1344
-2.2018 были изысканность -0.0430
-2.2018 были или -0.3279
-2.7424 были иные -0.0082
-2.2018 были лавочки -0.0430
-2.2018 были одногодки -0.0430
-2.7424 были очень -0.0083
-2.2018 были полные -0.2099
-2.2018 были почетные -0.0430
-2.2018 были просто -0.3247
-2.2018 были такие -0.3196
-2.2018 были такого -0.1383
-2.2018 были хорошо -0.3255
-1.8325 было бы -0.1348
-3.2904 было быть -0.0084
-0.7814 было в -1.6440
-3.2904 было важно 0.7692
-0.7533 было видеть -1.3557
-1.8325 было видно 0.0160
-2.7499 было внесено -0.0430
-3.2904 было восемнадцать 0.0224
-2.7499 было впереди -0.0430
-2.7499 было выяснить -0.0430
-2.7499 было давно -0.3277
-1.5895 было до -0.8288
-1.5895 было жарко 0.0580
-3.2904 было залито -0.0430
-3.2904 было идти -0.0079
-2.7499 было изрезано -0.0430
-2.7499 было именно -0.3267
-2.7499 было ко 0.5729
-2.7499 было лет -0.3291
-2.7499 было ли -0.3277
-2.7499 было лицо -0.3290
-3.2904 было мне -0.0082
-1.5895 было мучительно -0.7766
-1.5315 было не -0.3007
-2.7499 было невозможно -0.0430
-2.7499 было необходимо -0.0430
-0.7911 было необычайно 0.0098
-3.2904 было ни -0.0086
-3.2904 было ничего -0.0073
-2.7499 было отличить -0.0430
-0.7814 было потушено 0.0095
-2.7499 было против 0.3687
-2.7499 было рассмотреть -0.0430
-3.2904 было состояние 0.0224
-3.2904 было то 0.0047
-1.6564 было только -1.0820
-3.2904 было трудно 0.0065
-3.2904 было упомянуто 0.0224
-2.7499 было что -0.3298
-1.5895 было </s> 2.8547
-0.0669 быстро и -0.7673
-2.9458 быть вы -0.0068
-2.9458 быть где 0.0048
-2.4052 быть дел -0.0430
-0.4367 быть дела -0.4491
-2.4052 быть из -0.2804
-0.4178 быть может -1.3093
-1.2448 быть не -0.8405
-2.9458 быть они 0.0022
-1.2448 быть потому 0.1326
-2.9458 быть просто -0.0073
-2.4052 быть самим -0.0430
-2.4052 быть свое -0.2860
-2.4052 быть так -0.1527
-2.9458 быть у -0.0087
-2.9458 быть </s> 3.6908
-0.3153 бычье упорство -0.0430
-0.3064 бьётся трепещет 0.0107
-0.3064 бьётся чаще -1.3064
-3.6648 в англии -0.2099
-4.2053 в атаку 0.0224
-1.6774 в атлантическом 0.0091
-1.6774 в безвоздушном 0.0091
-3.6648 в белых -0.0430
-1.6774 в берлин 0.0091
-3.6648 в берлине -0.0430
-4.2053 в бричке -0.0430
-1.8054 в ведёрке 0.0122
-1.7367 в вечной 0.0105
-2.5044 в виду 0.0580
-1.7060 в виски 0.0098
-3.6648 в воде -0.0430
-3.6648 в вольном -0.0430
-3.6648 в ворота -0.2538
-2.5044 в воскресенье 0.0580
-3.6648 в гимнастерках -0.0430
-1.8054 в гладких 0.0122
-2.8724 в глаза -0.0864
-4.2053 в глубине 0.0224
-1.8180 в голове 0.0126
-3.6648 в город -0.3123
-2.6505 в городе -0.3038
-3.6648 в госте -0.0430
-2.5713 в гостиную 0.0669
-1.8180 в грязной 0.0126
-3.6648 в губернаторский -0.2099
-3.6648 в губернских -0.0430
-1.7697 в гуще 0.0113
-3.6648 в дальний -0.0430
-3.6648 в два -0.3149
-4.2053 в действительности 0.0224
-3.6648 в день -0.2538
-4.2053 в деревне 0.0224
-1.6593 в деревню -0.0342
-3.6648 в длинном -0.0430
-4.2053 в доме -0.0075
-3.6648 в дороге -0.0430
-2.5044 в другой -0.6146
-2.8724 в другом -0.0689
-3.6648 в другую -0.3062
-2.5044 в душе 0.0580
-2.8724 в его -0.0911
-1.7697 в её -1.2897
-1.8310 в жестяном 0.0130
-2.5044 в жизни -0.1461
-1.7584 в закрытые 0.0110
-3.6648 в зал -0.0430
-3.6648 в заповеднике -0.0430
-1.8054 в звёздную 0.0122
-1.7060 в земле 0.0098
-1.8443 в зубах 0.0134
-3.6648 в италии -0.0430
-4.2053 в их -0.3251
-4.2053 в кабинете 0.0224
-3.6648 в каждого -0.2099
-3.6648 в каждую -0.0430
-4.2053 в казань -0.0430
-3.6648 в какихто -0.0430
-3.6648 в какое -0.2255
-4.2053 в какой 0.2191
-3.6648 в каком -0.0430
-2.5713 в кармане 0.0669
-3.6648 в карточки -0.0430
-2.5713 в квартире -0.5351
-4.2053 в квартиру -0.0075
-1.7474 в когда -1.4375
-1.7813 в колючую 0.0116
-4.2053 в конце 0.0117
-4.2053 в которое 0.0013
-3.6648 в кресле -0.0430
-3.6648 в кухню -0.2989
-1.7160 в кучки 0.0100
-4.2053 в лицо -0.3214
-1.7584 в лоб -1.2659
-3.6648 в ломбард -0.0430
-1.7262 в магнитных 0.0102
